tree
version=v4
num_class=1
num_tree_per_iteration=1
label_index=0
max_feature_idx=10
objective=regression
feature_names=step dists inserts first_nn_dist nn_dist furthest_dist avg_dist variance percentile_25 percentile_50 percentile_75
feature_infos=[0:815] [9:37427] [10:160] [0:1.69817] [0:1.1040989999999999] [0:1.733568] [0:1.3599730000000001] [0:0.070413000000000003] [0:1.254912] [0:1.3797870000000001] [0:1.4819819999999999]
tree_sizes=3318 3445 3452 3463 3460 3477 3474 3467 3483 3466 3459 3489 3493 3481 3500 3508 3490 3492 3499 3497 3470 3461 3480 3508 3497 3475 3474 3484 3480 3501 3486 3503 3498 3461 3476 3435 3488 3479 3489 3492 3473 3475 3457 3491 3489 3494 3495 3450 3511 3447 3422 3470 3490 3483 3402 3470 3411 3399 3354 3416 3513 3433 3429 3311 3389 3417 3336 3411 3501 3446 3256 3429 3409 3317 3354 3417 3172 3351 3390 3393 3351 3335 3464 3448 3282 3377 3255 3398 3320 3459 3381 3349 3197 3369 3259 3361 3284 3453 3473 3306

Tree=0
num_leaves=31
num_cat=0
split_feature=0 0 0 4 4 0 4 4 4 0 4 0 0 0 0 6 4 0 4 4 0 4 0 4 4 4 4 4 0 4
split_gain=5.02979e+06 642194 631767 224284 220430 80193.9 77316.5 64649.5 51880.4 45904.7 45688 36892 35130 32818.4 31256.7 23027.9 21253.9 18483 17748.4 17325.9 15509.3 14024.2 11609.1 11408.3 11319.8 11303.9 9073.87 8619.02 6309.79 5913.59
threshold=20.500000000000004 65.500000000000014 6.5000000000000009 0.38469200000000009 0.31746350000000007 146.50000000000003 0.43712250000000002 0.26701200000000008 0.26846900000000007 35.500000000000007 0.15484400000000001 2.5000000000000004 11.500000000000002 11.500000000000002 35.500000000000007 0.54461700000000013 0.45684600000000003 2.5000000000000004 0.31091350000000006 0.53344250000000015 35.500000000000007 0.51253800000000005 290.50000000000006 0.58047850000000012 0.14025900000000005 0.46226700000000004 0.40265950000000006 0.15484400000000001 11.500000000000002 0.35361800000000004
decision_type=2 2 2 2 2 2 2 2 2 2 2 2 2 2 2 2 2 2 2 2 2 2 2 2 2 2 2 2 2 2
left_child=2 3 7 8 10 6 18 11 20 21 28 -1 25 -12 -10 29 -14 -9 -3 -11 27 -5 -17 -8 -13 -6 -19 -2 -4 -7
right_child=1 5 4 9 12 15 23 17 14 19 13 24 16 -15 -16 22 -18 26 -20 -21 -22 -23 -24 -25 -26 -27 -28 -29 -30 -31
leaf_value=0.87292623198349695 0.95120131587622692 0.95577676203726436 0.93218862338285613 0.92145429755075781 0.8939451127213649 0.95750120343260592 0.94508419046714343 0.86167999406213136 0.93360273968452434 0.93573401194465688 0.91073714107949444 0.91281220142711095 0.91138588983579394 0.92783417951771374 0.94516010409386497 0.95041008773491098 0.89349295450503519 0.88124252932191338 0.95168077479833746 0.92026986418579382 0.95259782667917958 0.90504413417810714 0.95534184881481343 0.93313147091537874 0.89358221222021039 0.87753119937703605 0.86840575441330081 0.94296204737018963 0.9440269503875699 0.95652844298850837
leaf_weight=811574 2010778 31697803 701473 2197992 1247544 223962602 6981012 1941518 3560268 4474124 1749659 448014 2115082 3133370 6827650 6421125 967539 1143155 15878123 864501 10259732 682482 18596175 901655 966451 632185 1062426 3444653 1257045 86681621
leaf_count=811574 2010778 31697803 701473 2197992 1247544 223962602 6981012 1941518 3560268 4474124 1749659 448014 2115082 3133370 6827650 6421125 967539 1143155 15878123 864501 10259732 682482 18596175 901655 966451 632185 1062426 3444653 1257045 86681621
internal_value=0.953061 0.955262 0.901546 0.942146 0.915245 0.956413 0.95289 0.876175 0.946682 0.92774 0.926883 0.889922 0.8992 0.921708 0.941199 0.956995 0.90577 0.868795 0.95441 0.93323 0.950307 0.917566 0.954076 0.943717 0.899673 0.888425 0.875059 0.945999 0.939787 0.95723
internal_weight=0 4.25442e+08 1.8177e+07 3.43222e+07 1.18039e+07 3.9112e+08 5.54586e+07 6.37314e+06 2.61031e+07 8.2191e+06 6.84155e+06 2.22604e+06 4.96235e+06 4.88303e+06 1.03879e+07 3.35662e+08 3.08262e+06 4.1471e+06 4.75759e+07 5.33862e+06 1.57152e+07 2.88047e+06 2.50173e+07 7.88267e+06 1.41446e+06 1.87973e+06 2.20558e+06 5.45543e+06 1.95852e+06 3.10644e+08
internal_count=443619331 425442296 18177035 34322180 11803897 391120116 55458593 6373138 26103081 8219099 6841547 2226039 4962350 4883029 10387918 335661523 3082621 4147099 47575926 5338625 15715163 2880474 25017300 7882667 1414465 1879729 2205581 5455431 1958518 310644223
is_linear=0
shrinkage=1


Tree=1
num_leaves=31
num_cat=0
split_feature=0 0 0 4 4 0 4 4 0 4 0 4 4 0 0 8 0 8 8 0 0 4 4 0 4 4 5 0 4 0
split_gain=4.07413e+06 521624 511731 180348 179046 72846.7 64314.6 52473.5 41735.7 37648.8 30683.9 29667 28063.3 22312.3 21858.2 21683.6 20442.6 20131.7 16497.8 15008.5 14128.8 13524.5 10873.9 10820.1 9919.21 7064.49 6043.54 5716.12 5345.85 5106.04
threshold=20.500000000000004 62.500000000000007 6.5000000000000009 0.347335 0.29315800000000009 131.50000000000003 0.40265950000000006 0.27364450000000001 38.500000000000007 0.43025150000000006 2.5000000000000004 0.15228600000000003 0.21533900000000003 11.500000000000002 32.500000000000007 0.49529200000000007 11.500000000000002 0.51782450000000013 0.51171450000000018 245.50000000000003 2.5000000000000004 0.53344250000000015 0.27777450000000009 14.500000000000002 0.12571950000000001 0.43025150000000006 1.0000000180025095e-35 26.500000000000004 0.58047850000000012 236.50000000000003
decision_type=2 2 2 2 2 2 2 2 2 2 2 2 2 2 2 2 2 2 2 2 2 2 2 2 2 2 2 2 2 2
left_child=2 3 7 12 11 6 22 10 17 16 -1 -4 -2 -13 -14 26 -6 27 -10 -17 -9 -8 -3 -11 -12 -22 -7 -5 -19 -28
right_child=1 5 4 8 9 15 21 20 18 23 24 13 14 -15 -16 19 -18 28 -20 -21 25 -23 -24 -25 -26 -27 29 -29 -30 -31
leaf_value=-0.072342393597249602 -0.0011077632596172562 0.0025503942899229924 -0.011722798057425918 -0.029829140700942582 -0.050442098480176237 -0.048497851702754377 -0.0061651136019955435 -0.082366813156352969 -0.012096623094120526 -0.063044571250626388 -0.03450559812554467 -0.036608772271343168 -0.014995181001521241 -0.021322407059296316 -0.0055550167406163429 -0.002398855216186727 -0.03484499911225105 -0.035373094289715988 -0.023952492331018413 0.0023092060914159042 -0.065724606955280762 -0.015770340385839573 -0.00090045661286311258 -0.048362413352733502 -0.053315420430426509 -0.07739437499788894 0.0029489401407769714 -0.021140602367418299 -0.051007564231163309 0.0039879666309037961
leaf_weight=853521 9844055 22888001 1906709 1141644 1320803 22109 7899692 1899571 4219384 1286540 376119 1486269 3479093 2670519 8314395 8472657 2310012 984776 1626011 33712914 1262034 1799905 15192456 823045 1101105 880788 58629485 2248534 281136 244686049
leaf_count=853521 9844055 22888001 1906709 1141644 1320803 22109 7899692 1899571 4219384 1286540 376119 1486269 3479093 2670519 8314395 8472657 2310012 984776 1626011 33712914 1262034 1799905 15192456 823045 1101105 880788 58629485 2248534 281136 244686049
internal_value=0 0.00198086 -0.0463629 -0.0102683 -0.0340341 0.0029818 -0.000677989 -0.0691977 -0.021021 -0.0466919 -0.0572477 -0.0220507 -0.00504961 -0.0267881 -0.00833988 0.00348789 -0.0405188 -0.0280846 -0.0153946 0.00136363 -0.0760877 -0.00794751 0.00117365 -0.0573164 -0.0485262 -0.0705214 0.00378332 -0.0240665 -0.0388452 0.00378713
internal_weight=0 4.25442e+08 1.8177e+07 3.2139e+07 1.18039e+07 3.93303e+08 4.77801e+07 6.37314e+06 1.05015e+07 5.7404e+06 2.33074e+06 6.0635e+06 2.16375e+07 4.15679e+06 1.17935e+07 3.45523e+08 3.63082e+06 4.65609e+06 5.8454e+06 4.21856e+07 4.04239e+06 9.6996e+06 3.80805e+07 2.10958e+06 1.47722e+06 2.14282e+06 3.03338e+08 3.39018e+06 1.26591e+06 3.03316e+08
internal_count=443619331 425442296 18177035 32139028 11803897 393303268 47780054 6373138 10501485 5740400 2330745 6063497 21637543 4156788 11793488 345523214 3630815 4656090 5845395 42185571 4042393 9699597 38080457 2109585 1477224 2142822 303337643 3390178 1265912 303315534
is_linear=0
shrinkage=0.1


Tree=2
num_leaves=31
num_cat=0
split_feature=0 0 0 4 4 0 4 4 0 4 0 4 4 0 4 4 4 0 0 4 0 0 4 4 4 4 0 8 0 10
split_gain=3.30738e+06 521295 318136 158832 120790 82282.4 63200.4 43153.2 39505.2 28396.5 21927.1 21819.7 21575.1 18831.9 18081.4 17551.3 16976.3 16828.9 15149.8 13546.6 10226 9943.84 9787.19 7969.53 6624.29 6039.31 5446.24 5425.89 5244.49 4959.57
threshold=17.500000000000004 53.500000000000007 6.5000000000000009 0.31746350000000007 0.27236050000000006 113.50000000000001 0.38819150000000008 0.24330100000000002 29.500000000000004 0.40492500000000003 2.5000000000000004 0.44901800000000008 0.4459490000000001 224.50000000000003 0.17644500000000005 0.14025900000000005 0.4459490000000001 29.500000000000004 4.5000000000000009 0.53344250000000015 9.5000000000000018 9.5000000000000018 0.27777450000000009 0.54099950000000008 0.58047850000000012 0.10286450000000001 212.50000000000003 0.34462350000000003 11.500000000000002 0.68132850000000011
decision_type=2 2 2 2 2 2 2 2 2 2 2 2 2 2 2 2 2 2 2 2 2 2 2 2 2 2 2 2 2 2
left_child=2 3 7 14 15 6 22 10 16 20 -1 26 -10 29 -2 -4 -5 -16 -9 -8 -6 -17 -3 28 -14 -12 27 -7 -11 -13
right_child=1 5 4 8 9 11 19 18 12 23 25 13 24 -15 17 21 -18 -19 -20 -21 -22 -23 -24 -25 -26 -27 -28 -29 -30 -31
leaf_value=-0.063962361549112223 -0.00090097306684904237 0.0018763283615123767 -0.011254883294574367 -0.02418040854133308 -0.046890539120988048 0.0032341951001646748 -0.0069795545042787349 -0.071046504952640976 -0.012712328919757133 -0.055084701377631676 -0.028640118599720866 -0.0024616100840380811 -0.022205733820594296 0.0020283680576174291 -0.013250895330560022 -0.034690313032954133 -0.03816978713958729 -0.004920262734020033 -0.057806762844181847 -0.017041375827694657 -0.033763846933580414 -0.021621483954567981 -0.0017100813768848755 -0.063374036171818346 -0.037647038574919807 -0.045378269719954623 0.0035687415392462543 0.001193004079470825 -0.043634348495139474 -0.011919048544370914
leaf_weight=677076 5923343 20345497 1311358 2623323 820168 35183644 8238444 3323624 5052340 762034 281225 8279905 2010109 37457136 3693382 798434 1296007 7060777 1167991 1597529 2147041 2149900 12155224 514828 322383 923222 255391568 20675555 841971 594293
leaf_count=677076 5923343 20345497 1311358 2623323 820168 35183644 8238444 3323624 5052340 762034 281225 8279905 2010109 37457136 3693382 798434 1296007 7060777 1167991 1597529 2147041 2149900 12155224 514828 322383 923222 255391568 20675555 841971 594293
internal_value=0 0.00165492 -0.0450503 -0.0115404 -0.0333022 0.00257817 -0.0015905 -0.0622779 -0.0206916 -0.0437064 -0.0495641 0.00307173 -0.0163849 0.00104706 -0.00533763 -0.0208797 -0.0288063 -0.00778131 -0.0676037 -0.00861377 -0.0373922 -0.0251606 0.000535016 -0.0525487 -0.0243399 -0.0414701 0.00337311 0.00247867 -0.0490742 -0.00309496
internal_weight=0 4.279e+08 1.57189e+07 2.79817e+07 9.34573e+06 3.99919e+08 4.23367e+07 6.37314e+06 1.13042e+07 5.08604e+06 1.88152e+06 3.57582e+08 7.38483e+06 4.63313e+07 1.66775e+07 4.25969e+06 3.91933e+06 1.07542e+07 4.49162e+06 9.83597e+06 2.96721e+06 2.94833e+06 3.25007e+07 2.11883e+06 2.33249e+06 1.20445e+06 3.11251e+08 5.58592e+07 1.604e+06 8.8742e+06
internal_count=443619331 427900459 15718872 27981664 9345734 399918795 42336694 6373138 11304162 5086042 1881523 357582101 7384832 46331334 16677502 4259692 3919330 10754159 4491615 9835973 2967209 2948334 32500721 2118833 2332492 1204447 311250767 55859199 1604005 8874198
is_linear=0
shrinkage=0.1


Tree=3
num_leaves=31
num_cat=0
split_feature=0 0 0 4 4 4 0 0 0 4 4 0 0 0 4 4 4 4 6 8 4 4 8 8 1 0 7 7 4 1
split_gain=2.68376e+06 399572 286587 139453 121259 36351.5 30010.8 29582.2 28362.2 37008.8 27775.9 25306.4 23864.2 19378.1 18676.1 11856.6 10854.6 10767.2 10133.4 9714 9261.32 8931.84 7605.8 7053.78 6535.25 6284.43 5798.72 5483.13 4992.02 4611.35
threshold=23.500000000000004 6.5000000000000009 77.500000000000014 0.31746350000000007 0.38819150000000008 0.31746350000000007 14.500000000000002 14.500000000000002 179.50000000000003 0.43712250000000002 0.24891100000000002 44.500000000000007 2.5000000000000004 41.500000000000007 0.19368550000000004 0.48018850000000007 0.19368550000000004 0.48361850000000006 0.54461700000000013 0.55731550000000019 0.56253700000000018 0.15228600000000003 0.34462350000000003 0.6193645000000001 186.50000000000003 38.500000000000007 0.00029450000000000006 0.00048950000000000003 0.088194500000000023 1153.5000000000002
decision_type=2 2 2 2 2 2 2 2 2 2 2 2 2 2 2 2 2 2 2 2 2 2 2 2 2 2 2 2 2 2
left_child=1 5 4 6 10 12 14 17 9 22 25 19 -1 -12 28 -9 -8 27 -10 -6 -13 -14 -4 -11 -7 29 -16 -5 -3 -2
right_child=2 3 8 7 11 24 16 15 18 23 13 20 21 -15 26 -17 -18 -19 -20 -21 -22 -23 -24 -25 -26 -27 -28 -29 -30 -31
leaf_value=-0.059591159469030978 0.0010019390828520341 -0.0073956151078015319 0.0025075132402033163 -0.046723305774414373 -0.019812668259664434 -0.066898825917989596 -0.0060521831097915084 -0.027174452795159766 0.0031256603804929229 -0.0040591637013321505 -0.011374159709480434 -0.010572840411171609 -0.029809150096629988 -0.0037809991924854141 -0.035427189809670932 -0.041996928683220414 -0.016136348779038738 -0.054942227809076552 0.00096681575032363156 -0.031925638936937235 -0.02398204294144559 -0.045331973938245423 0.00011865440621122829 -0.012705975231065226 -0.058005694473486163 0.00085067463729323527 -0.025227980765810162 -0.03661681339885671 -0.019396463227229033 -0.0056485002243278496
leaf_weight=1114642 1548137 490340 37761738 973607 2956858 1956055 1863314 2306873 290938010 8656657 5126069 5005939 509220 9760833 1015528 704453 2498961 765873 23498743 853066 574146 1362483 20598035 1058824 1430738 11482209 1235787 1196575 1182576 3193042
leaf_count=1114642 1548137 490340 37761738 973607 2956858 1956055 1863314 2306873 290938010 8656657 5126069 5005939 509220 9760833 1015528 704453 2498961 765873 23498743 853066 574146 1362483 20598035 1058824 1430738 11482209 1235787 1196575 1182576 3193042
internal_value=0 -0.03524 0.00171671 -0.0259223 -0.00628246 -0.0560501 -0.0175368 -0.0376059 0.00256366 0.000713033 -0.00327633 -0.0162422 -0.0480073 -0.00639558 -0.0238818 -0.0306419 -0.011829 -0.0447484 0.00296432 -0.0225248 -0.0119525 -0.0411088 0.00166437 -0.00500152 -0.063142 -0.00041404 -0.0298287 -0.0411509 -0.015879 -0.00347693
internal_weight=0 2.0607e+07 4.23012e+08 1.42339e+07 4.05003e+07 6.37314e+06 8.28651e+06 5.94738e+06 3.82512e+08 6.80753e+07 3.11103e+07 9.39001e+06 2.98634e+06 1.48869e+07 3.92423e+06 3.01133e+06 4.36228e+06 2.93606e+06 3.14437e+08 3.80992e+06 5.58008e+06 1.8717e+06 5.83598e+07 9.71548e+06 3.38679e+06 1.62234e+07 2.25132e+06 2.17018e+06 1.67292e+06 4.74118e+06
internal_count=443619331 20607025 423012306 14233887 40500299 6373138 8286506 5947381 382512007 68075254 31110290 9390009 2986345 14886902 3924231 3011326 4362275 2936055 314436753 3809924 5580085 1871703 58359773 9715481 3386793 16223388 2251315 2170182 1672916 4741179
is_linear=0
shrinkage=0.1


Tree=4
num_leaves=31
num_cat=0
split_feature=0 0 0 4 4 0 4 0 0 0 0 6 4 8 4 8 4 1 0 4 4 4 4 6 2 4 0 4 7 0
split_gain=2.1747e+06 345027 211449 110319 99248.1 49006.1 41412.8 29019.4 26197.7 17808.7 15742.9 14250.8 14170.5 12542.5 12292.1 12153.1 10401.6 10105.8 9846.73 8959.62 7646.06 7508.75 6976.4 6402.72 5734.61 4691.77 7009.55 4625.69 4617.87 4565.88
threshold=17.500000000000004 56.500000000000007 4.5000000000000009 0.33244650000000003 0.26846900000000007 119.50000000000001 0.43712250000000002 32.500000000000007 9.5000000000000018 9.5000000000000018 29.500000000000004 0.54461700000000013 0.41530700000000004 0.55731550000000019 0.20373300000000003 0.51171450000000018 0.30975400000000003 886.50000000000011 320.50000000000006 0.39500250000000009 0.14025900000000005 0.21533900000000003 0.11305950000000002 0.70911100000000016 21.500000000000004 0.35361800000000004 287.50000000000006 0.41154900000000005 0.00034650000000000007 23.500000000000004
decision_type=2 2 2 2 2 2 2 2 2 2 2 2 2 2 2 2 2 2 2 2 2 2 2 2 2 2 2 2 2 2
left_child=2 3 14 10 9 6 16 13 19 22 17 24 -10 27 -1 -9 -3 -2 -13 28 -11 -12 -4 -8 -7 -26 -27 -5 -6 -19
right_child=1 5 4 7 8 11 23 15 12 20 21 18 -14 -15 -16 -17 -18 29 -20 -21 -22 -23 -24 -25 25 26 -28 -29 -30 -31
leaf_value=-0.044079973712345732 -0.0016213478710616633 0.0014063510338958661 -0.014829384338197252 -0.017818791525692584 -0.047693432550729706 -0.078355300672965159 -0.0080987306568172015 -0.010254050278201365 -0.027380248147276704 -0.0062565152205358568 7.4034310506794135e-05 -0.0024108159127741607 -0.04022662947486709 -0.035750909745705682 -0.057150862383994819 -0.020119423993374415 -0.002100196599552196 -0.014693306749140099 0.0016704123335857116 -0.051492919163506727 -0.017080408289812259 -0.0047271825976470169 -0.029429350167367221 -0.03098989929079006 0.0029341017405824779 0.00071833612975870311 0.0026504232417674176 -0.024901308077572116 -0.03534397575692827 -0.008266926893455628
leaf_weight=893645 1561448 25163970 423876 2093189 462650 8729 6130249 4958887 2353978 953364 6291980 8977283 1351744 674794 3691611 1668968 12743335 1895742 17311631 1206430 2068977 6753793 1436270 124673 236116417 26461634 64662917 1648306 876327 2652514
leaf_count=893645 1561448 25163970 423876 2093189 462650 8729 6130249 4958887 2353978 953364 6291980 8977283 1351744 674794 3691611 1668968 12743335 1895742 17311631 1206430 2068977 6753793 1436270 124673 236116417 26461634 64662917 1648306 876327 2652514
internal_value=0 0.00134194 -0.0365305 -0.0089627 -0.0290874 0.00212443 -0.00101637 -0.0169225 -0.0374316 -0.0184041 -0.00437343 0.00251676 -0.0320662 -0.0232022 -0.0546034 -0.0127383 0.000227552 -0.00856253 0.000276732 -0.0452426 -0.0136661 -0.00241155 -0.0261024 -0.008555 0.00269671 0.00269887 0.00208936 -0.020939 -0.039611 -0.0109455
internal_weight=0 4.279e+08 1.57189e+07 3.01996e+07 1.11336e+07 3.97701e+08 4.41622e+07 1.10441e+07 6.25113e+06 4.88249e+06 1.91555e+07 3.53539e+08 3.70572e+06 4.41629e+06 4.58526e+06 6.62786e+06 3.79073e+07 6.1097e+06 2.62889e+07 2.54541e+06 3.02234e+06 1.30458e+07 1.86015e+06 6.25492e+06 3.2725e+08 3.27241e+08 9.11246e+07 3.7415e+06 1.33898e+06 4.54826e+06
internal_count=443619331 427900459 15718872 30199621 11133616 397700838 44162227 11044144 6251129 4882487 19155477 353538611 3705722 4416289 4585256 6627855 37907305 6109704 26288914 2545407 3022341 13045773 1860146 6254922 327249697 327240968 91124551 3741495 1338977 4548256
is_linear=0
shrinkage=0.1


Tree=5
num_leaves=31
num_cat=0
split_feature=0 0 0 4 4 4 0 8 4 4 0 0 0 4 0 0 4 10 4 0 4 7 4 0 0 4 0 4 10 5
split_gain=1.76532e+06 230690 219275 89453.9 80802.9 25226.2 23258.2 27923.9 22079.8 20629 19706.3 16296.1 14280.1 13800.6 11002.4 9937.49 8937.85 7978.69 7725.91 7497.8 6856.76 6292.71 5788.76 5302.49 5136.6 4675.77 4897.58 4626.65 4494.81 4044.75
threshold=20.500000000000004 71.500000000000014 6.5000000000000009 0.38819150000000008 0.32984650000000004 0.30812950000000006 167.50000000000003 0.51171450000000018 0.27364450000000001 0.20512850000000002 41.500000000000007 2.5000000000000004 38.500000000000007 0.51253800000000005 11.500000000000002 11.500000000000002 0.33433550000000006 0.68132850000000011 0.56253700000000018 38.500000000000007 0.58047850000000012 0.00026950000000000005 0.16090850000000004 2.5000000000000004 11.500000000000002 0.40265950000000006 353.50000000000006 0.14025900000000005 0.68132850000000011 1.0000000180025095e-35
decision_type=2 2 2 2 2 2 2 2 2 2 2 2 2 2 2 2 2 2 2 2 2 2 2 2 2 2 2 2 2 2
left_child=2 3 5 8 9 11 7 16 19 21 18 -1 -10 15 -11 -6 -3 25 -5 27 -12 24 -13 -7 -4 29 -27 -2 -9 -8
right_child=1 6 4 10 13 23 17 28 12 14 20 22 -14 -15 -16 -17 -18 -19 -20 -21 -22 -23 -24 -25 -26 26 -28 -29 -30 -31
leaf_value=-0.048304017331310442 7.3594942655705244e-05 0.0017957185011412892 -0.020755994107061079 -0.01856937244418427 -0.036861502295336933 -0.055154024105508515 -0.041658092659114576 -0.0052598085929012051 -0.011558458661868892 -0.027760400833896273 -0.0097185988982109416 -0.024262432995585309 -0.0041969187088058213 -0.044047969239065649 -0.016733497272947734 -0.026175709185410102 -0.00088327628355895518 -0.0027654566300125286 -0.032446337878513178 0.00028223627499451034 -0.023885051638340399 -0.0048155183361490127 -0.036506656688687862 -0.047390324132663121 -0.0098206472228367266 0.00049133167783674096 0.0023047625917319015 -0.0056368183860945878 -0.014398425292102675 0.0026354408658818395
leaf_weight=1058715 2031087 40729882 666473 3406588 1379775 1694377 20618 5444764 4140894 1412207 4743988 563438 7246300 878939 2518676 2356884 17938158 2977007 454757 11547715 368178 1382627 1226927 1829681 1208316 22552468 43849918 4706821 597245 252685908
leaf_count=1058715 2031087 40729882 666473 3406588 1379775 1694377 20618 5444764 4140894 1412207 4743988 563438 7246300 878939 2518676 2356884 17938158 2977007 454757 11547715 368178 1382627 1226927 1829681 1208316 22552468 43849918 4706821 597245 252685908
internal_value=0 0.00130391 -0.0305187 -0.00606292 -0.0224482 -0.0454662 0.00203996 0.000309956 -0.00341718 -0.0158184 -0.0148116 -0.0384691 -0.0068739 -0.0327735 -0.020695 -0.0301215 0.000976597 0.00238754 -0.0202037 -0.00126454 -0.0107389 -0.00993359 -0.0326533 -0.0511231 -0.0137081 0.00243561 0.00168886 -0.00391546 -0.00616315 0.00263183
internal_weight=0 4.25442e+08 1.8177e+07 3.86463e+07 1.18039e+07 6.37314e+06 3.86796e+08 6.471e+07 2.96728e+07 7.1883e+06 8.97351e+06 2.84908e+06 1.13872e+07 4.6156e+06 3.93088e+06 3.73666e+06 5.8668e+07 3.22086e+08 3.86134e+06 1.82856e+07 5.11217e+06 3.25742e+06 1.79036e+06 3.52406e+06 1.87479e+06 3.19109e+08 6.64024e+07 6.73791e+06 6.04201e+06 2.52707e+08
internal_count=443619331 425442296 18177035 38646328 11803897 6373138 386795968 64710049 29672817 7188299 8973511 2849080 11387194 4615598 3930883 3736659 58668040 322085919 3861345 18285623 5112166 3257416 1790365 3524058 1874789 319108912 66402386 6737908 6042009 252706526
is_linear=0
shrinkage=0.1


Tree=6
num_leaves=31
num_cat=0
split_feature=0 0 0 4 4 0 4 4 8 0 4 0 0 4 4 4 0 4 8 4 7 8 2 0 1 7 7 7 8 0
split_gain=1.43521e+06 215677 155609 70134.7 60344.3 45554.7 27034.6 18443.9 14603.6 15199.6 14031.9 13764.9 11665.6 9903.15 8676.59 7756.47 6290.85 6177 6054.95 5988.42 5476.58 5469.69 5456.83 5360.35 5340.23 5226.24 5093.75 4548.72 3906.36 3332.18
threshold=23.500000000000004 9.5000000000000018 83.500000000000014 0.40265950000000006 0.29315800000000009 4.5000000000000009 0.24728150000000002 0.27777450000000009 0.51171450000000018 203.50000000000003 0.41758000000000006 47.500000000000007 44.500000000000007 0.14025900000000005 0.37605500000000008 0.43025150000000006 200.50000000000003 0.38469200000000009 0.66440450000000006 0.60593000000000019 0.00026050000000000004 0.56200250000000007 61.500000000000007 44.500000000000007 100.50000000000001 0.00043450000000000004 0.00035850000000000004 0.00037050000000000006 0.6193645000000001 14.500000000000002
decision_type=2 2 2 2 2 2 2 2 2 2 2 2 2 2 2 2 2 2 2 2 2 2 2 2 2 2 2 2 2 2
left_child=1 5 3 7 13 14 27 22 16 28 25 18 -9 -3 24 26 17 -4 -5 -12 29 -13 -2 -24 -1 -6 -8 -7 -10 -15
right_child=2 4 8 11 10 6 15 12 9 -11 19 21 -14 20 -16 -17 -18 -19 -20 -21 -22 -23 23 -25 -26 -27 -28 -29 -30 -31
leaf_value=-0.046559438619484771 0.0013729361060889492 -0.0032604626975603294 0.0016999205143504053 -0.015925265294722015 -0.024218985622357268 -0.023981356366709464 -0.039337068951655778 -0.0089871018550107141 -0.0029751187917486889 0.0010399332327153934 -0.028753708304994158 -0.007160854476853786 -0.0029830326542448584 -0.021236852636882218 -0.049402092351652799 -0.043576074195506131 0.0023369169641991165 -0.00079790344299613455 -0.035504930900381405 -0.04651266523974585 -0.0088182384182021699 -0.014932722515806414 -0.0046258086741419319 -0.00031503383538759692 -0.03718636643224784 -0.016307142778708258 -0.028440979282099866 -0.013042958758594167 -0.0090308000687547834 -0.013036686197194704
leaf_weight=957825 9064969 1655349 57884711 3622555 1635126 1009221 672039 5067452 6087538 29493892 2019674 4105778 8954044 758840 1963852 927813 271567895 11943148 165143 209583 2203467 1161787 4470302 8131917 1663579 1705974 1186543 609937 1291175 1428203
leaf_count=957825 9064969 1655349 57884711 3622555 1635126 1009221 672039 5067452 6087538 29493892 2019674 4105778 8954044 758840 1963852 927813 271567895 11943148 165143 209583 2203467 1161787 4470302 8131917 1663579 1705974 1186543 609937 1291175 1428203
internal_value=0 -0.0257704 0.00125541 -0.00432125 -0.01677 -0.037399 -0.0301371 -0.00232698 0.00191505 2.44134e-05 -0.0242789 -0.0121811 -0.00515294 -0.00985175 -0.0443763 -0.0361086 0.00211925 0.0012727 -0.0167789 -0.0304233 -0.0123369 -0.00887498 -0.000498217 -0.00184417 -0.0406112 -0.0201792 -0.0323809 -0.0198609 -0.00403478 -0.0158819
internal_weight=0 2.0607e+07 4.23012e+08 4.47439e+07 1.16162e+07 8.99081e+06 4.40555e+06 3.56887e+07 3.78268e+08 3.68726e+07 5.57036e+06 9.05526e+06 1.40215e+07 6.04586e+06 4.58526e+06 2.7864e+06 3.41396e+08 6.98279e+07 3.7877e+06 2.22926e+06 4.39051e+06 5.26756e+06 2.16672e+07 1.26022e+07 2.6214e+06 3.3411e+06 1.85858e+06 1.61916e+06 7.37871e+06 2.18704e+06
internal_count=443619331 20607025 423012306 44743947 11616216 8990809 4405553 35688684 378268359 36872605 5570357 9055263 14021496 6045859 4585256 2786395 341395754 69827859 3787698 2229257 4390510 5267565 21667188 12602219 2621404 3341100 1858582 1619158 7378713 2187043
is_linear=0
shrinkage=0.1


Tree=7
num_leaves=31
num_cat=0
split_feature=0 0 0 4 4 0 8 4 8 0 4 0 4 4 0 0 4 0 7 8 1 8 6 2 7 4 7 7 8 7
split_gain=1.1676e+06 184441 112310 56934.7 55855.5 34645.2 26750.8 18081.4 15123.8 9748.37 9669.5 9531.52 8319.5 8260.18 8186.3 7776.35 7590.22 5877.32 5414.35 5245.29 4652.5 4592.33 4388.35 4352.01 4297.68 3967.02 3984.23 3794.53 3460.69 3459.73
threshold=17.500000000000004 50.500000000000007 4.5000000000000009 0.31746350000000007 0.35193750000000007 101.50000000000001 0.47934100000000007 0.19368550000000004 0.51171450000000018 9.5000000000000018 0.44901800000000008 272.50000000000006 0.1570735 0.31533550000000005 29.500000000000004 9.5000000000000018 0.19368550000000004 26.500000000000004 0.00014350000000000005 0.66440450000000006 975.50000000000011 0.69308150000000013 0.70911100000000016 21.500000000000004 0.00023350000000000001 0.56253700000000018 0.00043950000000000006 0.00029450000000000006 0.13184400000000002 0.00058850000000000016
decision_type=2 2 2 2 2 2 2 2 2 2 2 2 2 2 2 2 2 2 2 2 2 2 2 2 2 2 2 2 2 2
left_child=2 3 16 12 7 6 13 18 14 24 23 22 -2 -3 -5 29 -1 20 -4 -10 -14 -8 -12 -7 -9 26 -17 -11 -20 -6
right_child=1 5 4 8 15 10 21 9 19 27 11 -13 17 -15 -16 25 -18 -19 28 -21 -22 -23 -24 -25 -26 -27 -28 -29 -30 -31
leaf_value=-0.031155864354403318 0.00029397769844579757 0.00079560555799961918 -0.014931241461427228 -0.014988784931505163 -0.041824009550846114 -0.068069050114749785 -0.0076309282421790211 -0.033567806290538516 -0.018242072015005596 -0.020481180666224865 -0.0015143117925452815 0.0013669643812925616 -0.003723786619045823 -0.0026840823762265035 -0.0083335938810993656 -0.031484861606264458 -0.041823428956456569 -0.0033838108607630807 0.0044183377248974681 -0.033805868926751921 -0.011693815964378759 -0.027702003475050769 -0.014347120233977814 0.0020016057529393125 -0.022684854964474505 -0.038921183328348388 -0.022240484317275249 -0.013084173770026375 -0.0080244479204659904 -0.032449007113323422
leaf_weight=810133 4450303 21122961 1141804 2935634 671455 8864 5073065 512658 2240530 1246121 13288315 33776971 1209835 10076204 4989948 748296 3775123 7828476 270295 239707 1856117 116617 271929 318414983 1241843 257351 1236779 1563789 1291831 951394
leaf_count=810133 4450303 21122961 1141804 2935634 671455 8864 5073065 512658 2240530 1246121 13288315 33776971 1209835 10076204 4989948 748296 3775123 7828476 270295 239707 1856117 116617 271929 318414983 1241843 257351 1236779 1563789 1291831 951394
internal_value=0 0.000983289 -0.0267672 -0.00722133 -0.0213427 0.00150865 -0.00143403 -0.0161775 -0.0129313 -0.0200163 0.00180141 0.000467874 -0.00334917 -0.000328208 -0.0107987 -0.0310554 -0.0399387 -0.00483737 -0.00969719 -0.0197463 -0.00854882 -0.00808194 -0.00177165 0.00199966 -0.0258648 -0.0272397 -0.0257253 -0.0163646 -0.00587147 -0.0363279
internal_weight=0 4.279e+08 1.57189e+07 2.57506e+07 1.11336e+07 4.0215e+08 3.63888e+07 7.26834e+06 1.04058e+07 4.56441e+06 3.65761e+08 4.73372e+07 1.53447e+07 3.11992e+07 7.92558e+06 3.86528e+06 4.58526e+06 1.08944e+07 2.70393e+06 2.48024e+06 3.06595e+06 5.18968e+06 1.35602e+07 3.18424e+08 1.7545e+06 2.24243e+06 1.98508e+06 2.80991e+06 1.56213e+06 1.62285e+06
internal_count=443619331 427900459 15718872 25750550 11133616 402149909 36388847 7268341 10405819 4564411 365761062 47337215 15344731 31199165 7925582 3865275 4585256 10894428 2703930 2480237 3065952 5189682 13560244 318423847 1754501 2242426 1985075 2809910 1562126 1622849
is_linear=0
shrinkage=0.1


Tree=8
num_leaves=31
num_cat=0
split_feature=0 0 0 4 4 0 8 0 4 4 0 0 0 9 4 4 4 7 8 1 0 4 7 0 4 0 4 7 7 7
split_gain=945757 149662 90970.9 52157.8 46765.5 20025.2 19046.7 13731.4 13583.4 11651.8 8393.27 8110.23 7789.45 7213.6 6739.83 6500.74 5277.98 5162.61 5073.14 5008.64 4527.64 3846.54 3739.27 3525.12 3502.6 3346.58 5108.95 3077.05 2971.65 2940.8
threshold=17.500000000000004 59.500000000000007 4.5000000000000009 0.36351300000000003 0.25612800000000008 125.50000000000001 0.51171450000000018 32.500000000000007 0.48018850000000007 0.21533900000000003 32.500000000000007 11.500000000000002 9.5000000000000018 0.6114615000000001 0.25210550000000004 0.35361800000000004 0.53344250000000015 0.00049450000000000004 0.59360700000000011 539.50000000000011 1.0000000180025095e-35 0.083936000000000024 0.00013550000000000001 380.50000000000006 0.083936000000000024 311.50000000000006 0.38469200000000009 0.00023950000000000005 0.00048350000000000004 0.00039550000000000007
decision_type=2 2 2 2 2 2 2 2 2 2 2 2 2 2 2 2 2 2 2 2 2 2 2 2 2 2 2 2 2 2
left_child=2 3 15 9 12 6 14 18 11 -2 27 17 21 25 -3 20 -9 -6 28 -14 -1 -4 -23 -15 -22 26 -7 -11 -5 -26
right_child=1 5 4 7 8 13 -8 16 -10 10 -12 -13 19 23 -16 -17 -18 -19 -20 -21 24 22 -24 -25 29 -27 -28 -29 -30 -31
leaf_value=-0.042789557017816886 -0.00050760896117277017 0.0015407177417813452 -0.0060463168323688678 -0.018759831117380853 -0.030253819426966699 0.0016745009277912507 -0.0068878445695579431 -0.0077879538809096363 -0.033656315409301155 -0.011679744607107266 -0.0031201740160378133 -0.018006830773382318 -0.0019956262644955348 -0.0031949606606034987 -0.0010195713775101914 -0.039887511373238253 -0.016561330124725542 -0.021819213962989709 -0.027491882291527277 -0.011033521989104768 -0.017667247844895588 -0.027021587965039819 -0.015597950752231636 0.00065505677303920047 -0.036459340482789843 0.001974997587618509 6.4488483762100484e-05 -0.0064384021749332694 -0.012572231801900331 -0.028411419602887879
leaf_weight=354035 9933436 18414298 284964 1483812 1391264 86424344 4288083 5063044 1313745 1774221 8287274 2406878 909485 4195496 23281132 2187145 793113 1516841 399635 1882072 191547 396724 1031643 5490420 796507 227874584 25532101 3037987 1627479 1056022
leaf_count=354035 9933436 18414298 284964 1483812 1391264 86424344 4288083 5063044 1313745 1774221 8287274 2406878 909485 4195496 23281132 2187145 793113 1516841 399635 1882072 191547 396724 1031643 5490420 796507 227874584 25532101 3037987 1627479 1056022
internal_value=0 0.00088496 -0.0240905 -0.00564913 -0.0192084 0.00142024 -0.000541524 -0.0119407 -0.0245512 -0.00309046 -0.00504905 -0.0223006 -0.0113467 0.00167834 0.00011115 -0.0359448 -0.00897615 -0.0258544 -0.0168855 -0.00808899 -0.0323489 -0.0166545 -0.0187708 -0.00101259 -0.0305406 0.00175504 0.00130733 -0.00837084 -0.0155232 -0.0318717
internal_weight=0 4.279e+08 1.57189e+07 3.24e+07 1.11336e+07 3.955e+08 4.59835e+07 9.36708e+06 6.62873e+06 2.30329e+07 1.30995e+07 5.31498e+06 4.50489e+06 3.49517e+08 4.16954e+07 4.58526e+06 5.85616e+06 2.9081e+06 3.51093e+06 2.79156e+06 2.39811e+06 1.71333e+06 1.42837e+06 9.68592e+06 2.04408e+06 3.39831e+08 1.11956e+08 4.81221e+06 3.11129e+06 1.85253e+06
internal_count=443619331 427900459 15718872 32400001 11133616 395500458 45983513 9367083 6628728 23032918 13099482 5314983 4504888 349516945 41695430 4585256 5856157 2908105 3510926 2791557 2398111 1713331 1428367 9685916 2044076 339831029 111956445 4812208 3111291 1852529
is_linear=0
shrinkage=0.1


Tree=9
num_leaves=31
num_cat=0
split_feature=0 0 0 4 4 4 0 4 4 10 0 0 0 4 4 0 8 4 1 3 2 7 7 2 4 1 4 7 2 7
split_gain=770431 115131 83829.5 41499.4 34747.1 23782.4 17547.1 12006.9 11940.5 8456.13 8166.61 7466.39 5973.9 8505.14 5884.24 4536.67 4430.56 4354.83 4008.47 3586.65 4367.92 3568.42 3395.31 3300.3 3276.52 3233.32 3227.43 3195.57 2991.7 2981.03
threshold=23.500000000000004 9.5000000000000018 86.500000000000014 0.41530700000000004 0.37605500000000008 0.37773750000000006 4.5000000000000009 0.21666300000000002 0.24728150000000002 0.68132850000000011 44.500000000000007 41.500000000000007 221.50000000000003 0.38819150000000008 0.21035500000000004 14.500000000000002 0.64464400000000011 0.60593000000000019 100.50000000000001 0.60404900000000017 62.500000000000007 0.00040050000000000009 0.00022150000000000004 62.500000000000007 0.52765300000000015 793.50000000000011 0.088194500000000023 0.00011350000000000001 45.500000000000007 0.00069750000000000009
decision_type=2 2 2 2 2 2 2 2 2 2 2 2 2 2 2 2 2 2 2 2 2 2 2 2 2 2 2 2 2 2
left_child=1 5 3 8 7 6 18 26 23 12 19 -5 13 -4 -8 -9 -13 21 -1 20 -10 -6 -16 -2 -7 -17 -3 -28 -11 -20
right_child=2 4 9 11 17 24 14 15 10 28 -12 16 -14 -15 22 25 -18 -19 29 -21 -22 -23 -24 -25 -26 -27 27 -29 -30 -31
leaf_value=-0.034555354853310814 0.0015501039503749746 0.00081710690572919797 0.001277248747346426 -0.013937993848331682 -0.025214189466223277 -0.031782773977527462 -0.012826489308788089 -0.016261072597622991 -0.00357036292786576 -0.036117529472463841 -0.0019050189298225489 -0.0067855623498632488 0.0016835240479656111 -0.001071230315544064 -0.029484709815205158 -0.0041967022977727709 -0.01864549901092474 -0.035169169054783435 -0.02950125129945122 -0.00072086804082060845 -0.009225091131283716 -0.017820150822392838 -0.019410532244378654 -0.0011211325305538931 -0.038359572126366148 -0.011723303943801833 -0.011223311273771217 -0.0038959104935762622 -0.0032305716765415708 -0.020605123801522726
leaf_weight=962745 8817725 849541 67103437 2556832 972628 2146886 1202425 1753760 2174157 27885 13009793 5525781 285563515 20022039 440098 753144 334029 209583 1100533 1028947 3674911 1984282 1394945 9727624 1170497 2356855 874920 1861503 3445631 572680
leaf_count=962745 8817725 849541 67103437 2556832 972628 2146886 1202425 1753760 2174157 27885 13009793 5525781 285563515 20022039 440098 753144 334029 209583 1100533 1028947 3674911 1984282 1394945 9727624 1170497 2356855 874920 1861503 3445631 572680
internal_value=0 -0.0188812 0.000919799 -0.00306913 -0.0123053 -0.0273774 -0.0234445 -0.00895727 -0.00167634 0.00141661 -0.00337843 -0.00942903 0.00146238 0.000737552 -0.0182638 -0.012194 -0.00746162 -0.0212396 -0.0294144 -0.00616539 -0.00712317 -0.0202523 -0.0218266 0.000148956 -0.0341033 -0.0099006 -0.00456714 -0.00623871 -0.00349458 -0.0264564
internal_weight=0 2.0607e+07 4.23012e+08 4.68498e+07 1.16162e+07 8.99081e+06 5.67343e+06 8.44972e+06 3.84332e+07 3.76163e+08 1.98878e+07 8.41664e+06 3.72689e+08 8.71255e+07 3.03747e+06 4.86376e+06 5.85981e+06 3.16649e+06 2.63596e+06 6.87802e+06 5.84907e+06 2.95691e+06 1.83504e+06 1.85453e+07 3.31738e+06 3.11e+06 3.58596e+06 2.73642e+06 3.47352e+06 1.67321e+06
internal_count=443619331 20607025 423012306 46849799 11616216 8990809 5673426 8449723 38433157 376162507 19887808 8416642 372688991 87125476 3037468 4863759 5859810 3166493 2635958 6878015 5849068 2956910 1835043 18545349 3317383 3109999 3585964 2736423 3473516 1673213
is_linear=0
shrinkage=0.1


Tree=10
num_leaves=31
num_cat=0
split_feature=0 0 0 4 4 4 0 8 0 8 9 0 4 3 2 7 2 7 4 2 7 8 0 7 0 0 1 2 8 0
split_gain=626504 108414 56159 32620.8 30864 19819.5 9515.79 9179.77 7792.57 7314.48 7235.29 6476.89 6461.09 5690.92 5615.46 5570.25 5318.66 4738.5 4487.83 4445.9 4365.62 4218.68 3773.79 3550.41 3259.62 3249.54 2830.73 2792.43 2781.75 2717.07
threshold=26.500000000000004 9.5000000000000018 89.500000000000014 0.3138220000000001 0.347335 0.22624650000000004 4.5000000000000009 0.54438400000000009 2.5000000000000004 0.50571150000000009 0.54341750000000011 197.50000000000003 0.17841400000000004 0.71350700000000011 64.500000000000014 0.0006575000000000001 67.500000000000014 0.00025450000000000006 0.46513800000000005 21.500000000000004 0.00020950000000000002 0.69308150000000013 47.500000000000007 0.0005685000000000001 14.500000000000002 50.500000000000007 1410.5000000000002 21.500000000000004 0.17126750000000004 269.50000000000006
decision_type=2 2 2 2 2 2 2 2 2 2 2 2 2 2 2 2 2 2 2 2 2 2 2 2 2 2 2 2 2 2
left_child=1 5 4 12 14 8 -7 13 -1 15 19 -12 -3 16 27 24 -6 -14 23 -4 -10 -9 26 -8 -5 -18 -16 -2 -22 -21
right_child=2 3 10 9 7 6 18 21 20 -11 11 -13 17 -15 22 -17 25 -19 -20 29 28 -23 -24 -25 -26 -27 -28 -29 -30 -31
leaf_value=-0.027111033609564156 -0.089469478847306855 -0.0027783498031761457 -0.064845820746028127 -0.021897083965541457 -0.0034338199402620139 -0.031088454988072663 -0.024783179116633511 -0.010273369405203469 -0.019069881083199729 -0.021871354360287958 -0.0032641980398540023 0.00050079133381207715 -0.012011847473835486 -0.00027605049572966973 0.00031108395161834275 -0.0088742856828842934 -0.011166984789665921 -0.0058675786749730063 -0.030476317018642136 0.0009982049354821164 0.00027822385536162075 -0.02624304732256233 -0.00079663851088803382 -0.016922464979059988 -0.014428416602722996 -0.0061612883742438304 -0.005185751152879562 0.00083534827441544162 -0.012253955707104495 0.0016074886698870085
leaf_weight=583850 3425 3017158 10125 817219 4699077 3491396 1306083 2599737 874212 1647356 5588226 25056629 2274900 2169222 1195012 1406798 2049758 2800108 695769 105767310 228739 176659 11007016 1025917 2050815 3530698 4336763 14784013 784843 237640498
leaf_count=583850 3425 3017158 10125 817219 4699077 3491396 1306083 2599737 874212 1647356 5588226 25056629 2274900 2169222 1195012 1406798 2049758 2800108 695769 105767310 228739 176659 11007016 1025917 2050815 3530698 4336763 14784013 784843 237640498
internal_value=0 -0.0160689 0.000878876 -0.0105704 -0.0023966 -0.0246396 -0.0275306 -0.00609005 -0.0170145 -0.01621 0.0012865 -0.000185771 -0.00644306 -0.00493044 -0.000601505 -0.0140284 -0.00591263 -0.00862178 -0.0234279 0.00141788 -0.0138918 -0.0112895 -0.0018675 -0.021325 -0.0165565 -0.00799993 -0.00399829 0.000814432 -0.00942577 0.00141983
internal_weight=0 2.30052e+07 4.20614e+08 1.40144e+07 4.65514e+07 8.99081e+06 6.51916e+06 1.52252e+07 2.47164e+06 5.92219e+06 3.74063e+08 3.06449e+07 8.09217e+06 1.24488e+07 3.13262e+07 4.27483e+06 1.02795e+07 5.07501e+06 3.02777e+06 3.43418e+08 1.88779e+06 2.7764e+06 1.65388e+07 2.332e+06 2.86803e+06 5.58046e+06 5.53178e+06 1.47874e+07 1.01358e+06 3.43408e+08
internal_count=443619331 23005163 420614168 14014354 46551380 8990809 6519165 15225151 2471644 5922188 374062788 30644855 8092166 12448755 31326229 4274832 10279533 5075008 3027769 343417933 1887794 2776396 16538791 2332000 2868034 5580456 5531775 14787438 1013582 343407808
is_linear=0
shrinkage=0.1


Tree=11
num_leaves=31
num_cat=0
split_feature=0 0 0 4 4 0 4 4 3 2 6 4 1 4 7 7 4 4 0 7 2 8 0 0 5 1 8 6 4 8
split_gain=511249 100322 34087.5 30748.5 20606.4 16542.2 15311.3 8792.2 6359.74 6108.01 5490.03 5460.37 5216.95 5098.97 4623.67 4544.29 4306.63 4263.59 5256.5 4190.74 4019.25 3919.41 3593.28 3495.01 3378.56 3194.66 3167.03 2996.28 2699.25 2687.13
threshold=14.500000000000002 47.500000000000007 4.5000000000000009 0.3138220000000001 0.27364450000000001 104.50000000000001 0.43712250000000002 0.44385250000000004 0.60404900000000017 53.500000000000007 0.70911100000000016 0.51253800000000005 2400.5000000000005 0.088194500000000023 0.00030250000000000009 0.00013550000000000001 0.14279300000000003 0.35361800000000004 374.50000000000006 0.00046150000000000005 62.500000000000007 0.69308150000000013 29.500000000000004 59.500000000000007 1.0000000180025095e-35 100.50000000000001 0.27818850000000006 0.70911100000000016 0.52765300000000015 0.39017250000000003
decision_type=2 2 2 2 2 2 2 2 2 2 2 2 2 2 2 2 2 2 2 2 2 2 2 2 2 2 2 2 2 2
left_child=2 3 16 9 13 6 12 8 20 -2 17 14 -3 -4 -6 -15 -1 24 28 22 -5 -9 -11 -14 -7 -18 -21 -8 -19 -16
right_child=1 5 4 7 11 10 27 21 -10 19 -12 -13 23 15 29 -17 25 18 -20 26 -22 -23 -24 -25 -26 -27 -28 -29 -30 -31
leaf_value=-0.017295664828439888 0.0016089293440026686 0.0021868957349901095 -0.0018537065151159717 -0.005982112370054366 -0.024247742190181495 -0.035999582491974581 -0.0053781376386670063 -0.01292548285948541 -0.0027766882603568917 -0.0070275583285467486 -0.0068251165877832864 -0.027863038042870464 -0.0037343017697505283 -0.017877543796983 -0.01250800161108126 -0.009524401833929946 -0.030780664656790836 0.00025129471872129943 0.0013206064017206101 0.0026431045989361375 -0.011612471244838156 -0.02969269098619251 -0.0028715066687767929 -0.00035162358616377135 0.0014581066465497745 -0.025092047946554698 -0.0031636627576890025 -0.021297141291450855 -0.0019146936310938268 -0.01880883038150204
leaf_weight=473188 2894912 7536994 609317 2114388 1064432 24082 5627167 3356057 2033488 3802031 851259 756017 3501881 897708 1052833 2372517 1646426 46471177 65890877 1593257 3166780 145454 4593915 23903676 243903096 2465642 2288185 120774 6566457 1895344
leaf_count=473188 2894912 7536994 609317 2114388 1064432 24082 5627167 3356057 2033488 3802031 851259 756017 3501881 897708 1052833 2372517 1646426 46471177 65890877 1593257 3166780 145454 4593915 23903676 243903096 2465642 2288185 120774 6566457 1895344
internal_value=0 0.000595276 -0.0193599 -0.0054273 -0.0156644 0.000982315 -0.000929833 -0.0095012 -0.00752859 -0.00252306 0.00119624 -0.0200672 -0.000143079 -0.0102525 -0.0185984 -0.0118174 -0.0263301 0.00121506 0.000724142 -0.00349735 -0.00935828 -0.013622 -0.00475354 -0.000783862 0.00145441 -0.0273697 -0.000780097 -0.00571262 -1.68709e-05 -0.0165587
internal_weight=0 4.30386e+08 1.32334e+07 2.59885e+07 8.64817e+06 4.04397e+08 4.06905e+07 1.08162e+07 7.31466e+06 1.51723e+07 3.63707e+08 4.76863e+06 3.49426e+07 3.87954e+06 4.01261e+06 3.27022e+06 4.58526e+06 3.62856e+08 1.18929e+08 1.22774e+07 5.28117e+06 3.50151e+06 8.39595e+06 2.74056e+07 2.43927e+08 4.11207e+06 3.88144e+06 5.74794e+06 5.30376e+07 2.94818e+06
internal_count=443619331 430385907 13233424 25988467 8648168 404397440 40690492 10816167 7314656 15172300 363706948 4768626 34942551 3879542 4012609 3270225 4585256 362855689 118928511 12277388 5281168 3501511 8395946 27405557 243927178 4112068 3881442 5747941 53037634 2948177
is_linear=0
shrinkage=0.1


Tree=12
num_leaves=31
num_cat=0
split_feature=0 0 0 8 8 7 4 4 0 1 7 3 9 2 0 8 9 0 8 7 2 0 4 0 8 3 4 2 7 2
split_gain=415766 72141.7 36501.9 29211.9 22475.3 9478.91 8484.35 7684.57 7111.4 6053.22 5791.1 5290.48 5189.08 5140.43 4522.79 4167.7 3962.5 3873.02 3501.69 3493.61 3153.81 3008.63 2978.57 4284.07 2913.01 2667.93 2666.3 2660.45 2615.88 2536.3
threshold=26.500000000000004 6.5000000000000009 92.500000000000014 0.38395850000000004 0.47934100000000007 0.0006395000000000002 0.28229150000000008 0.31746350000000007 14.500000000000002 793.50000000000011 0.00064750000000000018 0.60404900000000017 0.61904550000000003 71.500000000000014 2.5000000000000004 0.54809700000000017 0.62861750000000016 14.500000000000002 0.21677650000000001 0.00045550000000000007 21.500000000000004 341.50000000000006 0.33433550000000006 260.50000000000006 0.27818850000000006 0.72212200000000004 0.15484400000000001 66.500000000000014 0.00013550000000000001 68.500000000000014
decision_type=2 2 2 2 2 2 2 2 2 2 2 2 2 2 2 2 2 2 2 2 2 2 2 2 2 2 2 2 2 2
left_child=1 7 4 5 6 8 26 14 18 -10 17 13 20 -8 -1 -12 25 -5 -3 -16 -4 -14 -22 29 -7 27 -2 -6 -20 -24
right_child=2 3 12 10 16 24 11 -9 9 -11 15 -13 21 -15 19 -17 -18 -19 28 -21 22 -23 23 -25 -26 -27 -28 -29 -30 -31
leaf_value=-0.023481705390482874 0.0017428418560066468 -0.0074615079370346712 -0.055086155418114846 -0.023024659663439122 -0.0050771625569849543 0.0030692694974320985 -0.0021319740152470202 -0.025397368284110596 -1.2557609434502866e-05 -0.0078208914992273764 -0.0099770228934597596 0.00061540990658825231 -0.0035542171500013275 -0.0061625507534225658 -0.018955240765667666 -0.018422142297051167 -0.012827492054585374 -0.015521599069859527 -0.021492815341939076 -0.010132393902273686 0.001330617935363674 0.00019155137872397653 0.00091032278426827692 0.001091219643935129 -0.0040299255226511396 -0.0037474887332673104 -0.00049747498442584653 -0.01075329049971098 -0.012467720277297712 -0.00079739487870093698
leaf_weight=1114642 7982465 1238448 9986 1145380 1597544 1030351 9004517 3386793 1352767 3731230 2192501 3911352 3620142 4878534 1125032 796713 1033461 1722750 395421 746671 230021782 5259877 13739284 95627850 1316520 2638820 15881870 1709250 1709944 23697434
leaf_count=1114642 7982465 1238448 9986 1145380 1597544 1030351 9004517 3386793 1352767 3731230 2192501 3911352 3620142 4878534 1125032 796713 1033461 1722750 395421 746671 230021782 5259877 13739284 95627850 1316520 2638820 15881870 1709250 1709944 23697434
internal_value=0 -0.0130903 0.000715962 -0.00962383 -0.00186028 -0.00653384 -0.000980423 -0.0221367 -0.00809902 -0.00574322 -0.0153079 -0.0026331 0.00105282 -0.00354833 -0.0184388 -0.0122279 -0.00711222 -0.0185179 -0.0116808 -0.0154356 0.00111123 -0.0013355 0.00111277 0.000736199 -0.000913153 -0.0061188 0.000251896 -0.0080111 -0.0141628 -0.000170662
internal_weight=0 2.30052e+07 4.20614e+08 1.6632e+07 4.86378e+07 1.07747e+07 4.16587e+07 6.37314e+06 8.42781e+06 5.084e+06 5.85734e+06 1.77944e+07 3.71976e+08 1.38831e+07 2.98634e+06 2.98921e+06 6.97908e+06 2.86813e+06 3.34381e+06 1.8717e+06 3.63096e+08 8.88002e+06 3.63086e+08 1.33065e+08 2.34687e+06 5.94561e+06 2.38643e+07 3.30679e+06 2.10536e+06 3.74367e+07
internal_count=443619331 23005163 420614168 16632025 48637813 10774681 41658738 6373138 8427810 5083997 5857344 17794403 371976355 13883051 2986345 2989214 6979075 2868130 3343813 1871703 363096336 8880019 363086350 133064568 2346871 5945614 23864335 3306794 2105365 37436718
is_linear=0
shrinkage=0.1


Tree=13
num_leaves=31
num_cat=0
split_feature=0 0 0 8 4 0 8 4 4 3 8 7 2 9 8 2 4 3 6 4 7 1 7 2 0 2 8 3 3 2
split_gain=339115 54877.3 32396.9 19097 15563.3 9501.87 11918.6 6808.33 6609.73 5255.94 4677.71 4716.49 3890.87 3630.07 3579.2 3437.57 3303.32 3255.16 2979.07 2842.23 3031.56 2826.02 4092.94 2747.34 2710.91 2659.07 2645.83 3334.1 2603.06 2278.2
threshold=17.500000000000004 50.500000000000007 6.5000000000000009 0.44193750000000004 0.24607700000000002 155.50000000000003 0.45842600000000006 0.19682850000000005 0.25612800000000008 0.56110700000000013 0.46321450000000003 0.00022450000000000001 67.500000000000014 0.62861750000000016 0.6193645000000001 60.500000000000007 0.49163350000000006 0.71350700000000011 0.70911100000000016 0.071131000000000014 9.1500000000000015e-05 100.50000000000001 0.00060950000000000012 21.500000000000004 1.0000000180025095e-35 61.500000000000007 0.36319900000000005 0.44491750000000002 0.38200450000000002 68.500000000000014
decision_type=2 2 2 2 2 2 2 2 2 2 2 2 2 2 2 2 2 2 2 2 2 2 2 2 2 2 2 2 2 2
left_child=2 3 7 8 19 6 12 24 25 15 11 -6 23 17 29 -10 21 -5 -7 -4 -21 -9 -23 -3 -1 -2 27 -17 -27 -8
right_child=1 5 4 13 10 18 14 16 9 -11 -12 -13 -14 -15 -16 26 -18 -19 -20 20 -22 22 -24 -25 -26 28 -28 -29 -30 -31
leaf_value=-0.028163907694237746 0.00085989753923937243 -0.074389844106189984 0.0013828150033348124 -0.010238659538357144 -0.017977465268787459 0.0010586263998448855 -0.0005689475553532793 -0.024620539758500409 -0.0025912462106598244 1.246311106982986e-05 -0.018070823939332733 -0.0099603197698732247 -0.00046020167126007561 -0.016431994581181424 -0.008180263599052124 -0.0082684920318998236 -0.025979450290578132 -0.0047844781375583631 -0.0051857995879716519 -0.012681047452347043 -0.0050155949755884086 -0.022120283480984309 -0.014524979542945043 0.0011684972395284352 -0.011864104289325527 -0.0037121688348278324 -0.010299867166501985 -0.001913435498165611 0.0009054868283103134 -0.0035013173000719416
leaf_weight=112044 4968706 4813 513668 3078203 976159 329046842 4119564 1013560 2453884 2076731 1830257 2955600 28905834 620187 1205941 1897121 1263040 1697761 765783 656179 2413871 1476401 1365854 30676888 1142239 3988671 1748520 1461540 1759226 7424244
leaf_count=112044 4968706 4813 513668 3078203 976159 329046842 4119564 1013560 2453884 2076731 1830257 2955600 28905834 620187 1205941 1897121 1263040 1697761 765783 656179 2413871 1476401 1365854 30676888 1142239 3988671 1748520 1461540 1759226 7424244
internal_value=0 0.000529917 -0.0144254 -0.00394542 -0.0106765 0.000816483 -0.000221436 -0.019923 -0.00254325 -0.00444346 -0.0138948 -0.0119508 0.000372315 -0.00923445 -0.0029964 -0.00566733 -0.0215409 -0.00829981 0.00104413 -0.00550203 -0.00665398 -0.020087 -0.0184703 0.00115664 -0.0133202 -0.000834321 -0.00714531 -0.00550305 -0.00229887 -0.00245486
internal_weight=0 4.279e+08 1.57189e+07 2.57506e+07 9.34573e+06 4.0215e+08 7.23373e+07 6.37314e+06 2.03544e+07 9.6378e+06 5.76202e+06 3.93176e+06 5.95875e+07 5.39615e+06 1.27497e+07 7.56106e+06 5.11886e+06 4.77596e+06 3.29813e+08 3.58372e+06 3.07005e+06 3.85582e+06 2.84226e+06 3.06817e+07 1.25428e+06 1.07166e+07 5.10718e+06 3.35866e+06 5.7479e+06 1.15438e+07
internal_count=443619331 427900459 15718872 25750550 9345734 402149909 72337284 6373138 20354399 9637796 5762016 3931759 59587535 5396151 12749749 7561065 5118855 4775964 329812625 3583718 3070050 3855815 2842255 30681701 1254283 10716603 5107181 3358661 5747897 11543808
is_linear=0
shrinkage=0.1


Tree=14
num_leaves=31
num_cat=0
split_feature=0 0 0 8 8 8 8 0 7 7 7 7 10 2 8 4 0 4 7 4 5 7 4 10 9 3 2 7 0 3
split_gain=276270 48686.1 24645.1 16315.5 14857.2 10173.7 6308.66 5537.93 5450.99 5428.76 4870.73 4442.58 4435.38 4150.07 3784.85 3074.71 4168.92 2791.34 3059.28 2739.99 2651.21 2529.29 2503.63 2477.54 2382.96 3777.77 2310.27 2282.75 3072.5 2263.24
threshold=26.500000000000004 9.5000000000000018 80.500000000000014 0.36146150000000005 0.34602850000000007 0.36633900000000003 0.51171450000000018 2.5000000000000004 0.00064750000000000018 0.0005685000000000001 0.00053550000000000006 0.00040650000000000007 0.68132850000000011 51.500000000000007 0.49296500000000004 0.38469200000000009 191.50000000000003 0.15484400000000001 0.00024550000000000006 0.12571950000000001 1.0000000180025095e-35 0.00012750000000000004 0.55503900000000017 0.73000600000000004 0.26671450000000002 0.44491750000000002 45.500000000000007 0.00052950000000000013 2.5000000000000004 0.6534930000000001
decision_type=2 2 2 2 2 2 2 2 2 2 2 2 2 2 2 2 2 2 2 2 2 2 2 2 2 2 2 2 2 2
left_child=1 5 4 9 17 7 10 -1 19 13 -6 -5 15 -3 29 20 -17 -2 -19 -9 -4 -21 27 -8 -15 -26 -14 -7 -29 -13
right_child=2 3 12 11 6 22 23 8 -10 -11 -12 14 26 24 -16 16 -18 18 -20 21 -22 -23 -24 -25 25 -27 -28 28 -30 -31
leaf_value=-0.019286849812383607 0.0017021310917121084 -1.5421514636812061e-05 -0.031463546680767951 -0.015264574449181542 -0.0046386237946858021 -0.022996757913403266 -0.0070450544087189816 -0.0062047487618325306 -0.0040349815666458561 0.00046431962799256017 -0.00083322611227798049 -0.0084004072091717584 -0.031150561955488681 -0.0048012359295810294 -0.013139473918221178 -0.0010382194093137836 0.00068579807735558098 -0.0020191291924891693 0.00071901104095160818 -0.021331657811933434 0.0010315582915410217 -0.01303352451049929 -0.024469550833862864 -0.020361035240287827 -0.011453733498256716 -0.0026140245993604015 -0.0024729938203807648 -0.021326057618081123 -0.014353557842038928 -0.00097643546990607672
leaf_weight=1095085 6306728 1109479 25110 1788526 7610375 886429 3684734 445555 825156 1930357 6027439 1807279 28320 2902836 1507422 17226515 75500215 8960613 7492246 467348 284121775 1716061 918134 145232 1772270 664814 3484866 1050393 1586648 531371
leaf_count=1095085 6306728 1109479 25110 1788526 7610375 886429 3684734 445555 825156 1930357 6027439 1807279 28320 2902836 1507422 17226515 75500215 8960613 7492246 467348 284121775 1716061 918134 145232 1772270 664814 3484866 1050393 1586648 531371
internal_value=0 -0.0106706 0.000583623 -0.00698594 -0.00177021 -0.0164142 -0.00396388 -0.0130903 -0.0111258 -0.00418806 -0.00295677 -0.0111469 0.00083255 -0.00558056 -0.00923214 0.000865519 0.000365515 -8.65899e-05 -0.000772244 -0.0133513 0.00102869 -0.0148097 -0.0198185 -0.00755 -0.00673683 -0.00904234 -0.00270417 -0.0186066 -0.0171309 -0.00671359
internal_weight=0 2.30052e+07 4.20614e+08 1.40144e+07 4.02274e+07 8.99081e+06 1.74678e+07 4.5492e+06 3.45412e+06 8.37976e+06 1.36378e+07 5.6346e+06 3.80387e+08 6.4494e+06 3.84607e+06 3.76874e+08 9.27267e+07 2.27596e+07 1.64529e+07 2.62896e+06 2.84147e+08 2.18341e+06 4.4416e+06 3.82997e+06 5.33992e+06 2.43708e+06 3.51319e+06 3.52347e+06 2.63704e+06 2.33865e+06
internal_count=443619331 23005163 420614168 14014354 40227367 8990809 17467780 4549205 3454120 8379756 13637814 5634598 380386801 6449399 3846072 376873615 92726730 22759587 16452859 2628964 284146885 2183409 4441604 3829966 5339920 2437084 3513186 3523470 2637041 2338650
is_linear=0
shrinkage=0.1


Tree=15
num_leaves=31
num_cat=0
split_feature=0 0 8 4 0 0 8 7 1 1 7 2 4 8 3 4 8 6 0 2 7 7 1 7 2 0 4 2 5 1
split_gain=226152 45888.7 15197.5 13830.8 9422.13 8582.07 8969.06 5288.46 5088.48 3515.14 3494.82 3241.18 3153.27 3105.39 3260.08 3088.39 3012.58 2901.19 2854.02 2834.42 2604.41 2483.72 2352.47 3595.02 2209.16 2811.97 3200.12 2172.1 1883.76 1880.41
threshold=14.500000000000002 41.500000000000007 0.3916380000000001 0.37605500000000008 4.5000000000000009 107.50000000000001 0.42558900000000005 0.00089150000000000004 705.50000000000011 2134.5000000000005 0.00057650000000000008 61.500000000000007 0.15877250000000001 0.56200250000000007 0.71350700000000011 0.58047850000000012 0.64464400000000011 0.70911100000000016 53.500000000000007 73.500000000000014 0.00016650000000000001 0.00040650000000000007 186.50000000000003 0.00079050000000000008 70.500000000000014 338.50000000000006 0.44901800000000008 21.500000000000004 1.0000000180025095e-35 2850.5000000000005
decision_type=2 2 2 2 2 2 2 2 2 2 2 2 2 2 2 2 2 2 2 2 2 2 2 2 2 2 2 2 2 2
left_child=2 3 4 8 -1 6 9 12 -2 27 11 -10 -6 14 19 22 21 24 -11 -8 -14 -5 -4 -24 28 26 -26 -3 -7 -20
right_child=1 5 15 16 7 17 13 -9 10 18 -12 -13 20 -15 -16 -17 -18 -19 29 -21 -22 -23 23 -25 25 -27 -28 -29 -30 -31
leaf_value=-0.015487172595362853 0.0035305005006173993 -0.073877628928833483 -0.01942353974618409 -0.010612597131054311 -0.0043690921021087865 -0.027038916956251238 -0.0019973150454193796 -0.00086498029616910931 -0.0019225484453708282 -0.0032133372105788284 -0.00064456289459157139 -0.0055144605185244323 -0.01498882260201418 -0.0064686619922825475 0.00066633274443445966 -0.022457317167550565 -0.018091165598147968 -0.0050516782614267348 0.0014184951542142875 -0.0064188786255004755 -0.0089648743804327906 -0.0061474528600463842 -0.017689711262499533 -0.010960976340687861 0.00034974357651000376 0.00087045129749585581 -0.0015072567261473432 0.0022505935672875992 0.0010409101348423158 -0.00050319155103470739
leaf_weight=2277151 1246875 3750 1347482 1995981 1043790 23894 4306256 906887 4161451 3078981 4087965 6338801 986924 2189438 2667878 860503 302148 845846 6924565 2185682 2631031 3314333 1643010 1536646 52346588 100285245 11279462 6683177 196877128 19240463
leaf_count=2277151 1246875 3750 1347482 1995981 1043790 23894 4306256 906887 4161451 3078981 4087965 6338801 986924 2189438 2667878 860503 302148 845846 6924565 2185682 2631031 3314333 1643010 1536646 52346588 100285245 11279462 6683177 196877128 19240463
internal_value=0 0.000395915 -0.0128762 -0.00411292 -0.010068 0.000632389 -0.000634611 -0.00785194 -0.00260109 0.000139465 -0.00312517 -0.00409092 -0.00921117 -0.00308528 -0.00227656 -0.0169657 -0.0083784 0.000798026 -0.000333504 -0.00348595 -0.0106081 -0.00782576 -0.0159218 -0.0144379 0.000811739 0.000540538 2.05394e-05 0.0022079 0.0010375 5.38213e-06
internal_weight=0 4.30386e+08 1.32334e+07 2.14476e+07 7.84578e+06 4.08938e+08 4.72802e+07 5.56863e+06 1.58351e+07 3.59309e+07 1.45882e+07 1.05003e+07 4.66174e+06 1.13493e+07 9.15982e+06 5.38764e+06 5.61246e+06 3.61658e+08 2.9244e+07 6.49194e+06 3.61796e+06 5.31031e+06 4.52714e+06 3.17966e+06 3.60812e+08 1.63911e+08 6.3626e+07 6.68693e+06 1.96901e+08 2.6165e+07
internal_count=443619331 430385907 13233424 21447554 7845783 408938353 47280190 5568632 15835092 35930936 14588217 10500252 4661745 11349254 9159816 5387641 5612462 361658163 29244009 6491938 3617955 5310314 4527138 3179656 360812317 163911295 63626050 6686927 196901022 26165028
is_linear=0
shrinkage=0.1


Tree=16
num_leaves=31
num_cat=0
split_feature=0 0 0 8 4 2 3 8 4 8 8 7 0 3 2 2 6 2 8 3 8 0 2 3 4 3 2 8 3 1
split_gain=184885 24257.8 22514.4 12987.5 11520.7 5265.88 5238.32 5377.42 4460.12 3775.58 3645.69 4190.48 3494.78 3244.8 2532.59 2339.77 2325.17 2295.61 2274.3 2252.65 2210.54 3550.89 2221.81 2585.85 2646.01 2052.51 2111.01 2051.44 3111.27 2035.27
threshold=20.500000000000004 68.500000000000014 6.5000000000000009 0.483408 0.24607700000000002 62.500000000000007 0.67062250000000012 0.35546200000000006 0.16946750000000002 0.56200250000000007 0.58587800000000012 0.00022750000000000003 188.50000000000003 0.4833745000000001 21.500000000000004 47.500000000000007 0.70911100000000016 21.500000000000004 0.25610350000000009 0.58105150000000017 0.29670750000000007 248.50000000000003 68.500000000000014 0.71818100000000007 0.44901800000000008 0.93794600000000006 73.500000000000014 0.42000900000000002 0.56110700000000013 100.50000000000001
decision_type=2 2 2 2 2 2 2 2 2 2 2 2 2 2 2 2 2 2 2 2 2 2 2 2 2 2 2 2 2 2
left_child=2 3 8 5 15 17 7 13 -1 14 11 -6 -11 18 -3 -4 25 -2 -7 -9 -16 22 -22 24 -24 26 -5 28 -13 -10
right_child=1 9 4 16 10 6 -8 19 29 12 -12 27 -14 -15 20 -17 -18 -19 -20 -21 21 -23 23 -25 -26 -27 -28 -29 -30 -31
leaf_value=-0.0083785985240421787 -0.075766083011413188 -0.046325878077274153 0.0024396608335785683 -0.0054094880445019478 -0.013860403271430864 -0.00094425179064216384 0.0028069057313182778 -0.0068708420437471416 -0.018785717389762965 -0.0035129965997586256 -0.017196408275906738 -0.0074733823908327756 -5.7722503528145714e-05 0.0021644924955153523 0.0010071700024881748 -0.0042348244586886009 -0.019048846269236971 0.00036517519600204231 -0.0039871899820212529 -0.0027390194646731564 0.00058499230073994673 0.00077782403576288114 -0.00069851964367070429 0.0010915174537881993 -0.00370908431835756 0.00050697485607298289 -0.009963165018107914 -0.0099815689365662132 0.0012686670611936771 -0.014528984165532161
leaf_weight=958504 3962 11441 605892 2928946 1441362 5305468 1808559 3626702 1590326 3661250 605061 2396295 14600530 1894980 158007253 3944401 149360 12164830 4573509 2074132 26199133 149888677 26197934 7102421 3285541 397261 1560407 2320457 490429 3824308
leaf_count=958504 3962 11441 605892 2928946 1441362 5305468 1808559 3626702 1590326 3661250 605061 2396295 14600530 1894980 158007253 3944401 149360 12164830 4573509 2074132 26199133 149888677 26197934 7102421 3285541 397261 1560407 2320457 490429 3824308
internal_value=0 0.000421975 -0.00987653 -0.00204338 -0.00729051 -0.00128845 -0.00231633 -0.00284656 -0.0146662 0.000653252 -0.00976491 -0.00908859 -0.00075046 -0.00162592 0.000722404 -0.00334609 -0.00675826 0.000340388 -0.00235299 -0.00536756 0.000723856 0.000513367 -0.000117981 -0.000621379 -0.00103401 -0.0063826 -0.00699225 -0.00776774 -0.00598819 -0.0157792
internal_weight=0 4.25442e+08 1.8177e+07 3.64881e+07 1.18039e+07 3.14521e+07 1.92834e+07 1.74748e+07 6.37314e+06 3.88954e+08 7.2536e+06 6.64854e+06 1.82618e+07 1.1774e+07 3.70692e+08 4.55029e+06 5.03597e+06 1.21688e+07 9.87898e+06 5.70083e+06 3.70681e+08 2.12674e+08 6.2785e+07 3.65859e+07 2.94835e+07 4.88661e+06 4.48935e+06 5.20718e+06 2.88672e+06 5.41463e+06
internal_count=443619331 425442296 18177035 36488116 11803897 31452142 19283350 17474791 6373138 388954180 7253604 6648543 18261780 11773957 370692400 4550293 5035974 12168792 9878977 5700834 370680959 212673706 62785029 36585896 29483475 4886614 4489353 5207181 2886724 5414634
is_linear=0
shrinkage=0.1


Tree=17
num_leaves=31
num_cat=0
split_feature=0 0 0 8 8 8 1 0 7 9 3 2 7 3 2 4 7 9 8 1 0 3 8 0 8 2 3 9 8 8
split_gain=151435 29985.6 10522.9 9913.71 8543.57 7707.46 4663.99 4440.71 5150.05 3979.02 3992.3 3892.71 3221.15 3060.72 2610.98 2578.41 2696.04 2525.52 2322.01 1993.43 3166.93 1973.38 1852.2 2861.27 1825.59 1769.41 1762.47 2474.76 1746.89 1707.53
threshold=29.500000000000004 11.500000000000002 95.500000000000014 0.34876550000000006 0.34462350000000003 0.42363250000000002 624.50000000000011 2.5000000000000004 0.00080350000000000007 0.53973150000000014 0.70913100000000007 70.500000000000014 0.00063250000000000014 0.45493 61.500000000000007 0.12238300000000001 0.00010250000000000001 0.71685200000000016 0.60950950000000004 1503.5000000000002 38.500000000000007 0.99963250000000003 0.35546200000000006 419.50000000000006 0.50571150000000009 69.500000000000014 0.58105150000000017 0.45834900000000006 0.26356900000000005 0.24691700000000003
decision_type=2 2 2 2 2 2 2 2 2 2 2 2 2 2 2 2 2 2 2 2 2 2 2 2 2 2 2 2 2 2
left_child=1 5 4 6 19 7 -3 -1 15 10 11 -6 18 14 -8 -9 -17 22 -5 -2 -21 -19 -4 25 -14 -24 -13 -28 -18 -10
right_child=2 3 17 12 9 -7 13 8 29 -11 -12 26 24 -15 -16 16 28 21 -20 20 -22 -23 23 -25 -26 -27 27 -29 -30 -31
leaf_value=-0.014547151101416411 0.0024041037954348268 0.0031963558735926146 0.00084233777383855429 -0.0090898455986048021 -0.0009341174423058992 -0.015118837531330243 -0.0020331485850256978 -0.0035297382270034999 0.0043497544100838895 -0.005265031628999905 0.0021681104760703199 -0.0058563184355795647 -0.0033338806504169629 0.0018053461075717338 -0.006188755407128454 -0.017733554870572533 -0.0067403214168268765 -0.0085297830595478085 -0.021787587840537026 -0.0040047094693519423 0.00024866803722469719 0.0014366919170614957 0.00055721593125105523 0.00083662265253830505 -0.008583920217256907 -0.00039028851035711294 9.5233632828854058e-06 -0.005438002175707851 -0.011536866262274818 -0.0045317959063587397
leaf_weight=1399948 3687938 1301670 211546864 3232782 8379671 3831016 2946422 562813 286161 4027749 2235925 3219455 1934726 1000415 3105514 486417 1209783 532346 150731 1905382 21539982 316952 32532126 74965362 1007109 50002134 1755438 1588639 2039060 888801
leaf_count=1399948 3687938 1301670 211546864 3232782 8379671 3831016 2946422 562813 286161 4027749 2235925 3219455 1934726 1000415 3105514 486417 1209783 532346 150731 1905382 21539982 316952 32532126 74965362 1007109 50002134 1755438 1588639 2039060 888801
internal_value=0 -0.00749971 0.000455168 -0.00456476 -0.000932362 -0.0115247 -0.00230345 -0.00952128 -0.00823571 -0.00243612 -0.00177287 -0.00236255 -0.00755131 -0.00331856 -0.00416557 -0.00983957 -0.0107903 0.000636499 -0.00965551 0.000242948 -9.69998e-05 -0.00481037 0.000649034 0.000389397 -0.00513118 -1.68153e-05 -0.00418623 -0.00257838 -0.00975076 -0.0023687
internal_weight=0 2.53834e+07 4.18236e+08 1.46794e+07 4.83402e+07 1.0704e+07 8.35402e+06 6.87298e+06 5.47304e+06 2.12069e+07 1.71791e+07 1.49432e+07 6.32535e+06 7.05235e+06 6.05194e+06 4.29807e+06 3.73526e+06 3.69896e+08 3.38351e+06 2.71333e+07 2.34454e+07 849298 3.69046e+08 1.575e+08 2.94184e+06 8.25343e+07 6.56353e+06 3.34408e+06 3.24884e+06 1.17496e+06
internal_count=443619331 25383368 418235963 14679369 48340179 10703999 8354021 6872983 5473035 21206877 17179128 14943203 6325348 7052351 6051936 4298073 3735260 369895784 3383513 27133302 23445364 849298 369046486 157499622 2941835 82534260 6563532 3344077 3248843 1174962
is_linear=0
shrinkage=0.1


Tree=18
num_leaves=31
num_cat=0
split_feature=0 0 8 8 0 7 0 9 7 4 2 8 3 3 8 7 3 4 2 2 3 9 3 2 3 2 3 2 7 0
split_gain=123278 25401.9 9116.06 8836.37 4634.27 4266.42 4096.54 6231.1 3734.5 3641.09 3477.55 2535.14 2992.35 2306.69 2786.41 2188.24 2180.05 3029.63 2120.05 1957.92 2377.68 1940.76 2128.3 1855.13 1842.89 1837.38 1759.98 1710.55 1699.17 2037.83
threshold=14.500000000000002 44.500000000000007 0.42363250000000002 0.34876550000000006 4.5000000000000009 0.00057650000000000008 158.50000000000003 0.53584100000000012 0.00046150000000000005 0.18691150000000004 67.500000000000014 0.54809700000000017 0.60114000000000012 1.0369850000000003 0.66440450000000006 0.00052950000000000013 0.71818100000000007 0.31533550000000005 21.500000000000004 53.500000000000007 0.56351550000000017 0.36716750000000004 0.44491750000000002 76.500000000000014 0.91346300000000014 45.500000000000007 0.76453500000000008 69.500000000000014 0.00029050000000000007 1.0000000180025095e-35
decision_type=2 2 2 2 2 2 2 2 2 2 2 2 2 2 2 2 2 2 2 2 2 2 2 2 2 2 2 2 2 2
left_child=3 2 5 4 28 9 7 10 25 -2 18 12 -5 14 23 -4 17 -12 -3 -11 21 22 -21 26 -25 -6 -9 -23 -1 -30
right_child=1 6 15 11 8 -7 -8 13 -10 19 16 -13 -14 -15 -16 -17 -18 -19 -20 20 -22 27 -24 24 -26 -27 -28 -29 29 -31
leaf_value=-0.01491989859944646 -7.4593943307455459e-05 -0.058385533105230973 -0.0086092229118933487 -0.012283759698508125 -0.00041991204269997549 0.0009000866587306124 0.00063346989583746259 -0.0030827143142324953 -0.00092734302604272371 0.00017823614733849784 -2.1964028589512399e-05 -0.015182029668194031 -0.0064900728059958798 0.0045660170487663724 -0.011533949811295427 -0.0046940348534249736 0.0017488058967471435 -0.0019762921487708985 0.00081095448391385171 -0.0048035269100600393 0.001405674600782486 -0.0054524544564280176 0.00013312633830963599 -0.0067123449432204899 0.00022627613101564435 -0.0079172377082408259 0.0015670038244919753 -0.012329011350893785 -0.018094547054510749 -0.0068402500636954985
leaf_weight=720235 3866151 6051 2411317 3599594 368176 4506868 327872726 2555249 1412876 1134885 18780356 1881058 1184910 374500 405248 3499036 3591630 13732284 35874206 4980899 682326 1030241 1058982 1783424 487396 2914186 1194654 557478 193322 959067
leaf_count=720235 3866151 6051 2411317 3599594 368176 4506868 327872726 2555249 1412876 1134885 18780356 1881058 1184910 374500 405248 3499036 3591630 13732284 35874206 4980899 682326 1030241 1058982 1783424 487396 2914186 1194654 557478 193322 959067
internal_value=0 0.00029231 -0.00288813 -0.00950671 -0.00690351 -0.00175924 0.000477887 -0.000169591 -0.00522596 -0.00265964 0.000103753 -0.0120717 -0.0108489 -0.00306301 -0.00350762 -0.00629136 -0.000589139 -0.000847409 0.000800971 -0.00371781 -0.00424989 -0.00475581 -0.00393798 -0.00296738 -0.00522308 -0.00707628 -0.00160139 -0.00786694 -0.0111096 -0.00872824
internal_weight=0 4.30386e+08 2.37282e+07 1.32334e+07 6.56786e+06 1.78178e+07 4.06658e+08 7.8785e+07 4.69524e+06 1.3311e+07 7.19845e+07 6.66556e+06 4.7845e+06 6.80047e+06 6.42597e+06 5.91035e+06 3.61043e+07 3.25126e+07 3.58803e+07 9.44481e+06 8.30993e+06 7.6276e+06 6.03988e+06 6.02072e+06 2.27082e+06 3.28236e+06 3.7499e+06 1.58772e+06 1.87262e+06 1.15239e+06
internal_count=443619331 430385907 23728183 13233424 6567862 17817830 406657724 78784998 4695238 13310962 71984527 6665562 4784504 6800471 6425971 5910353 36104270 32512640 35880257 9444811 8309926 7627600 6039881 6020723 2270820 3282362 3749903 1587719 1872624 1152389
is_linear=0
shrinkage=0.1


Tree=19
num_leaves=31
num_cat=0
split_feature=0 0 8 0 8 4 7 1 0 8 3 3 2 1 10 0 1 2 7 0 8 7 8 0 2 0 2 2 8 7
split_gain=100793 20160.7 8394.01 7043.68 5601.83 4498.24 4046.93 3743.41 4381.86 3582.41 3481.23 3013.8 3090.58 2738.81 2515.17 2135.62 2582.22 2069.88 1922.98 2174.41 2070.83 1794.5 2443.04 1907.2 1775 2296.08 1788.74 1745.51 1719.7 1704.06
threshold=29.500000000000004 9.5000000000000018 0.28365200000000007 74.500000000000014 0.47934100000000007 0.22329600000000002 0.00018550000000000004 1595.5000000000002 38.500000000000007 0.45676900000000004 0.60404900000000017 0.39174000000000003 59.500000000000007 2045.5000000000002 0.68132850000000011 47.500000000000007 2674.5000000000005 68.500000000000014 0.00017450000000000004 1.0000000180025095e-35 0.16010200000000002 0.00027350000000000003 0.49529200000000007 2.5000000000000004 69.500000000000014 188.50000000000003 21.500000000000004 45.500000000000007 0.69308150000000013 0.0011595000000000002
decision_type=2 2 2 2 2 2 2 2 2 2 2 2 2 2 2 2 2 2 2 2 2 2 2 2 2 2 2 2 2 2
left_child=1 5 11 4 7 18 -4 -2 -9 10 17 12 -3 -10 24 -15 -17 -8 -1 -20 -21 -7 23 -23 26 -26 -5 -16 -11 -25
right_child=3 2 6 14 -6 21 9 8 13 28 -12 -13 -14 15 27 16 -18 -19 19 20 -22 22 -24 29 25 -27 -28 -29 -30 -31
leaf_value=-0.0098289057573145659 0.0018430516094503123 0.00030497048781197712 -0.010982992211826831 -0.039325137975191063 -0.0041710889510348757 -0.015113123641313878 -0.0033157751206213263 -0.0049096152794532036 0.0016050558992653733 -0.0073395880621541457 0.0021198376174181108 0.0044679970786945756 -0.0043814557913535177 -0.0040848304373958411 -0.026708177156773212 0.00079405708005854305 -0.0019490509304886121 -0.0079323488432805882 -0.01697315088519526 0.004824203514475902 -0.0048451799601001763 -0.01241671914784008 -0.013278495009754622 -0.0087533941972503509 -0.00043608275006334516 0.00046490290389481322 0.00072724502140104235 -0.0019554221320191938 -0.019152231744060548 -0.0022276740005537465
leaf_weight=919624 5555764 2810152 1331611 11151 4823574 1029549 3340047 2606706 4558562 2876854 903065 814033 2818671 2176437 28721 6236005 7631109 1369368 119191 277513 1097074 1085896 2078449 1874772 34951818 148279743 197851481 3524892 128758 508741
leaf_count=919624 5555764 2810152 1331611 11151 4823574 1029549 3340047 2606706 4558562 2876854 903065 814033 2818671 2176437 28721 6236005 7631109 1369368 119191 277513 1097074 1085896 2078449 1874772 34951818 148279743 197851481 3524892 128758 508741
internal_value=0 -0.00611853 -0.00403138 0.000371343 -0.00101742 -0.00992394 -0.00585232 -0.000488575 -0.00104672 -0.00505956 -0.00356755 -0.0012193 -0.00204179 -0.000557967 0.000492612 -0.00117256 -0.000715482 -0.00465815 -0.00623132 -0.00401652 -0.00289304 -0.0112788 -0.0105673 -0.00894308 0.000517305 0.000293038 0.000724988 -0.00215548 -0.00784563 -0.00736053
internal_weight=0 2.53834e+07 1.63926e+07 4.18236e+08 3.35882e+07 8.99081e+06 9.9497e+06 2.87646e+07 2.32088e+07 8.61809e+06 5.61248e+06 6.44286e+06 5.62882e+06 2.06021e+07 3.84648e+08 1.60436e+07 1.38671e+07 4.70942e+06 2.4134e+06 1.49378e+06 1.37459e+06 6.57741e+06 5.54786e+06 3.46941e+06 3.81094e+08 1.83232e+08 1.97863e+08 3.55361e+06 3.00561e+06 2.38351e+06
internal_count=443619331 25383368 16392559 418235963 33588157 8990809 9949703 28764583 23208819 8618092 5612480 6442856 5628823 20602113 384647806 16043551 13867114 4709415 2413402 1493778 1374587 6577407 5547858 3469409 381094193 183231561 197862632 3553613 3005612 2383513
is_linear=0
shrinkage=0.1


Tree=20
num_leaves=31
num_cat=0
split_feature=0 0 0 8 8 1 0 7 1 7 0 4 8 3 1 4 0 1 10 3 2 1 7 8 8 2 3 6 3 0
split_gain=82229.6 12392.3 8661.45 7019.82 5819.56 3676.58 5967.37 3239.59 3102.44 3010.47 2955.08 2898.52 2869.7 2894.24 2283 2278.8 2428.46 1689.02 1595.8 1599.8 1865.66 1575.74 1961.72 1940.52 1568.7 1525.72 1516.71 2068.71 1500.98 1498.76
threshold=23.500000000000004 6.5000000000000009 71.500000000000014 0.26356900000000005 0.483408 1237.5000000000002 32.500000000000007 0.00022750000000000003 1776.5000000000002 0.00026050000000000004 41.500000000000007 0.083936000000000024 0.45286750000000003 0.54287950000000007 2308.5000000000005 0.52765300000000015 410.50000000000006 1950.5000000000002 0.73000600000000004 0.93794600000000006 73.500000000000014 100.50000000000001 0.00083950000000000008 0.49062750000000005 0.64464400000000011 59.500000000000007 1.0369850000000003 0.70911100000000016 0.71350700000000011 50.500000000000007
decision_type=2 2 2 2 2 2 2 2 2 2 2 2 2 2 2 2 2 2 2 2 2 2 2 2 2 2 2 2 2 2
left_child=1 11 4 9 5 -2 -7 -5 -8 -3 -10 -1 13 25 -12 -4 17 -17 19 20 -6 -13 -23 -24 28 -9 27 -19 -14 -16
right_child=2 3 15 7 18 6 8 12 10 -11 14 21 24 -15 29 16 -18 26 -20 -21 -22 22 23 -25 -26 -27 -28 -29 -30 -31
leaf_value=-0.00076569429302703854 0.0022550446633780169 -0.0033080351218598199 0.00049045657700871274 -0.009923624366445831 -0.0030562262040637559 -0.0049097045704839136 0.0016497158224088244 -0.0031028950916842939 -0.0045135561225230414 0.0019086227358986959 0.00098258599180577728 -0.012873663232476905 -0.0088738260744463827 0.00015106655533147063 -0.0045207865446044186 -0.068370549319065416 0.00057130619582447864 -0.001835256831579821 -0.014835698552092545 0.0020416895887459207 -0.0073300973710151013 -0.01092622246484197 -0.0033141241417145801 -0.010385917349396289 -0.014762016979257954 -0.0072521897431655699 0.0026998029588108439 -0.009196998689776378 -0.0037658993973598621 -0.0010383990339057866
leaf_weight=334048 3771623 3020720 370134527 1798061 2839680 3535078 5211896 1700544 2243717 1745454 5657773 1740254 1547716 1366147 1422933 3815 7867592 7703279 141181 395815 1595124 2730355 864388 704093 289074 1850545 685140 401615 915626 9401518
leaf_count=334048 3771623 3020720 370134527 1798061 2839680 3535078 5211896 1700544 2243717 1745454 5657773 1740254 1547716 1366147 1422933 3815 7867592 7703279 141181 395815 1595124 2730355 864388 704093 289074 1850545 685140 401615 915626 9401518
internal_value=0 -0.00616847 0.000300497 -0.00452757 -0.0011783 -0.000672632 -0.00107456 -0.00610323 -0.000508193 -0.00139761 -0.00110879 -0.00983331 -0.00520759 -0.00376039 -0.000645305 0.000438959 -0.000705067 -0.001847 -0.00435607 -0.00404979 -0.00459347 -0.0103349 -0.00930713 -0.00648866 -0.00779302 -0.00526518 -0.00181813 -0.00220005 -0.00697521 -0.00149618
internal_weight=0 2.0607e+07 4.23012e+08 1.42339e+07 3.62163e+07 3.12445e+07 2.74729e+07 9.46771e+06 2.39378e+07 4.76617e+06 1.87259e+07 6.37314e+06 7.66965e+06 4.91724e+06 1.64822e+07 3.86796e+08 1.66614e+07 8.79385e+06 4.9718e+06 4.83062e+06 4.4348e+06 6.03909e+06 4.29884e+06 1.56848e+06 2.75242e+06 3.55109e+06 8.79003e+06 8.10489e+06 2.46334e+06 1.08245e+07
internal_count=443619331 20607025 423012306 14233887 36216338 31244538 27472915 9467713 23937837 4766174 18725941 6373138 7669652 4917236 16482224 386795968 16661441 8793849 4971800 4830619 4434804 6039090 4298836 1568481 2752416 3551089 8790034 8104894 2463342 10824451
is_linear=0
shrinkage=0.1


Tree=21
num_leaves=31
num_cat=0
split_feature=0 0 8 8 7 1 2 4 0 1 7 7 7 1 9 3 0 4 3 2 7 2 8 3 8 3 0 2 9 3
split_gain=67765 13463.1 5637.93 5546.77 3233.12 3181.34 3043.69 2937.53 4245.55 2465.2 2389.91 2257.99 1944.87 2248.52 1885.43 2064.84 1858.04 1696.34 2238.7 2625.12 1657.52 2187.05 1631.83 1629.84 1524.53 1452.76 1437.6 1417.64 1338.4 1427.94
threshold=14.500000000000002 38.500000000000007 0.32056550000000006 0.34602850000000007 0.00037850000000000009 793.50000000000011 21.500000000000004 0.40265950000000006 137.50000000000003 100.50000000000001 0.00041150000000000003 0.00023650000000000003 0.00043950000000000006 186.50000000000003 0.58495500000000011 0.7407625000000001 4.5000000000000009 0.58047850000000012 0.87926900000000008 75.500000000000014 0.0057585000000000006 79.500000000000014 0.22194700000000003 0.69444150000000004 0.58587800000000012 1.1143625000000001 458.50000000000006 51.500000000000007 0.56359500000000018 0.7360755000000001
decision_type=2 2 2 2 2 2 2 2 2 2 2 2 2 2 2 2 2 2 2 2 2 2 2 2 2 2 2 2 2 2
left_child=2 3 4 5 16 -2 -3 -8 17 -6 -5 -7 -4 -14 15 -12 -1 18 19 23 26 -22 -11 -9 -15 -19 -10 -18 -21 -30
right_child=1 6 12 10 9 11 7 8 20 22 14 -13 13 24 -16 -17 27 25 -20 28 21 -23 -24 -25 -26 -27 -28 -29 29 -31
leaf_value=-0.01065799350970513 0.0028835354603784177 -0.043184740449935304 -0.011592966934518726 -0.0065641638462322835 -0.0094477902053910715 -0.0031712138504400621 0.00047789802315472161 -0.0015831747878290463 -0.00025788319122126315 0.0043780795986974935 -0.0031325759814691705 8.0483813366342887e-06 -0.010558801884689504 -0.0055161692720013464 -0.0075291352320272292 0.0029209866285182674 -0.0017102575898744262 -0.006378727737406456 0.0031188182424982495 -0.0030205638394233737 -0.00092161513632983162 -0.036569529392582394 -0.0021391655239512016 0.0017203212753118568 -0.01114878383869791 0.0083201799317247777 0.00063284683589501602 -0.0067245037319047622 -0.017954962010475077 -0.0057991973390836534
leaf_weight=828829 1858964 16068 1911251 3012957 335473 4706837 323898364 5708693 40005155 558291 3866789 4251960 2038337 3044122 795575 659575 799045 1071371 995473 3544695 43456 28496 1231982 2022618 570597 71742 33120843 1915497 115538 590738
leaf_count=828829 1858964 16068 1911251 3012957 335473 4706837 323898364 5708693 40005155 558291 3866789 4251960 2038337 3044122 795575 659575 799045 1071371 995473 3544695 43456 28496 1231982 2022618 570597 71742 33120843 1915497 115538 590738
internal_value=0 0.000216723 -0.0070484 -0.0023749 -0.00466416 -0.000881123 0.000337425 0.000339125 -0.000175636 -0.00158093 -0.00431366 -0.0016623 -0.00883529 -0.00790294 -0.00303957 -0.00225046 -0.00651385 -0.0017632 -0.00143791 -0.00181648 0.000130627 -0.0150397 -0.000106783 -0.000718934 -0.0064053 -0.00545622 0.000145554 -0.00524852 -0.0038126 -0.00778773
internal_weight=0 4.30386e+08 1.32334e+07 1.91527e+07 5.66912e+06 1.08178e+07 4.11233e+08 4.11217e+08 8.73188e+07 2.12575e+06 8.3349e+06 8.9588e+06 7.56431e+06 5.65306e+06 5.32194e+06 4.52636e+06 3.54337e+06 1.41209e+07 1.29778e+07 1.19823e+07 7.3198e+07 71952 1.79027e+06 7.73131e+06 3.61472e+06 1.14311e+06 7.3126e+07 2.71454e+06 4.25097e+06 706276
internal_count=443619331 430385907 13233424 19152657 5669117 10817761 411233250 411217182 87318818 2125746 8334896 8958797 7564307 5653056 5321939 4526364 3543371 14120868 12977755 11982282 73197950 71952 1790273 7731311 3614719 1143113 73125998 2714542 4250971 706276
is_linear=0
shrinkage=0.1


Tree=22
num_leaves=31
num_cat=0
split_feature=0 0 8 8 3 4 1 0 1 0 1 7 0 8 10 7 1 2 0 3 9 3 3 2 7 2 5 7 2 1
split_gain=55189.4 8847.92 5933.08 5088.77 3672.64 3686.54 3497.28 3610.09 2903.34 3039.03 3235.36 2882.35 2426.2 2396.21 2150.98 1926.48 1902.41 1840.92 2684.22 1953.53 3250.37 2084.69 1716.13 1569.34 1440.87 1335.93 1297.54 1222.61 1173.59 1162.71
threshold=17.500000000000004 56.500000000000007 0.3916380000000001 0.45842600000000006 0.52834450000000011 0.091743000000000019 975.50000000000011 26.500000000000004 1410.5000000000002 35.500000000000007 1950.5000000000002 8.9500000000000021e-05 2.5000000000000004 0.22033900000000003 0.73000600000000004 0.00074750000000000012 268.50000000000006 73.500000000000014 185.50000000000003 0.96897250000000013 0.54341750000000011 0.72212200000000004 0.99963250000000003 21.500000000000004 0.00042550000000000004 21.500000000000004 0.71564250000000007 0.00063250000000000014 26.500000000000004 1153.5000000000002
decision_type=2 2 2 2 2 2 2 2 2 2 2 2 2 2 2 2 2 2 2 2 2 2 2 2 2 2 2 2 2 2
left_child=2 3 4 6 5 28 25 29 -9 -10 -11 -7 -13 -14 17 -4 -17 23 19 20 -19 -22 -16 -3 -5 -2 -23 -15 -1 -8
right_child=1 14 15 24 -6 11 7 8 9 10 -12 12 13 27 22 16 -18 18 -20 -21 21 26 -24 -25 -26 -27 -28 -29 -30 -31
leaf_value=-0.017547202391083868 -0.071992908520303919 -0.034302687080829286 -0.010349904542758227 -0.0067271188273560784 0.0030105486617638634 -0.010750077534392374 -0.0025438429904936543 0.0018537979980576347 -0.004227300981911178 0.0014421271427939835 -0.0019634134614821904 -0.0092159615910365044 -0.00035654304829827328 -0.0060904073463852798 -0.0082454675351158486 -0.0090331977661106417 -0.0044808450150100555 -0.00059836891152113966 0.00028471215544298353 0.0033061576875757859 -0.010748869761708732 -0.0025866083634488424 0.00094697853332047211 0.00051376011265209158 -0.0031546579433268974 0.0023035078341286067 -0.015085918190178904 -0.0023455771370644554 0.0016870424078844416 -0.0062239224429069765
leaf_weight=32834 2422 12947 2529444 1608013 648966 922543 1848332 3519300 2926821 4597804 7093620 1056814 1374930 3368104 522455 1841145 1830788 25880021 113793910 1124295 416272 2207707 332237 253324696 3789890 3210223 86298 1176294 937010 1603196
leaf_count=32834 2422 12947 2529444 1608013 648966 922543 1848332 3519300 2926821 4597804 7093620 1056814 1374930 3368104 522455 1841145 1830788 25880021 113793910 1124295 416272 2207707 332237 253324696 3789890 3210223 86298 1176294 937010 1603196
internal_value=0 0.000213777 -0.00581947 -0.00143639 -0.00425123 -0.00478262 -0.000830797 -0.00128887 -0.000724771 -0.00134555 -0.00062414 -0.00549704 -0.00480237 -0.00401438 0.000339083 -0.0082263 -0.00676344 0.000349876 6.37105e-05 -0.000782629 -0.000943418 -0.00423824 -0.00467217 0.000511981 -0.00421888 0.0022475 -0.00305682 -0.00512108 0.00103587 -0.0042532
internal_weight=0 4.279e+08 1.57189e+07 3.01996e+07 9.5175e+06 8.86853e+06 2.48017e+07 2.15891e+07 1.81375e+07 1.46182e+07 1.16914e+07 7.89868e+06 6.97614e+06 5.91933e+06 3.97701e+08 6.20138e+06 3.67193e+06 3.96846e+08 1.43509e+08 2.97146e+07 2.85903e+07 2.71028e+06 854692 2.53338e+08 5.3979e+06 3.21264e+06 2.294e+06 4.5444e+06 969844 3.45153e+06
internal_count=443619331 427900459 15718872 30199621 9517495 8868529 24801718 21589073 18137545 14618245 11691424 7898685 6976142 5919328 397700838 6201377 3671933 396846146 143508503 29714593 28590298 2710277 854692 253337643 5397903 3212645 2294005 4544398 969844 3451528
is_linear=0
shrinkage=0.1


Tree=23
num_leaves=31
num_cat=0
split_feature=0 0 0 8 1 7 4 3 2 9 3 0 1 0 4 4 7 4 2 8 6 0 8 3 3 0 7 8 1 7
split_gain=45069.8 5971.17 5815.72 4382.14 3862.1 2761.77 2514.99 2212.3 2459.49 1995.83 2188.71 1926.31 2386.67 2106.41 1637.46 1606.66 2098.39 1602.4 1573.03 1532.09 1527.65 2274.9 1954.37 1581.08 1465.16 1437.13 1475.75 1407.94 1393.56 1328.02
threshold=20.500000000000004 9.5000000000000018 74.500000000000014 0.34462350000000003 539.50000000000011 0.00041150000000000003 0.071131000000000014 0.44491750000000002 67.500000000000014 0.58495500000000011 0.76453500000000008 11.500000000000002 886.50000000000011 14.500000000000002 0.27777450000000009 0.40492500000000003 0.00010250000000000001 0.57123550000000012 69.500000000000014 0.41503400000000007 0.31314400000000003 365.50000000000006 0.6193645000000001 1.0369850000000003 0.79738200000000015 1.0000000180025095e-35 0.0010555000000000002 0.22033900000000003 624.50000000000011 0.00032750000000000005
decision_type=2 2 2 2 2 2 2 2 2 2 2 2 2 2 2 2 2 2 2 2 2 2 2 2 2 2 2 2 2 2
left_child=1 6 3 7 19 17 -1 8 -2 10 18 -6 13 28 -10 16 -8 24 -7 -3 -4 22 29 -24 -5 -18 27 -27 -13 -22
right_child=2 4 20 5 11 9 15 -9 14 -11 -12 12 -14 -15 -16 -17 25 -19 -20 -21 21 -23 23 -25 -26 26 -28 -29 -30 -31
leaf_value=0.00091291185416103593 0.00035392410816727118 0.0027791585819041992 0.0005620290657579063 -0.003647187615269928 -0.0085804843079646913 8.8226438464410645e-05 -0.012021410570463921 0.0022260077237394277 -0.0013996709576376792 -0.0045643608270854487 0.0035110948953909317 -0.00051563467711634699 -0.0064075025651971346 -0.00046162289186295617 -0.0060069815968879295 -0.009028024188366365 -0.011173114304050564 -0.011155418520259995 -0.0026943613100788226 -0.0055480789664481295 -0.00057533764944298603 0.0004563756224951363 -0.0036727948423412172 0.0027663753397408944 0.0037954407184926098 -0.0022074824874638885 -0.0017786007735939816 -0.0069752102275435213 -0.0063203051312277561 0.00017459958413907579
leaf_weight=413093 12848805 1327819 162283324 6470430 826282 4602543 544754 3702135 5491596 1442201 1153373 574580 1959460 2756930 897457 2825839 411049 273170 3637002 265047 38044731 119083202 2538470 448730 275778 786192 1090556 2919326 1476108 62249349
leaf_count=413093 12848805 1327819 162283324 6470430 826282 4602543 544754 3702135 5491596 1442201 1153373 574580 1959460 2756930 897457 2825839 411049 273170 3637002 265047 38044731 119083202 2538470 448730 275778 786192 1090556 2919326 1476108 62249349
internal_value=0 -0.00487637 0.000208343 -0.000926961 -0.00308329 -0.00210176 -0.00670842 -1.2596e-05 -0.000443393 -0.00110072 -0.00056891 -0.0040224 -0.00346584 -0.0022669 -0.00204685 -0.00707545 -0.00611618 -0.00364698 -0.00114003 0.00139354 0.00032875 0.000158501 -0.000184949 -0.00270552 -0.00334294 -0.00549839 -0.00501203 -0.00596365 -0.0046939 -0.000109875
internal_weight=0 1.8177e+07 4.25442e+08 4.07945e+07 9.18623e+06 1.78545e+07 8.99081e+06 2.294e+07 1.92379e+07 1.08351e+07 9.39292e+06 7.59336e+06 6.76708e+06 4.80762e+06 6.38905e+06 8.57772e+06 5.75188e+06 7.01938e+06 8.23954e+06 1.59287e+06 3.84648e+08 2.22364e+08 1.03281e+08 2.9872e+06 6.74621e+06 5.20712e+06 4.79607e+06 3.70552e+06 2.05069e+06 1.00294e+08
internal_count=443619331 18177035 425442296 40794490 9186226 17854497 8990809 22939993 19237858 10835119 9392918 7593360 6767078 4807618 6389053 8577716 5751877 7019378 8239545 1592866 384647806 222364482 103281280 2987200 6746208 5207123 4796074 3705518 2050688 100294080
is_linear=0
shrinkage=0.1


Tree=24
num_leaves=31
num_cat=0
split_feature=0 0 1 1 0 2 8 9 0 7 1 0 3 2 7 1 0 0 8 3 3 2 8 8 4 0 3 2 7 1
split_gain=37221.8 8478.23 3926.67 2512.7 4120.19 2499.97 2416.42 2205.06 2918.1 2168.4 1895 2815.52 1472.25 1911.86 1450.66 1433.82 3881.65 1426.97 1263.23 1626.3 1478.01 1201.3 1180.31 1138.47 1137.47 1751.16 2045.31 1897.31 1092.44 1047.1
threshold=32.500000000000007 11.500000000000002 624.50000000000011 1323.5000000000002 23.500000000000004 17.500000000000004 0.32056550000000006 0.52968950000000004 140.50000000000003 0.00035850000000000004 1065.5000000000002 17.500000000000004 0.99963250000000003 76.500000000000014 0.0006575000000000001 1687.5000000000002 44.500000000000007 1.0000000180025095e-35 0.66440450000000006 0.76453500000000008 0.78326450000000014 39.500000000000007 0.50064300000000006 0.19332600000000003 0.21035500000000004 170.50000000000003 0.71818100000000007 73.500000000000014 0.0005545000000000002 886.50000000000011
decision_type=2 2 2 2 2 2 2 2 2 2 2 2 2 2 2 2 2 2 2 2 2 2 2 2 2 2 2 2 2 2
left_child=1 6 22 4 10 -2 9 15 12 -1 11 -4 13 18 -8 -7 -17 -11 19 -9 -20 -16 -3 -19 -18 26 27 28 -26 -13
right_child=5 2 3 -5 -6 7 14 8 -10 17 -12 29 -14 -15 21 16 24 23 20 -21 -22 -23 -24 -25 25 -27 -28 -29 -30 -31
leaf_value=-0.0058076702987755304 -0.051210625892187792 0.0030324734138510931 -0.0044261467358612397 -0.0050618608130978604 0.00079464943661418884 0.0018558280842397132 -0.0089929582629951679 -0.0023609601532095952 -6.9337919619911936e-05 -0.010741553722874143 -0.00647393944663104 0.0018770153896163562 0.002665361291256569 -0.0050717949286284772 -0.0084029825611928212 -0.0025899415410257044 0.00059682095656736619 0.0047857695456846863 -0.023846495452886789 0.0019874862707304659 -0.0045589445150238982 -0.0046504770169786954 -0.0076336746085257038 -0.0017750310825970141 -0.00036655496757076846 0.0003442814497961471 0.0020313204453600324 -0.0013119306641202881 0.00093616433264149613 -0.0018458695451062952
leaf_weight=2622226 9445 1622280 3599800 3416759 3681345 5930276 2332484 2891751 33190739 147509 1478193 1277915 552554 2255204 1251529 4626342 108255904 329478 49620 1224162 199342 2679879 110837 1340894 23891529 203231461 3518763 17241913 8811171 1848027
leaf_count=2622226 9445 1622280 3599800 3416759 3681345 5930276 2332484 2891751 33190739 147509 1478193 1277915 552554 2255204 1251529 4626342 108255904 329478 49620 1224162 199342 2679879 110837 1340894 23891529 203231461 3518763 17241913 8811171 1848027
internal_value=0 -0.00354675 -0.00216094 -0.00267189 -0.00198482 0.000236568 -0.00575225 0.000237736 -0.000464602 -0.00396766 -0.00323205 -0.00251954 -0.00229365 -0.00270756 -0.00701724 0.000313231 0.000288478 -0.00131351 -0.00148603 -0.00106764 -0.0084031 -0.00584505 0.00235035 -0.000480924 0.000324967 0.000210318 -0.000298921 -0.000463094 -1.556e-05 -0.000323919
internal_weight=0 2.77392e+07 1.70352e+07 1.5302e+07 1.18853e+07 4.1588e+08 1.0704e+07 4.15871e+08 4.03634e+07 4.44011e+06 8.20394e+06 6.72574e+06 7.17263e+06 6.62008e+06 6.26389e+06 3.75507e+08 3.69577e+08 1.81788e+06 4.36488e+06 4.11591e+06 248962 3.93141e+06 1.73312e+06 1.67037e+06 3.64951e+08 2.56695e+08 5.34634e+07 4.99446e+07 3.27027e+07 3.12594e+06
internal_count=443619331 27739155 17035156 15302039 11885280 415880176 10703999 415870731 40363372 4440107 8203935 6725742 7172633 6620079 6263892 375507359 369577083 1817881 4364875 4115913 248962 3931408 1733117 1670372 364950741 256694837 53463376 49944613 32702700 3125942
is_linear=0
shrinkage=0.1


Tree=25
num_leaves=31
num_cat=0
split_feature=0 8 0 1 3 2 10 7 2 0 8 9 3 3 8 3 9 0 2 4 3 8 3 0 1 7 3 9 0 1
split_gain=30149.7 6964.01 4653.7 3101.28 2861.01 2492.05 2091.03 1886.38 1878.32 3660.04 1772.58 1606.4 2994.01 2378.96 1994.78 1723.81 2404.93 1601.79 1597.05 1533.07 1534.73 1619.51 1435.91 1329.22 1323.8 1231.66 1139.56 1271.99 1133.94 1339.44
threshold=32.500000000000007 0.483408 11.500000000000002 624.50000000000011 0.61039850000000018 67.500000000000014 0.73000600000000004 0.0011595000000000002 68.500000000000014 110.50000000000001 0.36633900000000003 0.45834900000000006 0.58105150000000017 0.62698850000000006 0.36319900000000005 0.93794600000000006 0.58495500000000011 1.0000000180025095e-35 17.500000000000004 0.65167900000000012 0.71350700000000011 0.57328600000000007 0.99963250000000003 4.5000000000000009 268.50000000000006 6.4500000000000009e-05 0.44491750000000002 0.31563950000000002 14.500000000000002 1153.5000000000002
decision_type=2 2 2 2 2 2 2 2 2 2 2 2 2 2 2 2 2 2 2 2 2 2 2 2 2 2 2 2 2 2
left_child=1 2 7 -4 5 28 8 23 18 11 26 12 14 -13 -10 16 -15 -9 -2 20 -3 -22 -8 -1 -25 -26 27 -7 -5 -30
right_child=6 19 3 4 -6 10 22 17 9 -11 -12 13 -14 15 -16 -17 -18 -19 -20 -21 21 -23 -24 24 25 -27 -28 -29 29 -31
leaf_value=-0.0070978847028712157 -0.045445074019126348 -0.0073944066946487301 0.0027890208114941758 -0.0050615418994199657 0.0024450893129209128 -0.0034999876102564872 -0.007633726527123171 -0.0083624426643284927 -0.00066549896835324833 0.00017173096060342898 -0.008165498699167266 -0.0064016391538390116 0.0018803015034759526 -0.0011281440148564346 -0.0035187903977349842 0.0029730698039222569 -0.0065337172868007321 0.0001491002255617295 0.00044196270008720924 -0.011811297004678218 -0.00050838834378780348 -0.0064480315619291576 0.00048626596925862317 0.0008005537193861358 -0.010666730541116215 -0.0041666263549410406 -0.00033118858392720547 -0.010438026534279519 0.00010891712083695915 -0.0028358595907428457
leaf_weight=2227730 7585 2850554 1600790 731035 1368848 1799750 571657 265484 12230508 184996187 955115 1211966 3857895 4226400 3064046 740532 1022069 1322497 203599528 491192 856107 989787 351803 491285 318697 3417037 939242 309721 4433954 2370330
leaf_count=2227730 7585 2850554 1600790 731035 1368848 1799750 571657 265484 12230508 184996187 955115 1211966 3857895 4226400 3064046 740532 1022069 1322497 203599528 491192 856107 989787 351803 491285 318697 3417037 939242 309721 4433954 2370330
internal_value=0 -0.00319208 -0.00243214 -0.00136259 -0.00187746 -0.00239023 0.000212911 -0.00436155 0.000223489 1.46659e-05 -0.00440629 -0.0010879 -0.000609171 -0.00236118 -0.00123712 -0.00154354 -0.00218081 -0.00127389 0.000440253 -0.00649567 -0.00593972 -0.00369329 -0.00454032 -0.00512117 -0.00407939 -0.00472115 -0.00322859 -0.00451866 -0.00131901 -0.000916921
internal_weight=0 2.77392e+07 2.25515e+07 1.45088e+07 1.2908e+07 1.15391e+07 4.1588e+08 8.04273e+06 4.14957e+08 2.1135e+08 4.00383e+06 2.63534e+07 1.91524e+07 7.20097e+06 1.52946e+07 5.989e+06 5.24847e+06 1.58798e+06 2.03607e+08 5.18764e+06 4.69645e+06 1.84589e+06 923460 6.45475e+06 4.22702e+06 3.73573e+06 3.04871e+06 2.10947e+06 7.53532e+06 6.80428e+06
internal_count=443619331 27739155 22551515 14508785 12907995 11539147 415880176 8042730 414956716 211349603 4003828 26353416 19152449 7200967 15294554 5989001 5248469 1587981 203607113 5187640 4696448 1845894 923460 6454749 4227019 3735734 3048713 2109471 7535319 6804284
is_linear=0
shrinkage=0.1


Tree=26
num_leaves=31
num_cat=0
split_feature=0 8 0 1 3 7 0 0 1 0 1 4 2 8 0 6 2 3 4 2 8 7 7 7 0 2 5 10 3 1
split_gain=24629 4132.78 3264.03 3711.65 2627.07 2454.19 2462.62 2110.67 2750.43 2058.16 2794.65 1914.6 1431.78 1418.19 2123.65 1812.75 1606.19 1646.9 3499.21 1911.07 1385.11 1398.09 1339.79 1187.17 1160.72 1116.97 1107.34 1155.6 1098.83 1042.09
threshold=20.500000000000004 0.24691700000000003 47.500000000000007 1065.5000000000002 0.29592350000000006 0.00016350000000000004 6.5000000000000009 26.500000000000004 1503.5000000000002 35.500000000000007 1950.5000000000002 0.12238300000000001 21.500000000000004 0.34462350000000003 398.50000000000006 0.70911100000000016 62.500000000000007 0.80562800000000012 0.52765300000000015 87.500000000000014 0.64464400000000011 0.0010905000000000001 7.7500000000000014e-05 4.8500000000000007e-05 98.500000000000014 21.500000000000004 0.56897350000000013 0.57458150000000008 1.1143625000000001 1237.5000000000002
decision_type=2 2 2 2 2 2 2 2 2 2 2 2 2 2 2 2 2 2 2 2 2 2 2 2 2 2 2 2 2 2
left_child=1 4 3 25 11 -3 -7 29 -9 -10 -11 22 -4 -14 15 16 -15 18 24 -20 21 -8 -1 -13 -18 -2 -21 -28 -17 -5
right_child=2 5 12 7 -6 6 20 8 9 10 -12 23 13 14 -16 28 17 -19 19 26 -22 -23 -24 -25 -26 -27 27 -29 -30 -31
leaf_value=-0.0026607848290564375 -0.056716802255691146 -0.0088910793411346705 -0.030163338436789568 -0.0024018114154080875 0.0031888345551394446 -0.0058664763865720363 -0.0034539241566771978 0.00087017942298873063 -0.0043327141508272254 0.00079050243076838299 -0.0030509259227231556 -0.011011386017206304 0.00039067816234887321 0.00053735155721962758 0.00037730361839111333 -0.0075074366692405277 -0.001472957621716027 0.00067605580875940163 -0.0032649014463681861 -0.042266055801601123 -0.010079379336289837 -0.00013081176078500408 0.0034732776684346157 -0.0033994509100646526 -0.00031108609432230428 0.0022483197416721663 0.0015350612744236909 -0.016435100583439419 0.0071198565466424604 -0.006234871472308879
leaf_weight=688438 3216 1167673 15512 1614979 1103099 4762324 5511718 4722878 2844153 3695565 3884478 227372 218984727 19747107 86352515 497989 10207223 10795390 2999844 12540 263038 1643560 737544 2072269 54546903 3014864 49203 131224 57263 1264723
leaf_count=688438 3216 1167673 15512 1614979 1103099 4762324 5511718 4722878 2844153 3695565 3884478 227372 218984727 19747107 86352515 497989 10207223 10795390 2999844 12540 263038 1643560 737544 2072269 54546903 3014864 49203 131224 57263 1264723
internal_value=0 -0.00360477 0.000154014 -0.00106018 -0.00109775 -0.00451167 -0.00409185 -0.00160358 -0.00113177 -0.0020388 -0.00117808 -0.00236695 0.000217201 0.000218366 1.48366e-05 -0.000301182 -0.00026906 -0.000471292 -0.000653583 -0.0038854 -0.0029526 -0.00269061 0.000511865 -0.00415206 -0.000494232 0.00218549 -0.0135317 -0.0115346 -0.00599893 -0.00408524
internal_weight=0 1.8177e+07 4.25442e+08 2.10449e+07 4.82872e+06 1.33483e+07 1.21806e+07 1.80268e+07 1.51471e+07 1.04242e+07 7.58004e+06 3.72562e+06 4.04397e+08 4.04382e+08 1.85397e+08 9.90447e+07 9.84894e+07 7.87423e+07 6.79469e+07 3.19281e+06 7.41832e+06 7.15528e+06 1.42598e+06 2.29964e+06 6.47541e+07 3.01808e+06 192967 180427 555252 2.8797e+06
internal_count=443619331 18177035 425442296 21044856 4828722 13348313 12180640 18026776 15147074 10424196 7580043 3725623 404397440 404381928 185397201 99044686 98489434 78742327 67946937 3192811 7418316 7155278 1425982 2299641 64754126 3018080 192967 180427 555252 2879702
is_linear=0
shrinkage=0.1


Tree=27
num_leaves=31
num_cat=0
split_feature=0 0 1 8 3 8 3 2 4 7 8 9 3 0 0 1 1 0 8 3 1 0 7 1 0 2 0 1 1 2
split_gain=20158.5 4143.94 2895.84 2231.7 1903.54 1902.16 2226.62 2135.57 1804.19 1915.24 1475.59 1364 1390.53 1533.75 1346.93 1676.64 1258.52 2994.44 1239.67 1181.22 1175.97 1315.64 1132.68 1087.36 2879.26 1018.59 1003.14 1280.5 988.887 983.845
threshold=14.500000000000002 41.500000000000007 793.50000000000011 0.41503400000000007 0.52834450000000011 0.50571150000000009 0.67414850000000015 70.500000000000014 0.071131000000000014 6.4500000000000009e-05 0.36633900000000003 0.61904550000000003 1.0369850000000003 239.50000000000003 20.500000000000004 1153.5000000000002 2220.5000000000005 59.500000000000007 0.21829850000000003 0.5118720000000001 2764.5000000000005 50.500000000000007 0.00058850000000000016 3113.5000000000005 80.500000000000014 21.500000000000004 29.500000000000004 1687.5000000000002 100.50000000000001 21.500000000000004
decision_type=2 2 2 2 2 2 2 2 2 2 2 2 2 2 2 2 2 2 2 2 2 2 2 2 2 2 2 2 2 2
left_child=3 2 25 4 8 6 7 14 -1 -10 19 16 13 -13 -4 -16 29 20 28 -9 21 -18 -5 -19 -25 -2 -17 -28 -11 -3
right_child=1 11 5 22 -6 -7 -8 10 9 18 -12 12 -14 -15 15 26 17 23 -20 -21 -22 -23 -24 24 -26 -27 27 -29 -30 -31
leaf_value=0.0020168107094847526 -0.055443155151528659 -0.033389936971231327 -0.0033720523642408878 -0.0081331566869620054 0.0021537175823167585 -0.0044085701003443523 0.0028955633079652092 -0.0030494663902864436 -0.009774303518947796 -0.0079524691752930442 -0.0059644049963489716 -0.0033931760593593411 0.0021120367424971426 -0.00051650597819773712 0.0018262844865935685 -0.0030983230514391486 -0.0029909164325113255 0.0012188074809011077 -0.0040714709161092785 0.002022889779100819 -0.0043307783884725037 0.00021860435824019414 -0.0046454276858994732 -0.001869903244569221 0.00023556281692763373 0.0020347198698623566 0.00092615265652029675 -0.0025208023253641735 -1.3299077729809069e-05 0.0013798943822808346
leaf_weight=585696 3087 8145 1755916 1275630 691129 2220573 1179355 2661115 492404 176272 1509403 2725851 1268222 5790944 2552615 1946411 2265964 10739052 5137179 554823 1537021 2926962 3448220 6612594 365494035 2494861 2828113 1741282 1426894 9569563
leaf_count=585696 3087 8145 1755916 1275630 691129 2220573 1179355 2661115 492404 176272 1509403 2725851 1268222 5790944 2552615 1946411 2265964 10739052 5137179 554823 1537021 2926962 3448220 6612594 365494035 2494861 2828113 1741282 1426894 9569563
internal_value=0 0.000118204 -0.00123673 -0.00384429 -0.00287674 -0.00165861 -0.00129359 -0.00161131 -0.00332142 -0.0037537 -0.00338501 0.000189266 -0.00097719 -0.0014372 -0.000837004 -0.000346143 0.000217861 0.000190019 -0.00331387 -0.00217437 -0.00190105 -0.00118189 -0.00558726 0.000226777 0.000198147 0.00196369 -0.00119721 -0.000387396 -0.00088623 0.00135033
internal_weight=0 4.30386e+08 2.14476e+07 1.32334e+07 8.50957e+06 1.89496e+07 1.6729e+07 1.55497e+07 7.81844e+06 7.23275e+06 4.72534e+06 4.08938e+08 9.78502e+06 8.5168e+06 1.08243e+07 9.06842e+06 3.99153e+08 3.89576e+08 6.74034e+06 3.21594e+06 6.72995e+06 5.19293e+06 4.72385e+06 3.82846e+08 3.72107e+08 2.49795e+06 6.51581e+06 4.5694e+06 1.60317e+06 9.57771e+06
internal_count=443619331 430385907 21447554 13233424 8509574 18949606 16729033 15549678 7818445 7232749 4725341 408938353 9785017 8516795 10824337 9068421 399153336 389575628 6740345 3215938 6729947 5192926 4723850 382845681 372106629 2497948 6515806 4569395 1603166 9577708
is_linear=0
shrinkage=0.1


Tree=28
num_leaves=31
num_cat=0
split_feature=0 8 3 8 3 8 7 7 5 3 2 0 7 3 9 3 8 3 9 7 2 2 3 2 9 6 8 3 3 9
split_gain=16498.5 4320.05 3378.3 3061.09 2430.67 1643 1714.97 1704.38 1469.46 1559.18 1395.41 2581.51 1372.75 1363.24 2666.04 1500.41 1800.47 1573.65 1758.31 1302.86 1261.87 1229.05 1200.53 1110.53 1119.85 1073.61 1036.95 1350.64 1028.84 1385.3
threshold=29.500000000000004 0.44827100000000003 0.55403650000000015 0.29918500000000009 0.39174000000000003 0.16010200000000002 9.1500000000000015e-05 9.5500000000000017e-05 0.74603200000000014 0.93794600000000006 73.500000000000014 110.50000000000001 0.00018850000000000003 0.93794600000000006 0.56359500000000018 0.70913100000000007 0.40326200000000006 0.52834450000000011 0.38113700000000006 0.0005415000000000001 10.500000000000002 17.500000000000004 0.7360755000000001 64.500000000000014 0.37636900000000001 0.70911100000000016 0.6315845000000001 0.66683750000000008 0.99963250000000003 0.51828950000000018
decision_type=2 2 2 2 2 2 2 2 2 2 2 2 2 2 2 2 2 2 2 2 2 2 2 2 2 2 2 2 2 2
left_child=1 2 3 4 5 7 -7 20 10 25 21 13 -5 14 15 16 17 18 -12 -3 -1 -2 -16 -4 -25 -10 27 -21 29 -13
right_child=8 19 23 12 -6 6 -8 -9 9 -11 11 28 -14 -15 22 -17 -18 -19 -20 26 -22 -23 -24 24 -26 -27 -28 -29 -30 -31
