tree
version=v4
num_class=1
num_tree_per_iteration=1
label_index=0
max_feature_idx=7
objective=regression
feature_names=step dists inserts avg_dist variance percentile_25 percentile_50 percentile_75
feature_infos=[0:758] [49:37926] [50:466] [0.00089700000000000001:1.279255] [0:0.050271000000000003] [0.000794:1.217713] [0.00090300000000000005:1.289445] [0.0010250000000000001:1.3527229999999999]
tree_sizes=3143 3267 3292 3286 3257 3276 3272 3276 3284 3294 3291 3299 3286 3338 3294 3283 3303 3287 3313 3318 3324 3300 3314 3309 3337 3302 3258 3327 3332 3305 3328 3321 3295 3321 3303 3325 3286 3304 3289 3258 3306 3283 3345 3296 3270 3274 3312 3322 3276 3203 3288 3208 3218 3237 3276 3264 3152 3311 3161 3219 3294 3188 3284 3233 3292 3152 3270 3262 3251 3267 3277 3251 3177 3287 3207 3204 3266 3239 3210 3228 3213 3189 3264 3221 3237 3211 3220 3203 3222 3199 3246 3231 3169 3285 3263 3198 3187 3220 3270 3155

Tree=0
num_leaves=31
num_cat=0
split_feature=0 0 0 5 5 0 0 5 0 0 5 3 0 5 2 4 5 2 2 4 2 5 0 2 5 0 2 5 5 4
split_gain=321386 44801.5 41608.7 13593.5 10221.3 6198.7 5028.29 4671.25 3750.78 2424.59 2361.23 2033.9 1885.35 1825.07 1785.03 1538.57 1356.73 1212.55 1202.01 1192.84 1170.52 1165.5 1115.5 947.978 927.52 891.632 796.265 702.836 633.127 738.405
threshold=36.500000000000007 12.500000000000002 111.50000000000001 0.3899240000000001 0.39283100000000004 6.5000000000000009 216.50000000000003 0.45643550000000005 63.500000000000007 21.500000000000004 0.40549450000000004 0.59111800000000014 60.500000000000007 0.45464200000000005 245.50000000000003 0.0015055000000000001 0.53581300000000009 203.50000000000003 250.50000000000003 0.00085750000000000008 211.50000000000003 0.35762700000000008 21.500000000000004 213.50000000000003 0.60508250000000008 375.50000000000006 176.50000000000003 0.37555300000000008 0.59535550000000004 0.00044950000000000008
decision_type=2 2 2 2 2 2 2 2 2 2 2 2 2 2 2 2 2 2 2 2 2 2 2 2 2 2 2 2 2 2
left_child=1 5 3 12 9 21 7 27 16 26 -7 15 20 -8 -10 22 19 -11 -9 -5 -2 -1 -6 -14 -16 -15 -3 -4 29 -20
right_child=2 4 6 8 11 10 13 18 14 17 -12 -13 23 25 24 -17 -18 -19 28 -21 -22 -23 -24 -25 -26 -27 -28 -29 -30 -31
leaf_value=0.85832770114614532 0.92662610015760916 0.90780022884171374 0.93301992654082677 0.90062023918895173 0.87446555296229234 0.87970963296883375 0.93460509450982343 0.92948035671444151 0.92253370729346906 0.91765423832817428 0.86039340472652459 0.87201701384819741 0.93229316606935886 0.93011239435524207 0.91442258814891264 0.89927838889851808 0.89594091998557268 0.90541230139632123 0.91170412970063774 0.91343791511058314 0.91687093451352353 0.84480486133036337 0.88915555335956975 0.92598318934692836 0.90323816863013273 0.93313295152589826 0.89319415920308476 0.92912634155200413 0.91701526219582041 0.92475759714840899
leaf_weight=99071 211018 49125 1725888 126614 80556 143386 9919809 271940 261291 139257 113281 100630 388589 1425467 376136 91415 137047 193104 47736 170206 294892 178693 144268 614755 92353 3108085 155376 633888 207368 470085
leaf_count=99071 211018 49125 1725888 126614 80556 143386 9919809 271940 261291 139257 113281 100630 388589 1425467 376136 91415 137047 193104 47736 170206 294892 178693 144268 614755 92353 3108085 155376 633888 207368 470085
internal_value=0.92803 0.883159 0.93129 0.919655 0.896148 0.859981 0.933036 0.929549 0.911534 0.90527 0.871184 0.8844 0.925917 0.933845 0.915911 0.88834 0.904171 0.910542 0.923811 0.90797 0.92094 0.849628 0.883892 0.928427 0.912218 0.932183 0.896703 0.931974 0.921684 0.923554
internal_weight=0 1.48816e+06 2.04832e+07 2.6729e+06 953731 534431 1.78103e+07 3.3569e+06 1.16365e+06 536862 256667 416869 1.50925e+06 1.44534e+07 729780 316239 433867 332361 997129 296820 505910 277764 224824 1.00334e+06 468489 4.53355e+06 204501 2.35978e+06 725189 517821
internal_count=21971329 1488162 20483167 2672901 953731 534431 17810266 3356905 1163647 536862 256667 416869 1509254 14453361 729780 316239 433867 332361 997129 296820 505910 277764 224824 1003344 468489 4533552 204501 2359776 725189 517821
is_linear=0
shrinkage=1


Tree=1
num_leaves=31
num_cat=0
split_feature=0 0 0 5 5 0 5 0 0 0 0 5 2 0 5 2 4 2 5 4 2 5 5 5 2 5 5 5 4 2
split_gain=260830 37958.7 32117.3 11319.7 8542.79 5051.38 4199.57 3211.86 2913.14 2708.31 2322.36 1711.67 1691.43 1555.19 1425.8 1328.43 1062.92 1039.26 956.768 1087.02 895.585 847.753 818.976 784.403 766.751 749.608 700.067 688.193 676.848 676.386
threshold=33.500000000000007 102.50000000000001 9.5000000000000018 0.38232400000000005 0.39541150000000008 198.50000000000003 0.45643550000000005 57.500000000000007 18.500000000000004 4.5000000000000009 18.500000000000004 0.55255750000000015 239.50000000000003 54.500000000000007 0.3234065000000001 225.50000000000003 0.0010555000000000002 193.50000000000003 0.53959250000000003 0.00088550000000000011 195.50000000000003 0.60508250000000008 0.60508250000000008 0.53581300000000009 213.50000000000003 0.29650900000000008 0.61409350000000007 0.37555300000000008 0.0015635000000000002 258.50000000000006
decision_type=2 2 2 2 2 2 2 2 2 2 2 2 2 2 2 2 2 2 2 2 2 2 2 2 2 2 2 2 2 2
left_child=2 3 9 13 8 6 29 15 25 -1 23 27 -9 20 -11 -5 21 -10 19 -12 -2 -8 -14 28 -15 -4 -17 -7 -6 -3
right_child=1 5 4 7 10 11 16 12 17 14 18 -13 22 24 -16 26 -18 -19 -20 -21 -22 -23 -24 -25 -26 -27 -28 -29 -30 -31
leaf_value=-0.074510511056972345 9.3286355279647716e-05 0.0041780302762825247 -0.028066252726042407 -0.014450190684260861 -0.052246441085894005 0.0061857042926430801 -0.0062754025122045689 -0.005383662641572474 -0.010277991671813355 -0.047121675575096521 -0.043241342826587002 0.0022319439587018485 -0.013651254125959517 0.0032903094303235892 -0.064073655350144379 -0.024692321131670233 -0.0012245774522005892 -0.022128046283997487 -0.045749179245973159 -0.026659385724545178 -0.010266437348806322 -0.017590311971407774 -0.02434570704205951 -0.060675222605541729 -0.0026124196249318905 -0.040181976915785372 -0.037762615435854463 0.0047324562557199672 -0.03447927522054061 0.00020535873121928198
leaf_weight=189065 113101 1602194 117516 120896 67505 7464917 421612 244544 109560 76167 62229 1759834 393218 364564 142330 237732 418988 228076 83907 108399 318268 78554 87550 66064 555205 90311 49515 5783002 31422 585084
leaf_count=189065 113101 1602194 117516 120896 67505 7464917 421612 244544 109560 76167 62229 1759834 393218 364564 142330 237732 418988 228076 83907 108399 318268 78554 87550 66064 555205 90311 49515 5783002 31422 585084
internal_value=0 0.00281251 -0.0422092 -0.00877838 -0.0322679 0.00440235 0.000731872 -0.0161479 -0.0240164 -0.0657472 -0.0429965 0.00516209 -0.0121547 -0.0025962 -0.0581643 -0.0232442 -0.00494004 -0.0182828 -0.0370063 -0.0327069 -0.00755021 -0.00805248 -0.0155988 -0.0522377 -0.000272786 -0.0333311 -0.0269453 0.00555133 -0.0466031 0.00311536
internal_weight=0 2.05988e+07 1.37255e+06 2.48459e+06 964989 1.81142e+07 3.10643e+06 1.13346e+06 545463 407562 419526 1.50078e+07 725312 1.35114e+06 218497 408143 919154 337636 254535 170628 431369 500166 480768 164991 919769 207827 287247 1.32479e+07 98927 2.18728e+06
internal_count=21971329 20598778 1372551 2484593 964989 18114185 3106432 1133455 545463 407562 419526 15007753 725312 1351138 218497 408143 919154 337636 254535 170628 431369 500166 480768 164991 919769 207827 287247 13247919 98927 2187278
is_linear=0
shrinkage=0.1


Tree=2
num_leaves=31
num_cat=0
split_feature=0 0 0 5 5 0 0 5 0 0 5 0 0 5 2 5 2 5 4 2 5 4 5 4 2 4 2 5 4 5
split_gain=211395 32914.2 24693.2 9196.52 7552.89 4089.93 2736.11 2574.35 3005.01 2476.6 2123.76 1363.33 1326.56 1326.29 1163.5 1162.42 1131.87 1112.65 1109.78 887.091 799.836 737.446 722.886 613.166 559.101 557.497 531.774 525.056 536.527 470.404
threshold=39.500000000000007 12.500000000000002 126.50000000000001 0.3899240000000001 0.45643550000000005 4.5000000000000009 72.500000000000014 0.43369050000000003 264.50000000000006 24.500000000000004 0.49484700000000009 24.500000000000004 69.500000000000014 0.55891750000000007 228.50000000000003 0.27218550000000002 265.50000000000006 0.26793850000000002 0.00071150000000000011 213.50000000000003 0.30701150000000005 0.00087250000000000012 0.61409350000000007 0.00082150000000000007 272.50000000000006 0.00088550000000000011 214.50000000000003 0.66229600000000011 0.0020355000000000004 0.58569800000000016
decision_type=2 2 2 2 2 2 2 2 2 2 2 2 2 2 2 2 2 2 2 2 2 2 2 2 2 2 2 2 2 2
left_child=1 5 3 12 9 -1 14 -4 16 15 20 27 19 18 -5 -3 -9 -11 -8 -2 -7 -17 25 -19 -10 -16 -14 28 -6 -18
right_child=2 4 7 6 11 10 13 8 24 17 -12 -13 26 -15 22 21 29 23 -20 -21 -22 -23 -24 -25 -26 -27 -28 -29 -30 -31
leaf_value=-0.067059459801169979 2.1549034909358027e-05 -0.018317999980631158 0.0051315042467221881 -0.0098855189696342508 -0.045358524956668811 -0.037611737724524696 -0.011659855022734152 0.0020306815139440972 0.0050442798799212769 -0.0073463528879124905 -0.061430492673589722 -0.031454922565500525 0.004159039151185046 -0.015337798999421622 -0.022903780546181342 -0.035405859157289672 -0.0020312062544547791 -0.021818995410466085 -0.0027584131396918557 -0.0076053731733274708 -0.048996032568006026 -0.023099712974832737 -0.029971055000294063 -0.011491233327526209 0.0028575005003698495 -0.014426090258910593 -0.00035675157585778684 -0.058877499085388391 -0.029800491887451232 -0.0069973625754493817
leaf_weight=189065 264084 132021 11062751 148629 102786 111572 214618 611568 2108650 155708 95687 175669 424692 193517 144169 119432 626081 160310 403175 360919 138107 82217 64508 89626 2624219 167913 675616 21460 28260 274300
leaf_count=189065 264084 132021 11062751 148629 102786 111572 214618 611568 2108650 155708 95687 175669 424692 193517 144169 119432 626081 160310 403175 360919 138107 82217 64508 89626 2624219 167913 675616 21460 28260 274300
internal_value=0 -0.0349775 0.00275075 -0.00552727 -0.0248352 -0.055236 -0.0117541 0.00421519 0.00259193 -0.019231 -0.0487634 -0.0374603 -0.000703612 -0.00811362 -0.0173775 -0.0256126 -0.00128918 -0.0139817 -0.00585073 -0.00438275 -0.0439088 -0.0303884 -0.0203344 -0.0181155 0.00383178 -0.0183424 0.00138623 -0.0443779 -0.0420034 -0.00354414
internal_weight=0 1.60192e+06 2.03694e+07 3.06184e+06 1.06749e+06 534431 1.33653e+06 1.73076e+07 6.24482e+06 739314 345366 328175 1.72531e+06 811310 525219 333670 1.51195e+06 405644 617793 625003 249679 201649 376590 249936 4.73287e+06 312082 1.10031e+06 152506 131046 900381
internal_count=21971329 1601920 20369409 3061840 1067489 534431 1336529 17307569 6244818 739314 345366 328175 1725311 811310 525219 333670 1511949 405644 617793 625003 249679 201649 376590 249936 4732869 312082 1100308 152506 131046 900381
is_linear=0
shrinkage=0.1


Tree=3
num_leaves=31
num_cat=0
split_feature=0 0 0 5 5 0 5 0 0 0 5 2 2 5 0 0 4 4 5 2 4 5 5 4 7 4 5 4 0 5
split_gain=171709 28352.1 18537.7 7699.51 5144.51 4622.51 3377.15 1689.32 1585.94 1521.52 1475.92 1426.76 1292.51 1207.36 1120.98 1080.58 1066.46 1019.3 980.154 880.009 757.145 754.117 705.951 715.317 625.586 590.36 574.139 566.132 514.268 455.573
threshold=30.500000000000004 90.500000000000014 9.5000000000000018 0.43369050000000003 0.39541150000000008 177.50000000000003 0.3899240000000001 4.5000000000000009 51.500000000000007 15.500000000000002 0.26793850000000002 272.50000000000006 246.50000000000003 0.53581300000000009 48.500000000000007 336.50000000000006 0.0014305000000000001 0.0015385000000000002 0.50993250000000001 182.50000000000003 0.0015055000000000001 0.58569800000000016 0.58569800000000016 0.00090650000000000008 0.61994950000000004 0.0006885000000000002 0.60508250000000008 0.00051550000000000012 15.500000000000002 0.73812750000000016
decision_type=2 2 2 2 2 2 2 2 2 2 2 2 2 2 2 2 2 2 2 2 2 2 2 2 2 2 2 2 2 2
left_child=2 3 7 10 9 6 -3 -1 20 -4 -2 -7 -8 16 27 21 28 26 -9 -11 -5 -13 23 -14 -22 -16 -10 -12 -6 -15
right_child=1 5 4 8 13 11 12 18 17 19 14 15 22 29 25 -17 -18 -19 -20 -21 24 -23 -24 -25 -26 -27 -28 -29 -30 -31
leaf_value=-0.060353514038716763 -0.00039353310780810516 0.0028096043973120394 -0.029452641180311812 -0.026508059419205254 -0.046571834302300247 0.0047810399569805451 0.00034623219217881521 -0.043444472658815833 -0.014212331929579772 -0.0077651480652568819 -0.01800632970685245 0.0015043282570944955 -0.0072904293493144846 -0.04190856158938748 -0.0068713993476410655 0.003676846890462368 -0.022174632577392838 -0.0054379103586970597 -0.058660871995886169 -0.019826932237418781 -0.0088713568568051081 -0.0044376254140383702 -0.01149118494231189 -0.00028334135832407467 -0.026376350331965004 -0.00032293560787546188 -0.024925143410491638 -0.0085847867007561186 -0.033361812142810747 -0.061348862389930127
leaf_weight=189065 576067 1597463 138917 185546 39183 10621894 430125 161073 291576 78753 105698 1209467 400266 123113 384220 3573535 75276 121831 57424 260792 56014 259399 205452 229061 32124 214542 60389 160814 118887 13363
leaf_count=189065 576067 1597463 138917 185546 39183 10621894 430125 161073 291576 78753 105698 1209467 400266 123113 384220 3573535 75276 121831 57424 260792 56014 259399 205452 229061 32124 214542 60389 160814 118887 13363
internal_value=0 0.00217665 -0.0359044 -0.00858649 -0.0274829 0.00344825 -0.000246907 -0.0534324 -0.0168224 -0.0206363 -0.00431536 0.00412348 -0.00410701 -0.0363408 -0.00692636 0.00273831 -0.0319711 -0.0133215 -0.0474436 -0.0170294 -0.022883 0.00045499 -0.00640158 -0.00474001 -0.0152515 -0.00452502 -0.0160504 -0.0123213 -0.0366364 -0.0438121
internal_weight=0 2.07155e+07 1.25585e+06 2.18882e+06 848284 1.85267e+07 2.86237e+06 407562 747480 478462 1.44134e+06 1.56643e+07 1.2649e+06 369822 865274 5.0424e+06 233346 473796 218497 339545 273684 1.46887e+06 834779 629327 88138 598762 351965 266512 158070 136476
internal_count=21971329 20715483 1255846 2188821 848284 18526662 2862367 407562 747480 478462 1441341 15664295 1264904 369822 865274 5042401 233346 473796 218497 339545 273684 1468866 834779 629327 88138 598762 351965 266512 158070 136476
is_linear=0
shrinkage=0.1


Tree=4
num_leaves=31
num_cat=0
split_feature=0 0 0 5 5 0 5 0 2 0 0 0 5 0 0 2 4 2 4 5 2 5 4 5 2 5 4 2 3 5
split_gain=139270 21672.8 16388.8 6528.76 5101.81 2850.9 1763.37 1581.09 1491.65 1414.74 1403.29 1253.86 1220.78 1103.61 935.447 911.233 872.331 851.784 781.793 718.879 662.717 640.182 851.976 531.926 517.022 494.552 475.485 462.877 665.746 444.072
threshold=39.500000000000007 12.500000000000002 132.50000000000003 0.45643550000000005 0.39283100000000004 6.5000000000000009 0.55255750000000015 78.500000000000014 207.50000000000003 72.500000000000014 21.500000000000004 21.500000000000004 0.31258050000000009 300.50000000000006 279.50000000000006 265.50000000000006 0.0010815000000000002 210.50000000000003 0.0015385000000000002 0.34006550000000008 95.500000000000014 0.61541600000000007 0.0014305000000000001 0.60508250000000008 172.50000000000003 0.55511900000000014 0.0017945000000000003 359.50000000000006 0.6312080000000001 0.53581300000000009
decision_type=2 2 2 2 2 2 2 2 2 2 2 2 2 2 2 2 2 2 2 2 2 2 2 2 2 2 2 2 2 2
left_child=1 5 3 8 10 19 14 18 20 -10 24 29 -7 27 15 -4 23 -12 -5 -1 -2 22 -13 -9 -3 26 -14 -8 -29 -6
right_child=2 4 6 7 11 12 13 16 9 -11 17 21 25 -15 -16 -17 -18 -19 -20 -21 -22 -23 -24 -25 -26 -27 -28 28 -30 -31
leaf_value=-0.044498158955235768 -0.093069792501853321 -0.010731650042638541 0.0035206654296457123 -0.018625262891831845 -0.03107527827130532 -0.027654408447446373 -0.0020378178281688746 -0.0095307081044068449 -0.0069460906769285725 -0.00082859442260130734 -0.0057837997791263555 -0.025905224039714576 -0.042475017230466899 0.0021917765015105335 0.004314394500950362 0.00024012831385220143 -0.0033060683432217363 -0.015055848575108933 -0.0087845970623958627 -0.055370367016266187 0.0026557686678895039 -0.034683240720672727 -0.013160746422929252 -0.021168147392536488 -0.023314601144925642 -0.051344440686635018 -0.02807586824986252 -0.036842238546506458 -0.0069340458233526671 -0.041882521289269448
leaf_weight=89937 724 40791 2818262 297618 102250 87651 526993 245126 590991 1049104 190421 180291 94989 1411983 11083111 1210360 245366 206547 110782 187827 673966 48973 73978 46771 163710 43795 30232 8760 49492 60528
leaf_count=89937 724 40791 2818262 297618 102250 87651 526993 245126 590991 1049104 190421 180291 94989 1411983 11083111 1210360 245366 206547 110782 187827 673966 48973 73978 46771 163710 43795 30232 8760 49492 60528
internal_value=0 -0.0283903 0.00223271 -0.00426497 -0.0201602 -0.0448292 0.00347097 -0.011266 -0.00140481 -0.00303297 -0.014075 -0.0280141 -0.0372312 0.000678399 0.00384004 0.00253506 -0.00770103 -0.0106082 -0.0159559 -0.0518501 0.00255305 -0.0242138 -0.0221973 -0.0113954 -0.0208047 -0.0421977 -0.0389986 -0.00297283 -0.0114317 -0.0350939
internal_weight=0 1.60192e+06 2.03694e+07 3.26045e+06 1.06749e+06 534431 1.7109e+07 945663 2.31478e+06 1.6401e+06 601469 466020 256667 1.99723e+06 1.51117e+07 4.02862e+06 537263 396968 408400 277764 674690 303242 254269 291897 204501 169016 125221 585245 58252 162778
internal_count=21971329 1601920 20369409 3260448 1067489 534431 17108961 945663 2314785 1640095 601469 466020 256667 1997228 15111733 4028622 537263 396968 408400 277764 674690 303242 254269 291897 204501 169016 125221 585245 58252 162778
is_linear=0
shrinkage=0.1


Tree=5
num_leaves=31
num_cat=0
split_feature=0 0 0 5 5 0 5 0 5 3 2 4 2 0 2 2 0 1 0 0 0 5 0 1 4 5 4 5 7 2
split_gain=113184 18750.3 12191.7 5632.83 3620.86 2676.23 2553.17 1635.91 1445.34 1247.65 1099.87 992.319 992.31 848.876 765.355 725.445 680.215 640.912 638.547 622.794 571.254 559.057 448.338 446.515 432.285 499.196 426.816 647.801 412.219 396.785
threshold=30.500000000000004 96.500000000000014 9.5000000000000018 0.38232400000000005 0.30206550000000004 231.50000000000003 0.3899240000000001 51.500000000000007 0.49113000000000007 0.45512800000000003 238.50000000000003 0.00082150000000000007 250.50000000000003 51.500000000000007 225.50000000000003 272.50000000000006 2.5000000000000004 1539.5000000000002 150.50000000000003 15.500000000000002 18.500000000000004 0.58569800000000016 18.500000000000004 923.50000000000011 0.0015635000000000002 0.73812750000000016 0.00071150000000000011 0.57145100000000004 0.63541350000000008 214.50000000000003
decision_type=2 2 2 2 2 2 2 2 2 2 2 2 2 2 2 2 2 2 2 2 2 2 2 2 2 2 2 2 2 2
left_child=2 3 9 13 20 6 -3 14 11 16 -9 22 -8 17 -5 -7 -1 -2 -14 -13 -4 -17 -6 -22 -10 -26 -12 -28 -23 -15
right_child=1 5 4 7 8 15 12 10 24 -11 26 19 18 29 -16 21 -18 -19 -20 -21 23 28 -24 -25 25 -27 27 -29 -30 -31
leaf_value=-0.050184687106280414 -0.0004902818512443547 0.0028562241081577272 -0.0183366346812107 -0.010609789616006008 -0.035458607123895432 0.0040258001145300386 0.0010378828604731131 -0.0036755548676938709 -0.038218878789732715 -0.049176387681575291 -0.016216377398752795 -0.026166461160025647 -0.00646388227972583 0.0022734710111113453 -0.020493422882774531 0.0029970222963891222 -0.035464956100006655 -0.0085398464062404877 -0.0018465823267703231 -0.014086846403485148 -0.0021914548007937002 -0.0065812704373441992 -0.024774170888451252 -0.013147449256508268 -0.026525570555070377 -0.04969472330986846 -0.0066097588287401567 -0.015911448233522103 0.00085436229106305355 -0.0020772141233568299
leaf_weight=38231 152157 2399667 124234 114823 62928 9455964 679937 245544 104742 193783 155098 64919 502773 352840 246642 3751027 175548 282667 740863 124601 56933 83360 104481 107321 87723 10402 214610 114988 706076 516447
leaf_count=38231 152157 2399667 124234 114823 62928 9455964 679937 245544 104742 193783 155098 64919 502773 352840 246642 3751027 175548 282667 740863 124601 56933 83360 104481 107321 87723 10402 214610 114988 706076 516447
internal_value=0 0.0017672 -0.0291504 -0.00655213 -0.0223209 0.00285519 0.000680451 -0.0118517 -0.027011 -0.0433651 -0.00912821 -0.0231803 -0.00203384 -0.00211572 -0.0173538 0.00352693 -0.0380973 -0.00572308 -0.00371325 -0.0182246 -0.01322 0.00248797 -0.0287904 -0.00934993 -0.0337509 -0.0289817 -0.0118905 -0.00985487 6.92013e-05 -0.000311289
internal_weight=0 2.07155e+07 1.25585e+06 2.39582e+06 848284 1.83197e+07 4.32324e+06 1.0917e+06 559796 407562 730240 356929 1.92357e+06 1.30411e+06 361465 1.39964e+07 213779 434824 1.24364e+06 189520 288488 4.54046e+06 167409 164254 202867 98125 484696 329598 789436 869287
internal_count=21971329 20715483 1255846 2395816 848284 18319667 4323240 1091705 559796 407562 730240 356929 1923573 1304111 361465 13996427 213779 434824 1243636 189520 288488 4540463 167409 164254 202867 98125 484696 329598 789436 869287
is_linear=0
shrinkage=0.1


Tree=6
num_leaves=31
num_cat=0
split_feature=0 0 0 5 5 0 5 5 5 0 4 5 4 4 6 3 4 7 5 2 0 0 2 0 5 4 5 5 4 4
split_gain=92087.4 15879.8 9673.63 4421.08 3330.25 2910.64 1332.42 1249.44 1228.11 1111.41 1021.38 991.421 930.73 855.937 751.141 687.962 678.378 764.951 637.217 635.532 539.776 533.78 495.867 473.872 441.034 449.046 433.695 404.822 397.346 350.966
threshold=42.500000000000007 15.500000000000002 141.50000000000003 0.47940050000000006 0.44313750000000002 6.5000000000000009 0.42002000000000006 0.27382750000000006 0.43369050000000003 354.50000000000006 0.0011855000000000001 0.21504450000000003 0.0007065000000000001 0.0006885000000000002 0.40119400000000005 0.58823700000000012 0.0015055000000000001 0.61994950000000004 0.60508250000000008 265.50000000000006 2.5000000000000004 27.500000000000004 122.50000000000001 81.500000000000014 0.18646950000000004 0.0011205000000000002 0.61927800000000011 0.27635200000000004 0.00042350000000000005 0.0022315000000000004
decision_type=2 2 2 2 2 2 2 2 2 2 2 2 2 2 2 2 2 2 2 2 2 2 2 2 2 2 2 2 2 2
left_child=1 5 3 7 11 20 24 -2 -4 19 18 -3 21 14 22 -12 26 -18 23 -10 -1 -13 -9 -5 -7 -26 -6 -22 -24 -8
right_child=2 4 8 10 16 6 29 13 9 -11 15 12 -14 -15 -16 -17 17 -19 -20 -21 27 -23 28 -25 25 -27 -28 -29 -30 -31
leaf_value=-0.048222522918433819 0.0020415586815455368 -0.0040278381319124963 0.0035154795335493334 -0.01532343121415719 -0.024519197589914426 -0.014667832441439039 -0.038788772067446776 -0.084393139213685575 0.0020550115660577478 0.0027818292824150401 -0.0018627129003919757 -0.020832523852229726 -0.0076106420821580884 0.00011721545932817258 -0.0086695350519182379 -0.010334855474917345 -0.0105249704283074 -0.025616012521324366 -0.020310273674730549 -0.0013661301501742421 -0.030476707941399762 -0.012648900588033769 -0.0047265250171174659 -0.0078445054960173174 -0.028741167658675057 -0.017023328380146353 -0.038772211557329024 -0.04161679474783897 0.00011630021954579281 -0.02840431795599125
leaf_weight=97209 921566 169719 10740015 137361 190319 42917 112266 741 897943 3802561 220281 139179 210209 705954 294912 169674 77080 59530 85678 1373656 42735 186508 376110 221063 137207 42938 24046 137820 308299 45833
leaf_count=97209 921566 169719 10740015 137361 190319 42917 112266 741 897943 3802561 220281 139179 210209 705954 294912 169674 77080 59530 85678 1373656 42735 186508 376110 221063 137207 42938 24046 137820 308299 45833
internal_value=0 -0.0222459 0.00188406 -0.00294625 -0.014648 -0.0344291 -0.0287554 -0.000919221 0.00287276 0.00173633 -0.00928353 -0.0106885 -0.012798 -0.00253756 -0.00444984 -0.00554904 -0.0226084 -0.0171011 -0.0125627 -1.37831e-05 -0.0422147 -0.0161461 -0.00263355 -0.0107107 -0.0237779 -0.0259482 -0.026118 -0.0389801 -0.00254503 -0.0357783
internal_weight=0 1.71552e+06 2.02558e+07 3.44164e+06 1.05659e+06 658925 381161 2.60758e+06 1.68142e+07 6.07416e+06 834057 705615 535896 1.68602e+06 980062 389955 350975 136610 444102 2.2716e+06 277764 325687 685150 358424 223062 180145 214365 180555 684409 158099
internal_count=21971329 1715515 20255814 3441639 1056590 658925 381161 2607582 16814175 6074160 834057 705615 535896 1686016 980062 389955 350975 136610 444102 2271599 277764 325687 685150 358424 223062 180145 214365 180555 684409 158099
is_linear=0
shrinkage=0.1


Tree=7
num_leaves=31
num_cat=0
split_feature=0 0 0 5 0 5 2 5 4 3 5 3 5 4 2 0 0 0 6 4 4 5 4 0 2 2 5 5 5 2
split_gain=75024.1 14292.9 6676.99 3772.91 2291.2 2256.56 1951.07 1086.69 1314.08 949.089 878.948 788.025 723.278 696.045 692.032 617.966 615.276 566.95 532.093 529.14 499.167 566.355 490.532 463.806 437.114 390.369 384.365 370.905 360.227 360.195
threshold=27.500000000000004 84.500000000000014 9.5000000000000018 0.38232400000000005 186.50000000000003 0.30206550000000004 256.50000000000006 0.53581300000000009 0.00079650000000000012 0.59974000000000005 0.49356800000000006 0.46447600000000006 0.37555300000000008 0.0011285000000000004 195.50000000000003 2.5000000000000004 423.50000000000006 48.500000000000007 0.78242750000000016 0.00098550000000000005 0.00040250000000000003 0.1831865 0.00047450000000000004 48.500000000000007 272.50000000000006 208.50000000000003 0.25958050000000005 0.58569800000000016 0.58569800000000016 95.500000000000014
decision_type=2 2 2 2 2 2 2 2 2 2 2 2 2 2 2 2 2 2 2 2 2 2 2 2 2 2 2 2 2 2
left_child=2 3 9 14 6 20 25 8 23 15 13 -8 -6 -7 29 -1 24 -16 19 -9 21 -4 -13 -5 -14 -3 -17 -26 -24 -2
right_child=1 4 5 7 12 10 11 18 -10 -11 -12 22 16 -15 17 26 -18 -19 -20 -21 -22 -23 28 -25 27 -27 -28 -29 -30 -31
leaf_value=-0.041575434132224372 -0.076835924866662478 0.00371594394099875 -0.0082827545646782779 -0.019998484672663294 0.0034479206939556357 -0.023407022409500752 -0.00065560114748962968 -0.022817075247242077 -0.005236918571084475 -0.043963128196615173 -0.028975757528498021 -0.015175220874589885 0.0021866467333678066 -0.013361328785349326 -0.0074040371127781215 -0.02391096777495276 0.0028715518643730818 -0.0020539811688689551 -0.033328443282748386 -0.012607417879799607 -0.0059495485199663797 -0.020655441111837189 -0.0029190869018624489 -0.011259177692312862 0.00072620081159642557 0.00080696426206282627 -0.032748354363905496 -0.002829228353959001 -0.0079173276030246355 0.001777680067667777
leaf_weight=61320 584 712273 66776 93041 7656071 208048 663136 67558 398384 95671 172502 48789 1738085 103179 313551 67280 4306710 537825 17107 204196 97712 82959 391303 174851 1301708 1309285 183291 378795 228330 291009
leaf_count=61320 584 712273 66776 93041 7656071 208048 663136 67558 398384 95671 172502 48789 1738085 103179 313551 67280 4306710 537825 17107 204196 97712 82959 391303 174851 1301708 1309285 183291 378795 228330 291009
internal_value=0 0.00136619 -0.0249938 -0.0064608 0.00224275 -0.0192768 -0.000125804 -0.0110996 -0.0088787 -0.0352501 -0.0232501 -0.00309799 0.00275909 -0.0200766 -0.0025843 -0.0325775 0.00207644 -0.00402434 -0.0162224 -0.0151455 -0.0115095 -0.0151377 -0.00552106 -0.0142944 0.00107477 0.00183191 -0.0303755 -7.52133e-05 -0.0047609 0.00162023
internal_weight=0 2.08326e+07 1.13874e+06 2.09811e+06 1.87345e+07 731176 3.35312e+06 955137 666276 407562 483729 1.33156e+06 1.53814e+07 311227 1.14297e+06 311891 7.7253e+06 851376 288861 271754 247447 149735 668422 267892 3.41859e+06 2.02156e+06 250571 1.6805e+06 619633 291593
internal_count=21971329 20832591 1138738 2098106 18734485 731176 3353116 955137 666276 407562 483729 1331558 15381369 311227 1142969 311891 7725298 851376 288861 271754 247447 149735 668422 267892 3418588 2021558 250571 1680503 619633 291593
is_linear=0
shrinkage=0.1


Tree=8
num_leaves=31
num_cat=0
split_feature=0 0 0 5 5 0 0 5 2 4 5 5 4 0 5 4 0 4 5 5 5 4 5 4 5 3 2 4 5 0
split_gain=60971.7 9082.35 7570.83 3154.6 1991.6 1273.73 1244.28 1337.21 905.783 834.913 821.497 750.965 716.636 715.103 703.791 640.676 570.966 478.623 481.738 464.269 459.98 443.793 404.471 386.506 465.632 378.671 352.398 350.451 472.437 348.305
threshold=33.500000000000007 105.50000000000001 12.500000000000002 0.47137800000000007 0.29650900000000008 4.5000000000000009 252.50000000000003 0.3899240000000001 226.50000000000003 0.00078050000000000005 0.4874825000000001 0.53137350000000005 0.00056450000000000011 63.500000000000007 0.73812750000000016 0.0010105000000000003 57.500000000000007 0.00037750000000000007 0.16684350000000001 0.60508250000000008 0.75508300000000006 0.00044150000000000005 0.55255750000000015 0.0022315000000000004 0.25189450000000008 0.61982250000000005 236.50000000000003 0.0011555000000000001 0.72066700000000006 21.500000000000004
decision_type=2 2 2 2 2 2 2 2 2 2 2 2 2 2 2 2 2 2 2 2 2 2 2 2 2 2 2 2 2 2
left_child=2 3 5 8 17 -1 7 -3 -2 26 12 23 -6 -10 16 19 -11 18 -4 21 -17 -9 -8 24 -7 -21 -5 -12 -29 -14
right_child=1 6 4 9 10 11 22 15 13 14 27 -13 29 -15 -16 20 -18 -19 -20 25 -22 -23 -24 -25 -26 -27 -28 28 -30 -31
leaf_value=-0.036306532673269103 0.0001268446092148472 0.0022684624769538429 -0.0036591869761949287 -0.0051570176229855137 -0.022684548128511617 -0.018305551144140161 0.0028464495921981746 -0.0062401812591700969 -0.007531998613684171 -0.012060248822680763 -0.029510463759377353 -0.034886641897108765 -0.016347034325573811 -0.0020313126190131233 -0.02549946067043754 0.0013091617564792966 -0.0051540377169480827 -0.0021012765764782263 -0.014781917170835854 -0.033960940696169652 -0.012917074775168558 -0.001059241890493859 0.0011395942755519015 -0.013407024073299675 -0.027950149548107425 -0.0074807755424230269 -0.019648203681590318 -0.018354657225148556 -0.037023760138287579 -0.0091703694021129187
leaf_weight=189065 928868 2573674 61187 19897 91280 71835 11792118 202882 393143 186247 58243 75843 124450 592553 22990 845098 335087 103721 107093 5699 23356 893354 1573600 32562 165126 103046 107166 128890 15148 148108
leaf_count=189065 928868 2573674 61187 19897 91280 71835 11792118 202882 393143 186247 58243 75843 124450 592553 22990 845098 335087 103721 107093 5699 23356 893354 1573600 32562 165126 103046 107166 128890 15148 148108
internal_value=0 0.00135981 -0.0204076 -0.00418209 -0.014477 -0.0297083 0.00215542 0.000745895 -0.00211379 -0.0100802 -0.0178559 -0.0260962 -0.0150156 -0.00422525 -0.00837639 -0.00114401 -0.00762129 -0.00744439 -0.0107377 -0.00263631 0.000926565 -0.00201809 0.00264549 -0.0236226 -0.0250264 -0.00886852 -0.017379 -0.0229648 -0.020318 -0.0124472
internal_weight=0 2.05988e+07 1.37255e+06 2.58595e+06 838120 534431 1.80128e+07 4.64711e+06 1.91456e+06 671387 566119 345366 363838 985696 544324 2.07344e+06 521334 272001 168280 1.20498e+06 868454 1.09624e+06 1.33657e+07 269523 236961 108745 127063 202281 144038 272558
internal_count=21971329 20598778 1372551 2585951 838120 534431 18012827 4647109 1914564 671387 566119 345366 363838 985696 544324 2073435 521334 272001 168280 1204981 868454 1096236 13365718 269523 236961 108745 127063 202281 144038 272558
is_linear=0
shrinkage=0.1


Tree=9
num_leaves=31
num_cat=0
split_feature=0 0 0 5 5 0 2 5 2 0 0 2 5 4 4 0 2 2 5 5 4 3 5 4 5 4 4 5 0 5
split_gain=49751.5 9469.64 4688.67 2485.08 2242.84 1531.6 1009.53 790.477 739.559 695.14 644.065 603.986 568.936 804.349 441.748 407.584 389.076 372.264 364.234 359.368 386.788 355.441 339.766 434.139 311.054 306.255 303.643 334.227 258.179 249.537
threshold=45.500000000000007 15.500000000000002 147.50000000000003 0.37974350000000007 0.38645400000000002 6.5000000000000009 229.50000000000003 0.35400300000000007 266.50000000000006 75.500000000000014 390.50000000000006 182.50000000000003 0.64350200000000013 0.0010375000000000002 0.0010375000000000002 24.500000000000004 95.500000000000014 213.50000000000003 0.58569800000000016 0.55891750000000007 0.00051550000000000012 0.56561950000000005 0.65383000000000002 0.0020755000000000005 0.5275470000000001 0.0010375000000000002 0.00078050000000000005 0.24388000000000001 75.500000000000014 0.61409350000000007
decision_type=2 2 2 2 2 2 2 2 2 2 2 2 2 2 2 2 2 2 2 2 2 2 2 2 2 2 2 2 2 2
left_child=1 5 3 16 11 21 -5 26 -4 29 18 -3 13 -6 15 -13 -2 -18 -10 20 -11 -1 23 -9 -15 -21 27 -7 -19 -8
right_child=2 4 8 6 12 7 9 22 10 19 -12 14 -14 24 -16 -17 17 28 -20 25 -22 -23 -24 -25 -26 -27 -28 -29 -30 -31
leaf_value=-0.028565252710426533 -0.071714083553951077 -0.00044393275496583 0.0026366391467153587 -0.00044997245938406376 -0.018816927858978441 -0.014284256811958546 -0.0087304380708846125 -0.026609367710144289 0.00060682442239490329 -0.0078921875327677728 0.0021378896191540484 -0.013839298373713114 -0.024987179598380871 -0.0076858611739108245 1.8872579276832108e-05 -0.0072015525280383595 0.0023726944806889885 -0.0027933319433586217 -0.0024866841384234674 -0.01237963406816975 -0.0020626498641485463 -0.036222571693981291 -0.036655346028461003 -0.01521198666607345 -0.014771744127395412 -0.0049582614716445778 -0.0092377957653318517 -0.024714892446824063 0.00047259754914806909 -0.015897276264656156
leaf_weight=188382 744 132404 10632429 410527 206391 71566 298753 142776 2076019 148542 3446267 128992 54114 158417 60443 327060 736051 345538 466051 95247 486861 89382 23691 43635 101736 133602 45669 53824 808199 58017
leaf_count=188382 744 132404 10632429 410527 206391 71566 298753 142776 2076019 148542 3446267 128992 54114 158417 60443 327060 736051 345538 466051 95247 486861 89382 23691 43635 101736 133602 45669 53824 808199 58017
internal_value=0 -0.0157939 0.00143371 -0.00188058 -0.0103922 -0.0253816 -0.0047399 -0.021266 0.00213603 -0.00618225 0.00124719 -0.00646963 -0.015281 -0.0141552 -0.00801432 -0.00907901 0.000587041 0.000615505 3.96753e-05 -0.00464922 -0.00342546 -0.0310293 -0.0253751 -0.0239415 -0.0104569 -0.00804704 -0.016219 -0.0187616 -0.000505531 -0.00989589
internal_weight=0 1.82848e+06 2.01428e+07 3.52208e+06 1.16956e+06 658925 1.63155e+06 381161 1.66208e+07 1.22102e+06 5.98834e+06 648899 520658 466544 516495 456052 1.89053e+06 1.88979e+06 2.54207e+06 864252 635403 277764 210102 186411 260153 228849 171059 125390 1.15374e+06 356770
internal_count=21971329 1828482 20142847 3522081 1169557 658925 1631549 381161 16620766 1221022 5988337 648899 520658 466544 516495 456052 1890532 1889788 2542070 864252 635403 277764 210102 186411 260153 228849 171059 125390 1153737 356770
is_linear=0
shrinkage=0.1


Tree=10
num_leaves=31
num_cat=0
split_feature=0 0 0 5 0 5 2 4 5 3 5 3 6 4 0 2 4 2 4 0 4 6 4 0 5 5 4 0 5 5
split_gain=40555.1 7664.46 3551.26 2071.58 1361.37 1351.93 1269.22 737.442 578.106 558.273 532.605 459.468 454.567 459.396 452.032 442.477 437.94 433.567 425.707 380.411 374.685 434.53 363.596 367.155 357.634 294.499 284.559 294.303 284.396 282.125
threshold=27.500000000000004 81.500000000000014 9.5000000000000018 0.38232400000000005 168.50000000000003 0.40248500000000004 256.50000000000006 0.0015825000000000004 0.50718200000000013 0.59974000000000005 0.37555300000000008 0.77516850000000004 0.47534400000000004 0.0010555000000000002 447.50000000000006 172.50000000000003 0.00085750000000000008 195.50000000000003 0.0006885000000000002 2.5000000000000004 0.0017945000000000003 0.6252310000000002 0.0011075000000000002 18.500000000000004 0.75508300000000006 0.66229600000000011 0.00078050000000000005 51.500000000000007 0.76801100000000011 0.16684350000000001
decision_type=2 2 2 2 2 2 2 2 2 2 2 2 2 2 2 2 2 2 2 2 2 2 2 2 2 2 2 2 2 2
left_child=2 3 9 17 6 15 -3 8 18 19 -6 -9 -8 28 16 -4 -12 -2 -5 -1 25 -22 23 -17 -18 -7 27 -19 -14 -21
right_child=1 4 5 7 10 20 12 11 -10 -11 14 -13 13 -15 -16 22 24 26 -20 29 21 -23 -24 -25 -26 -27 -28 -29 -30 -31
leaf_value=-0.030865927056759508 0.001454622022145669 0.00131212979227343 -0.0040373732600430413 -0.011505871972574862 0.0025700262463203062 -0.020504778914583178 -0.00098122964380773382 -0.0021553488189287018 -0.013672382833686644 -0.032538476016874922 -0.00032940619865720237 -0.026449019526355207 -0.0070352268954520228 -0.0015340436157976511 0.0021702907862384243 -0.017256152610872218 0.0019534637717856305 -0.0062851088254263238 -0.0051762594566326396 -0.011968943808895792 -0.0085421893565539204 -0.022647984227967002 -0.003746275417481488 -0.010111970249513245 -0.0078245790380115469 -0.035809334577648969 0.0012202373406598286 -0.0020934066781335271 -0.034714583466677953 -0.023192233718583494
leaf_weight=61320 278581 1759027 84708 178776 7947292 206093 566987 195535 262410 95671 2104306 8108 331989 228772 3977547 134246 1881974 298443 261947 24865 57889 35068 44798 154984 38164 13390 127219 381760 3754 225706
leaf_count=61320 278581 1759027 84708 178776 7947292 206093 566987 195535 262410 95671 2104306 8108 331989 228772 3977547 134246 1881974 298443 261947 24865 57889 35068 44798 154984 38164 13390 127219 381760 3754 225706
internal_value=0 0.00100446 -0.0183761 -0.00489317 0.00162829 -0.0142068 -0.000368498 -0.00842164 -0.00995637 -0.025856 0.00199017 -0.0031226 -0.00298119 -0.00498992 0.00141427 -0.0104925 0.000667068 -0.00194701 -0.00774382 -0.0238062 -0.0191848 -0.0138636 -0.0121295 -0.0134279 0.00175912 -0.0214385 -0.00312066 -0.00393254 -0.00734471 -0.0220785
internal_weight=0 2.08326e+07 1.13874e+06 1.99278e+06 1.88398e+07 731176 2.89053e+06 906776 703133 407562 1.59493e+07 203643 1.1315e+06 564515 8.00199e+06 418736 4.02444e+06 1.086e+06 440723 311891 312440 92957 334028 289230 1.92014e+06 219483 807422 680203 335743 250571
internal_count=21971329 20832591 1138738 1992779 18839812 731176 2890529 906776 703133 407562 15949283 203643 1131502 564515 8001991 418736 4024444 1086003 440723 311891 312440 92957 334028 289230 1920138 219483 807422 680203 335743 250571
is_linear=0
shrinkage=0.1


Tree=11
num_leaves=31
num_cat=0
split_feature=0 0 0 5 5 3 4 5 0 5 4 5 4 0 4 5 5 4 3 0 2 7 2 3 2 4 5 4 4 5
split_gain=33033 5781.15 3454 1661.11 1435.84 1026.65 728.974 679.148 582.782 571.462 691.389 451.811 627.236 435.224 401.76 494.89 349.513 337.449 340.407 326.337 435.896 301.846 284.404 448.587 272.548 259.805 251.302 247.268 246.222 237.191
threshold=42.500000000000007 15.500000000000002 120.50000000000001 0.43369050000000003 0.30117800000000006 0.49023500000000003 0.0015385000000000002 0.55255750000000015 6.5000000000000009 0.4874825000000001 0.0007065000000000001 0.26793850000000002 0.00044650000000000007 276.50000000000006 0.00036850000000000007 0.21504450000000003 0.60508250000000008 0.0014045000000000001 0.77516850000000004 306.50000000000006 229.50000000000003 0.6150135000000001 358.50000000000006 0.6312080000000001 161.50000000000003 0.00064550000000000013 0.65383000000000002 0.00071750000000000015 0.0012795000000000003 0.37555300000000008
decision_type=2 2 2 2 2 2 2 2 2 2 2 2 2 2 2 2 2 2 2 2 2 2 2 2 2 2 2 2 2 2
left_child=1 5 3 11 14 8 16 19 -1 10 -6 -2 -13 22 15 -3 27 -11 -19 20 -4 -8 -9 -24 -10 -18 -7 -5 -26 -22
right_child=2 4 7 6 9 26 21 13 24 17 -12 12 -14 -15 -16 -17 25 18 -20 -21 29 -23 23 -25 28 -27 -28 -29 -30 -31
leaf_value=-0.022583627714405245 0.0015532309164562096 -0.0024673627141687474 0.0023643871419083474 -0.0091498465092596688 -0.01369251866324025 -0.023866911790547223 0.0016260317585105257 -0.0017196243455275863 -0.0088392686443019269 -0.019026102719596826 -0.0057632536128554256 -0.00489571582159367 0.00010912111653812079 0.00081802688486558393 0.00047978272819992993 -0.012147709888482364 -0.031879640721569562 -0.010144021125554445 -0.029699739842716406 0.0021933777577619216 0.0013976528026528332 -0.0059471944161268034 -0.031079466943214142 -0.0055437355015784621 -0.018345498519578642 -0.011045269202335423 -0.031077868608582582 -0.004756451114379983 -0.0098675819903641434 -0.00036083231115345598
leaf_weight=152714 717782 132469 2000615 190786 197121 175396 162501 495521 59090 121353 248711 389395 701572 1492437 143028 87824 6322 116446 9638 10386199 1451476 77838 8080 46298 161537 112385 66711 389925 43477 1626682
leaf_count=152714 717782 132469 2000615 190786 197121 175396 162501 495521 59090 121353 248711 389395 701572 1492437 143028 87824 6322 116446 9638 10386199 1451476 77838 8080 46298 161537 112385 66711 389925 43477 1626682
internal_value=0 -0.0133237 0.00112841 -0.00216729 -0.00873935 -0.0206746 -0.0055779 0.00164581 -0.0176663 -0.011408 -0.00926911 -0.000395262 -0.00167724 -6.80801e-05 -0.00364715 -0.00632662 -0.00721055 -0.0152619 -0.0116389 0.00187215 0.00121524 -0.00082669 -0.00247299 -0.00933808 -0.014823 -0.0121548 -0.0258538 -0.00619985 -0.0165476 0.000468365
internal_weight=0 1.71552e+06 2.02558e+07 2.74851e+06 1.05659e+06 658925 939757 1.75073e+07 416818 693269 445832 1.80875e+06 1.09097e+06 2.04234e+06 363321 220293 699418 247437 126084 1.5465e+07 5.07877e+06 240339 549899 54378 264104 118707 242107 580711 205014 3.07816e+06
internal_count=21971329 1715515 20255814 2748506 1056590 658925 939757 17507308 416818 693269 445832 1808749 1090967 2042336 363321 220293 699418 247437 126084 15464972 5078773 240339 549899 54378 264104 118707 242107 580711 205014 3078158
is_linear=0
shrinkage=0.1


Tree=12
num_leaves=31
num_cat=0
split_feature=0 0 0 2 5 0 2 5 4 5 5 4 2 4 5 7 6 4 4 5 5 2 5 6 2 3 4 5 4 5
split_gain=26964.3 5120.65 2341.66 1446.15 971.815 939.483 960.626 737.764 488.426 437.03 415.604 506.464 406.68 392.506 331.623 458.23 329.579 396.989 326.775 372.818 326.543 314.889 313.172 306.948 302.055 296.268 283.506 258.466 254.224 414.395
threshold=27.500000000000004 78.500000000000014 9.5000000000000018 226.50000000000003 0.27978450000000005 171.50000000000003 256.50000000000006 0.47397150000000005 0.00089550000000000014 0.3234065000000001 0.5820065000000002 0.0017485000000000003 275.50000000000006 0.0013615000000000001 0.58569800000000016 0.63541350000000008 0.47534400000000004 0.00079650000000000012 0.00033050000000000006 0.15297700000000003 0.28175000000000006 284.50000000000006 0.59535550000000004 0.78242750000000016 364.50000000000006 0.67590150000000015 0.00041750000000000007 0.5494150000000001 0.00046850000000000006 0.43790150000000005
decision_type=2 2 2 2 2 2 2 2 2 2 2 2 2 2 2 2 2 2 2 2 2 2 2 2 2 2 2 2 2 2
left_child=2 3 9 20 18 6 27 13 22 -1 11 28 -7 -5 -14 24 -8 -18 19 -4 -2 25 -9 -10 -16 -17 -22 -3 -6 -30
right_child=1 5 4 7 10 12 16 8 23 -11 -12 -13 14 -15 15 21 17 -19 -20 -21 26 -23 -24 -25 -26 -27 -28 -29 29 -31
leaf_value=-0.016196290361036272 0.0011240227604838019 0.0013720083154939368 -0.0022204193947549639 -0.0054333764787473449 -0.02051151185721669 0.0019567102870434471 -0.00083322200297238015 -0.013976794466756424 -0.0071556828631499578 -0.023263487881993311 -0.020718850774335273 -0.0054539041180583243 0.0012451949825386124 0.0026402343225915108 -0.0036825117495491188 0.00065520327877278007 -0.0080791962884829427 -0.0024664488100282714 -0.0012762970703024271 -0.013849029522568638 -0.0094582965252812314 0.00041664646859230814 -0.030942300368142935 -0.022173722642746575 -0.016214832967988004 -0.013852068782830865 -0.0019068166487777639 -0.0045554301326402365 -0.01016496266350516 -0.017553798034445019
leaf_weight=127202 379358 1807386 45290 606200 55572 11091787 605181 91388 260028 280360 76055 78951 3895925 66857 58701 25630 179402 423478 90420 70467 56775 721386 12351 14361 28603 31230 399878 76686 186356 128065
leaf_count=127202 379358 1807386 45290 606200 55572 11091787 605181 91388 260028 280360 76055 78951 3895925 66857 58701 25630 179402 423478 90420 70467 56775 721386 12351 14361 28603 31230 399878 76686 186356 128065
internal_value=0 0.000819042 -0.0149839 -0.00414841 -0.0115983 0.00131386 -0.000280632 -0.00661709 -0.0101516 -0.0210578 -0.013883 -0.0127249 0.00162486 -0.0046314 0.000851833 -0.000918727 -0.0024818 -0.00413666 -0.00578079 -0.00929933 -0.00104434 -0.000148082 -0.0159967 -0.0079417 -0.00778842 -0.00731283 -0.00284568 0.00113075 -0.0142765 -0.0131745
internal_weight=0 2.08326e+07 1.13874e+06 1.8872e+06 731176 1.89454e+07 3.09213e+06 1.05118e+06 378128 407562 524999 448944 1.58533e+07 673057 4.76148e+06 865550 1.20806e+06 602880 206177 115757 836011 778246 103739 274389 87304 56860 456653 1.88407e+06 369993 314421
internal_count=21971329 20832591 1138738 1887196 731176 18945395 3092133 1051185 378128 407562 524999 448944 15853262 673057 4761475 865550 1208061 602880 206177 115757 836011 778246 103739 274389 87304 56860 456653 1884072 369993 314421
is_linear=0
shrinkage=0.1


Tree=13
num_leaves=31
num_cat=0
split_feature=0 0 0 2 5 0 5 5 3 4 5 4 5 4 2 5 4 4 2 5 0 4 4 4 4 4 0 2 5 2
split_gain=22095.9 4160.41 1986.05 1286.04 1133.58 734.023 505.23 500.888 463.599 423.123 498.918 419.629 378.679 491.588 355.904 343.197 339.65 322.306 319.722 318.193 316.819 281.704 261.868 247.397 238.971 223.235 221.286 221.229 219.671 216.893
threshold=45.500000000000007 15.500000000000002 153.50000000000003 246.50000000000003 0.38645400000000002 4.5000000000000009 0.30701150000000005 0.37681200000000004 0.56561950000000005 0.00082150000000000007 0.53581300000000009 0.00052750000000000008 0.45464200000000005 0.00085750000000000008 190.50000000000003 0.57145100000000004 0.00076950000000000011 0.0015055000000000001 95.500000000000014 0.73812750000000016 462.50000000000006 0.00071150000000000011 0.0045125000000000009 0.00078050000000000005 0.0010265000000000003 0.00039850000000000004 66.500000000000014 199.50000000000003 0.10408100000000002 95.500000000000014
decision_type=2 2 2 2 2 2 2 2 2 2 2 2 2 2 2 2 2 2 2 2 2 2 2 2 2 2 2 2 2 2
left_child=1 5 3 8 14 -1 21 23 18 -6 -11 -9 -4 20 29 26 -17 -10 -2 -15 25 28 -8 -5 -16 -14 -13 -20 -7 -3
right_child=2 4 12 7 9 6 22 11 17 10 -12 15 13 19 24 16 -18 -19 27 -21 -22 -23 -24 -25 -26 -27 -28 -29 -30 -31
leaf_value=-0.022142073197126629 -0.064296233923153409 -0.071970504635320787 0.0017510536128731409 -0.0015217270107447003 -0.015272395196512606 -0.00028321358027617974 -0.017825445953406426 -0.0085369552550547175 -0.011844644752798459 -0.0057817484506404119 -0.013094888556661063 -0.0060904900130805415 -0.0056499264772697008 0.0018267127003687754 -0.0064365525841943334 -0.019387833497441796 -0.0055077816578586181 0.0015483077757761422 0.0024651578384106039 -0.0034788522938176353 0.00088787181532878727 -0.0022760329788417155 -0.0062601642377735807 0.0052535511720082223 0.0004965343917567132 -0.0010256593537360497 -0.0012792087489626632 0.00016733723966729427 -0.013940471495226196 -0.0001945360615418794
leaf_weight=189065 753 422 11300040 524034 133622 13258 294550 204506 49806 230175 156861 118392 115103 2692719 413267 18961 251127 28110 606367 117992 1080415 35626 20972 60072 56514 1122062 496443 1355945 105454 178696
leaf_count=189065 753 422 11300040 524034 133622 13258 294550 204506 49806 230175 156861 118392 115103 2692719 413267 18961 251127 28110 606367 117992 1080415 35626 20972 60072 56514 1122062 496443 1355945 105454 178696
internal_value=0 -0.0105255 0.00095546 -0.00113278 -0.00694511 -0.0168805 -0.0147633 -0.00318762 0.000552119 -0.0104207 -0.00874568 -0.00445439 0.00142762 0.000714944 -0.00415641 -0.00351091 -0.0064822 -0.00701283 0.000852379 0.00160399 -0.00036327 -0.0100748 -0.0170567 -0.000824928 -0.00560251 -0.00145589 -0.00220566 0.000877379 -0.0124152 -0.000363639
internal_weight=0 1.82848e+06 2.01428e+07 3.71452e+06 1.16956e+06 658925 469860 1.67354e+06 2.04098e+06 520658 387036 1.08943e+06 1.64283e+07 5.12829e+06 648899 884923 270088 77916 1.96306e+06 2.81071e+06 2.31758e+06 154338 315522 584106 469781 1.23716e+06 614835 1.96231e+06 118712 179118
internal_count=21971329 1828482 20142847 3714516 1169557 658925 469860 1673535 2040981 520658 387036 1089429 16428331 5128291 648899 884923 270088 77916 1963065 2810711 2317580 154338 315522 584106 469781 1237165 614835 1962312 118712 179118
is_linear=0
shrinkage=0.1


Tree=14
num_leaves=31
num_cat=0
split_feature=0 0 0 2 0 2 5 5 5 4 4 5 4 5 4 4 5 2 5 4 5 2 7 2 4 5 4 5 5 2
split_gain=18073.5 3888.17 1252.03 1090.52 767.679 871.567 698.964 584.334 474.207 403.402 347.225 312.234 482.817 306.514 288.769 287.619 284.298 267.747 265.469 261.214 332.076 256.073 250.314 235.992 230.898 223.745 213.369 317.39 210.434 205.796
threshold=24.500000000000004 69.500000000000014 6.5000000000000009 226.50000000000003 240.50000000000003 229.50000000000003 0.29650900000000008 0.43109100000000006 0.43183650000000007 0.00044950000000000008 0.0010755000000000003 0.58569800000000016 0.0016435000000000002 0.76801100000000011 0.00043550000000000007 0.0013195000000000001 0.16684350000000001 95.500000000000014 0.61927800000000011 0.00098550000000000005 0.60508250000000008 192.50000000000003 0.64555350000000011 244.50000000000003 0.0007375000000000002 0.72066700000000006 0.0005995000000000001 0.43109100000000006 0.53227500000000016 352.50000000000006
decision_type=2 2 2 2 2 2 2 2 2 2 2 2 2 2 2 2 2 2 2 2 2 2 2 2 2 2 2 2 2 2
left_child=2 3 -1 21 5 17 14 24 10 23 -5 12 26 19 16 18 -4 -3 -10 20 -11 -2 29 -9 -7 -17 -8 -28 -23 -22
right_child=1 4 6 8 -6 7 11 9 15 13 -12 -13 -14 -15 -16 25 -18 -19 -20 -21 22 28 -24 -25 -26 -27 27 -29 -30 -31
leaf_value=-0.018722424066539668 0.0012599376221930976 -0.069804328099905805 -0.0032514570652639307 -0.0051998213307376945 0.001436958364254189 -0.00021908804694162061 -0.018435693724404813 0.0039035545373951944 -0.0096648560476403321 -0.0020757249663149475 0.0029816167376381002 -0.018615583524070219 -0.0057259508536724769 -0.013181096748632812 -0.0016900526941167561 -0.0041171092041802177 -0.012317225355997824 0.0016867374155172074 -0.019761876988861941 -0.00020761684345852179 -0.0062833498063568699 -0.0019697411201642693 -0.0061751093941321772 -0.0093120368205830157 0.0027739850714476482 -0.017365850056030269 -0.0089754306189707683 -0.016042208162135054 -0.0096558225154511294 -0.030860585581919855
leaf_weight=277764 269609 524 54659 425053 13724461 1566022 73704 15361 238601 679161 59085 81268 98851 23536 85247 138988 94216 2066237 29229 659456 5892 471342 96738 112263 308519 14034 134019 120879 38533 8078
leaf_count=277764 269609 524 54659 425053 13724461 1566022 73704 15361 238601 679161 59085 81268 98851 23536 85247 138988 94216 2066237 29229 659456 5892 471342 96738 112263 308519 14034 134019 120879 38533 8078
internal_value=0 0.000633028 -0.0129946 -0.0039742 0.00103584 4.24665e-05 -0.0108529 -0.000924678 -0.00633558 -0.00232805 -0.00420135 -0.0129338 -0.0118536 -0.00186072 -0.0063312 -0.00879075 -0.00898876 0.00166861 -0.0107668 -0.00167688 -0.00290356 -0.00123261 -0.00798209 -0.00772139 0.000273523 -0.00533218 -0.0136969 -0.0123267 -0.0025506 -0.0204949
internal_weight=0 2.09507e+07 1.02061e+06 1.68447e+06 1.92662e+07 5.54179e+06 742843 3.47503e+06 904990 1.60048e+06 484138 508721 427453 1.47286e+06 234122 420852 148875 2.06676e+06 267830 1.44932e+06 789869 779484 110708 127624 1.87454e+06 153022 328602 254898 509875 13970
internal_count=21971329 20950722 1020607 1684474 19266248 5541787 742843 3475026 904990 1600485 484138 508721 427453 1472861 234122 420852 148875 2066761 267830 1449325 789869 779484 110708 127624 1874541 153022 328602 254898 509875 13970
is_linear=0
shrinkage=0.1


Tree=15
num_leaves=31
num_cat=0
split_feature=0 0 0 5 2 5 4 5 3 5 4 2 4 5 5 7 5 7 4 4 0 2 2 3 4 5 4 2 4 0
split_gain=14723.6 3068.6 1189.63 926.286 898.191 723.964 489.762 383.106 330.377 307.925 438.334 289.563 281.179 265.268 259.087 377.932 254.956 254.149 246.836 240.258 310.08 223.74 221.622 222.383 217.402 204.366 337.721 198.144 182.558 267.709
threshold=48.500000000000007 18.500000000000004 159.50000000000003 0.34701600000000005 218.50000000000003 0.39993200000000007 0.0013045000000000003 0.48114050000000003 0.58823700000000012 0.53959250000000003 0.00048450000000000007 275.50000000000006 0.0010755000000000003 0.15297700000000003 0.58569800000000016 0.63541350000000008 0.65383000000000002 0.4836430000000001 0.0009295000000000001 0.00047450000000000004 4.5000000000000009 364.50000000000006 284.50000000000006 0.67590150000000015 0.00019050000000000005 0.28659700000000005 0.00042850000000000006 237.50000000000003 0.0010265000000000003 4.5000000000000009
decision_type=2 2 2 2 2 2 2 2 2 2 2 2 2 2 2 2 2 2 2 2 2 2 2 2 2 2 2 2 2 2
left_child=1 5 3 -2 25 13 9 12 -8 10 17 -4 -6 -1 -13 21 28 24 -9 -15 -21 -16 23 -17 -5 -3 -27 -19 -7 -30
right_child=2 4 11 6 7 16 8 18 -10 -11 -12 14 -14 19 15 22 -18 27 -20 20 -22 -23 -24 -25 -26 26 -28 -29 29 -31
leaf_value=-0.0035339632509362191 0.0009401795977318823 0.00021508028568770454 0.0014544814868382089 -0.021965094628211761 -0.0069565795756757857 -0.020655407196272454 0.0017775272184607617 -0.017181982667147402 -0.0040273670393051334 -0.0059463554415351257 -0.001302052432407315 0.00087666179759569168 -5.8680988200910967e-05 -0.015218792808090534 -0.0037337003441141655 0.00054502560773666447 -0.021638316799467341 0.0029478935387810129 -0.0091411858779969664 -0.015662034374067994 -0.0074520101179342815 -0.014428039960163862 0.00015139089733850759 -0.011806930866405512 -0.0039288013816837454 -0.013393551802899292 -0.0025289936803760881 -0.014805813641909646 -0.018943978424716231 -0.01187851405916066
leaf_weight=51802 1705510 235865 11370750 6858 352975 48710 410975 49322 128762 306116 923379 3982058 70978 104458 60960 26590 72521 7382 168966 61242 184874 28808 736200 32259 261830 32313 249736 42357 76298 180475
leaf_count=51802 1705510 235865 11370750 6858 352975 48710 410975 49322 128762 306116 923379 3982058 70978 104458 60960 26590 72521 7382 168966 61242 184874 28808 736200 32259 261830 32313 249736 42357 76298 180475
internal_value=0 -0.00831702 0.000805733 -0.000788737 -0.00505562 -0.0131656 -0.00220117 -0.00755427 0.000392686 -0.00310561 -0.00240534 0.00117821 -0.00580174 -0.0102135 0.000532731 -0.00101511 -0.0163081 -0.00560469 -0.010958 -0.0112004 -0.00949494 -0.00716569 -0.000320651 -0.00622589 -0.00438916 -0.00195715 -0.00377369 -0.0121709 -0.0150427 -0.013978
internal_weight=0 1.94054e+06 2.00308e+07 3.79317e+06 1.16016e+06 780380 2.08766e+06 642241 539737 1.54792e+06 1.24181e+06 1.62376e+07 423953 402376 4.86688e+06 884817 378004 318427 218288 350574 246116 89768 795049 58849 268688 517914 282049 49739 305483 256773
internal_count=21971329 1940535 20030794 3793169 1160155 780380 2087659 642241 539737 1547922 1241806 16237625 423953 402376 4866875 884817 378004 318427 218288 350574 246116 89768 795049 58849 268688 517914 282049 49739 305483 256773
is_linear=0
shrinkage=0.1


Tree=16
num_leaves=31
num_cat=0
split_feature=0 0 0 2 5 5 0 4 5 5 5 4 5 4 5 3 4 4 6 4 4 4 6 0 2 3 2 4 5 5
split_gain=12035.9 1740.58 1644.55 757.092 627.874 440.952 487.517 480.375 361.373 341.44 319.098 300.629 379.242 297.398 277.285 257.464 393.722 247.284 233.881 224.773 222.759 222.707 303.469 219.325 206.833 302.914 192.67 189.706 247.998 183.74
threshold=36.500000000000007 12.500000000000002 93.500000000000014 239.50000000000003 0.29550950000000004 0.37555300000000008 321.50000000000006 0.00044150000000000005 0.27635200000000004 0.55511900000000014 0.53227500000000016 0.00027550000000000008 0.21504450000000003 0.0017485000000000003 0.64350200000000013 0.47839700000000002 0.0008805000000000001 0.00079650000000000012 0.60665050000000009 0.0015055000000000001 0.00090650000000000008 0.00041750000000000007 0.47220350000000005 2.5000000000000004 358.50000000000006 0.6312080000000001 95.500000000000014 0.00078050000000000005 0.52401750000000014 0.75508300000000006
decision_type=2 2 2 2 2 2 2 2 2 2 2 2 2 2 2 2 2 2 2 2 2 2 2 2 2 2 2 2 2 2
left_child=1 8 3 10 11 26 7 -7 -1 20 -2 12 -3 14 21 17 -17 -5 -15 -12 -9 -6 -23 -10 29 -26 -4 -25 -29 -11
right_child=2 4 5 15 13 6 -8 9 23 24 19 -13 -14 18 -16 16 -18 -19 -20 -21 -22 22 -24 27 25 -27 -28 28 -30 -31
leaf_value=-0.0086281094499053787 0.0001448029061379951 -0.0026135391597696873 -0.069879252662137945 -0.0037373991405359728 -0.014692992366501996 -0.0036255667658605544 0.0010060827835624907 -0.00037098056450697901 -0.01935469176215053 -0.00099133573035016368 -0.012108884109203103 0.00047399017019408558 -0.014248285425041704 -0.00064912276397058723 -0.019927840651985454 -0.010827669227169422 -0.0040011530516082961 0.0016249240639216679 -0.0096872992241979552 0.0004518436172780613 0.0016183363993363164 -0.0054726545039326651 -0.01075816215390229 -0.019251113599367792 -0.022788270174590893 -0.004327982752077234 0.0014219533216314707 -0.010142486378305294 -0.016308492594806368 -0.0092748187842235513
leaf_weight=128412 1043920 102179 379 444186 51636 429785 5735673 1193418 81428 666979 37437 166523 38599 87261 22096 119931 285880 106646 42612 22999 1065417 251751 191074 49474 10254 66763 9225602 168811 106306 27898
leaf_count=128412 1043920 102179 379 444186 51636 429785 5735673 1193418 81428 666979 37437 166523 38599 87261 22096 119931 285880 106646 42612 22999 1065417 251751 191074 49474 10254 66763 9225602 168811 106306 27898
internal_value=0 -0.00868329 0.000630866 -0.00204803 -0.00612321 0.000930571 0.000440535 -0.000496838 -0.0132519 -5.31558e-05 -0.000264195 -0.00240184 -0.00580359 -0.00789227 -0.00896777 -0.00410731 -0.00601862 -0.00269921 -0.00361459 -0.00732888 0.000567314 -0.008478 -0.00775329 -0.0147143 -0.00186887 -0.00678578 0.00141902 -0.0135502 -0.012525 -0.0013239
internal_weight=0 1.48816e+06 2.04832e+07 2.061e+06 953731 1.84222e+07 9.19619e+06 3.46051e+06 534431 3.03073e+06 1.10436e+06 307301 140778 646430 516557 956643 405811 550832 129873 60436 2.25884e+06 494461 442825 406019 771894 77017 9.22598e+06 324591 275117 694877
internal_count=21971329 1488162 20483167 2060999 953731 18422168 9196187 3460514 534431 3030729 1104356 307301 140778 646430 516557 956643 405811 550832 129873 60436 2258835 494461 442825 406019 771894 77017 9225981 324591 275117 694877
is_linear=0
shrinkage=0.1


Tree=17
num_leaves=31
num_cat=0
split_feature=0 0 0 2 0 2 5 5 4 5 4 5 4 5 4 3 5 5 4 3 4 0 2 1 2 2 5 2 4 2
split_gain=9887 2155.04 698.016 674.525 462.951 588.089 437.517 385.927 346.062 249.257 244.898 239.342 236.61 273.029 243.262 222.904 217.226 215.493 267.108 209.235 199.08 198.399 196.299 183.501 183.466 179.497 178.722 177.937 171.42 158.805
threshold=24.500000000000004 66.500000000000014 6.5000000000000009 233.50000000000003 294.50000000000006 229.50000000000003 0.26314050000000005 0.43109100000000006 0.00050250000000000002 0.76801100000000011 0.00033050000000000006 0.53227500000000016 0.0017945000000000003 0.49484700000000009 0.00063150000000000012 0.79509900000000011 0.15297700000000003 0.38232400000000005 0.0009295000000000001 0.61982250000000005 0.0010875000000000001 123.50000000000001 319.50000000000006 1187.5000000000002 95.500000000000014 95.500000000000014 0.73812750000000016 247.50000000000003 0.0007375000000000002 216.50000000000003
decision_type=2 2 2 2 2 2 2 2 2 2 2 2 2 2 2 2 2 2 2 2 2 2 2 2 2 2 2 2 2 2
left_child=2 3 -1 11 5 24 10 28 27 21 16 23 13 14 -8 -14 -4 20 19 -19 -5 -10 -11 25 -3 -2 -20 -9 -7 -13
right_child=1 4 6 17 -6 7 12 8 9 22 -12 29 15 -15 -16 -17 -18 18 26 -21 -22 -23 -24 -25 -26 -27 -28 -29 -30 -31
leaf_value=-0.013887876711618048 -0.056486775844645176 -0.056764355833258701 -0.0018595127392149443 -0.0040222556393348851 0.0011354595421190189 -8.2234198504006783e-05 -0.01294143918092183 0.0023566154175468294 -0.0026594848661244102 -0.019163243287147396 0.00016247051094165995 -0.0026799767627572017 -0.0047275786716081993 -0.015073925562250991 -0.007121535330119869 -0.022078559949299293 -0.010972547433064667 -0.0087579780306218033 -0.0039736328204095844 -0.023724110165101678 0.0050256332990777034 -0.00028496447116974733 -0.0025565953134296712 -0.0013864543904636994 0.0013150486308618765 0.00301771571831132 -0.016182450603383098 -0.0057553875281026786 0.0021713009613897848 -0.013491080138233509
leaf_weight=277764 509 544 45850 258554 12127082 2055694 110147 30394 478404 13372 83871 30135 124805 103002 206398 7871 60899 179601 242137 9854 26843 1330435 15219 666928 2673417 125323 12615 245060 403859 24743
leaf_count=277764 509 544 45850 258554 12127082 2055694 110147 30394 478404 13372 83871 30135 124805 103002 206398 7871 60899 179601 242137 9854 26843 1330435 15219 666928 2673417 125323 12615 245060 403859 24743
internal_value=0 0.000468203 -0.00961113 -0.00308633 0.000757586 0.000125202 -0.00801196 -0.000563711 -0.00155493 -0.00105941 -0.00388128 -0.00116771 -0.00943782 -0.0106019 -0.00914667 -0.00575693 -0.00705839 -0.00531534 -0.00669288 -0.0095364 -0.00317126 -0.000912981 -0.0103235 -0.000725601 0.00130323 0.00277702 -0.0045782 -0.0048603 0.000287797 -0.00755441
internal_weight=0 2.09507e+07 1.02061e+06 1.57724e+06 1.93735e+07 7.2464e+06 742843 4.57244e+06 2.11288e+06 1.83743e+06 190620 847638 552223 419547 316545 132676 106749 729604 444207 189455 285397 1.80884e+06 28591 792760 2.67396e+06 125832 254752 275454 2.45955e+06 54878
internal_count=21971329 20950722 1020607 1577242 19373480 7246398 742843 4572437 2112884 1837430 190620 847638 552223 419547 316545 132676 106749 729604 444207 189455 285397 1808839 28591 792760 2673961 125832 254752 275454 2459553 54878
is_linear=0
shrinkage=0.1


Tree=18
num_leaves=31
num_cat=0
split_feature=0 0 2 0 5 5 4 5 5 4 4 3 5 4 0 5 7 4 4 7 5 4 0 5 4 5 4 5 2 2
split_gain=8032.2 1936.46 607.763 519.47 525.041 460.166 339.61 460.032 275.666 229.021 215.479 194.833 193.467 212.789 209.861 191.679 537.995 188.512 166.424 163.305 162.781 205.02 209.459 162.483 149.528 177.411 146.996 142.196 313.851 140.533
threshold=54.500000000000007 18.500000000000004 217.50000000000003 162.50000000000003 0.28659700000000005 0.35400300000000007 0.00044650000000000007 0.53581300000000009 0.48114050000000003 0.0014045000000000001 0.0011855000000000001 0.77516850000000004 0.60508250000000008 0.0011855000000000001 4.5000000000000009 0.52179150000000007 0.55615750000000008 0.0009295000000000001 0.0007375000000000002 0.4836430000000001 0.10408100000000002 0.00060650000000000016 2.5000000000000004 0.73812750000000016 0.0013615000000000001 0.39993200000000007 0.0025235000000000006 0.75508300000000006 337.50000000000006 394.50000000000006
decision_type=2 2 2 2 2 2 2 2 2 2 2 2 2 2 2 2 2 2 2 2 2 2 2 2 2 2 2 2 2 2
left_child=1 5 -3 4 -2 20 19 24 9 -4 11 29 13 -7 -15 -5 -17 -10 -18 -6 -1 -22 -23 -19 25 -8 -16 -20 -29 -9
right_child=3 2 8 15 6 12 7 10 17 -11 -12 -13 -14 14 26 16 18 23 27 -21 21 22 -24 -25 -26 -27 -28 28 -30 -31
leaf_value=0.0010376499100868742 0.0013944669100742027 -0.0010743894782283231 -0.004724214171312544 0.001027588007553567 -0.0029961223856404709 -0.014223864393947237 0.0010878676658936475 -0.0045499969539909242 -0.012765137189199836 0.0020323243979231648 -0.0011908750651073777 -0.021081288051714397 -0.015528922100271444 -0.013289825130787468 -0.0086907768353231794 -0.013416813551036617 -0.0011973561870432965 -0.0057404275932749849 0.00085698264005170841 -0.0095728236188945548 -0.0099600508723742699 -0.013824585946183326 -0.0030801930946579969 -0.017284625382099721 0.0019780553576368709 -0.0013656394039985712 -0.0017532846143008146 -0.011987931466657387 0.0014407481023211786 -0.021920877318712468
leaf_weight=23971 1092286 580550 479879 13518595 473268 113749 504391 236145 62410 56025 239896 7671 107443 75600 117602 29147 611209 190029 1908680 41029 160850 21425 118483 13028 358787 708973 41257 27880 46320 4751
leaf_count=23971 1092286 580550 479879 13518595 473268 113749 504391 236145 62410 56025 239896 7671 107443 75600 117602 29147 611209 190029 1908680 41029 160850 21425 118483 13028 358787 708973 41257 27880 46320 4751
internal_value=0 -0.00578712 -0.00353829 0.000631707 -0.000442674 -0.00976943 -0.00122199 -0.000648251 -0.00532325 -0.00401787 -0.00332882 -0.00539219 -0.0118194 -0.0106748 -0.00895295 0.000875791 9.35192e-05 -0.00795844 0.00024532 -0.00352079 -0.00689296 -0.00752504 -0.00472555 -0.0064811 0.000184594 -0.000345725 -0.00688905 0.000690015 -0.00360496 -0.00489259
internal_weight=0 2.1623e+06 1.38192e+06 1.9809e+07 3.6672e+06 780380 2.57491e+06 2.06061e+06 801371 535904 488463 248567 455651 348208 234459 1.61418e+07 2.62324e+06 265467 2.59409e+06 514297 324729 300758 139908 203057 1.57215e+06 1.21336e+06 158859 1.98288e+06 74200 240896
internal_count=21971329 2162301 1381921 19809028 3667197 780380 2574911 2060614 801371 535904 488463 248567 455651 348208 234459 16141831 2623236 265467 2594089 514297 324729 300758 139908 203057 1572151 1213364 158859 1982880 74200 240896
is_linear=0
shrinkage=0.1


Tree=19
num_leaves=31
num_cat=0
split_feature=0 0 0 5 2 4 5 4 5 0 4 5 5 4 5 2 6 4 7 6 0 4 5 4 2 5 3 5 4 5
split_gain=6585.55 1001.23 867.989 558.849 416.128 312.67 274.437 389.185 243.814 234.841 213.779 262.829 213.255 207.862 205.74 302.231 191.938 179.451 178.141 175.002 167.657 160.349 153.651 150.375 145.822 144.184 142.328 141.452 161.976 136.039
threshold=33.500000000000007 99.500000000000014 12.500000000000002 0.34650600000000004 210.50000000000003 0.0015825000000000004 0.37555300000000008 0.0007375000000000002 0.19203900000000004 282.50000000000006 0.00039250000000000005 0.20771300000000001 0.61409350000000007 0.00064550000000000013 0.75508300000000006 331.50000000000006 0.47097650000000008 0.00013850000000000003 0.64987950000000005 0.68474350000000006 2.5000000000000004 0.0032105000000000002 0.28659700000000005 0.00040850000000000006 216.50000000000003 0.59535550000000004 0.77516850000000004 0.28175000000000006 0.00044150000000000005 0.43183650000000007
decision_type=2 2 2 2 2 2 2 2 2 2 2 2 2 2 2 2 2 2 2 2 2 2 2 2 2 2 2 2 2 2
left_child=2 3 8 10 27 12 -3 9 -1 19 11 -2 13 -5 -9 -16 -15 -13 -14 23 -10 29 -19 24 -8 -23 -7 -4 -29 -22
right_child=1 6 4 5 -6 26 7 14 20 -11 -12 17 18 16 15 -17 -18 22 -20 -21 21 25 -24 -25 -26 -27 -28 28 -30 -31
leaf_value=-0.0036423857887441131 0.0013251531808218574 0.0010866701914157742 -0.00010441330261945028 -0.005094442729638716 -0.0067821998219767567 0.00069464619045224256 -0.022195924377430315 0.00091202977834572464 -0.014473937551131896 1.5651320498338846e-05 0.0019436341307521943 -0.010372879717641328 -0.032859066517685248 9.6920333261542359e-05 -0.011335216921203184 0.00078887369414288645 -0.0035403638789682809 -0.00044664561433993858 -0.007406108300355394 -0.011031157182066119 -0.0087649471674425047 -0.00038747891456906709 -0.0048967794873646074 -0.00092150145626808107 -0.0034665851226142208 -0.011036293521348373 -0.013005925958576473 -0.011500005942371386 -0.0029968495241476821 -0.012844291457639012
leaf_weight=56474 286678 9119482 166258 357529 447189 246675 4233 5446429 90186 2527345 427113 28301 2835 246013 34077 51838 353614 211456 91396 20015 192399 32226 122554 781883 231489 21001 7823 25237 199436 142145
leaf_count=56474 286678 9119482 166258 357529 447189 246675 4233 5446429 90186 2527345 427113 28301 2835 246013 34077 51838 353614 211456 91396 20015 192399 32226 122554 781883 231489 21001 7823 25237 199436 142145
internal_value=0 0.000446901 -0.00670694 -0.00148112 -0.00469884 -0.00287156 0.000699005 0.000310395 -0.00985614 -0.000504401 0.000206221 -0.000937206 -0.00363285 -0.00318599 0.000835438 -0.00401998 -0.00204807 -0.00272729 -0.00817188 -0.0017711 -0.0105903 -0.00968711 -0.00207948 -0.00158896 -0.00380292 -0.00458903 0.000273505 -0.00231566 -0.00395199 -0.0104982
internal_weight=0 2.05988e+07 1.37255e+06 2.38199e+06 838120 1.30588e+06 1.82168e+07 9.09731e+06 534431 3.56496e+06 1.0761e+06 648989 1.05139e+06 957156 5.53234e+06 85915 599627 362311 94231 1.03762e+06 477957 387771 334010 1.0176e+06 235722 53227 254498 390931 224673 334544
internal_count=21971329 20598778 1372551 2381987 838120 1305885 18216791 9097309 534431 3564965 1076102 648989 1051387 957156 5532344 85915 599627 362311 94231 1037620 477957 387771 334010 1017605 235722 53227 254498 390931 224673 334544
is_linear=0
shrinkage=0.1


Tree=20
num_leaves=31
num_cat=0
split_feature=0 0 5 5 5 4 7 5 2 4 5 2 0 0 4 5 5 4 3 7 0 2 2 7 6 2 3 4 5 4
split_gain=5403.37 1340.98 469.594 387.074 307.804 307.129 242.768 235.178 231.191 225.423 303.303 215.209 279.816 178.635 176.26 218.787 171.913 331.364 193.328 171.723 160.496 177.728 159.8 158.719 179.179 157.676 188.418 176.753 151.472 161.454
threshold=21.500000000000004 66.500000000000014 0.30206550000000004 0.39993200000000007 0.58569800000000016 0.0015825000000000004 0.63541350000000008 0.63087000000000015 364.50000000000006 0.00026350000000000006 0.20960500000000001 213.50000000000003 345.50000000000006 183.50000000000003 0.00057950000000000005 0.42614750000000007 0.28659700000000005 0.00043550000000000007 0.4606670000000001 0.61994950000000004 9.5000000000000018 170.50000000000003 95.500000000000014 0.46569350000000004 0.44603300000000007 355.50000000000006 0.63611200000000012 0.00074850000000000014 0.66229600000000011 0.00098550000000000005
decision_type=2 2 2 2 2 2 2 2 2 2 2 2 2 2 2 2 2 2 2 2 2 2 2 2 2 2 2 2 2 2
left_child=3 2 9 20 11 7 8 14 -6 10 -2 22 16 25 -4 23 -13 18 -18 -7 -1 -22 -3 24 -16 27 -27 -8 29 -5
right_child=1 4 5 28 6 19 13 -9 -10 -11 -12 12 -14 -15 15 -17 17 -19 -20 -21 21 -23 -24 -25 -26 26 -28 -29 -30 -31
leaf_value=-0.0078320406304194963 0.00031302276722433315 -0.0520390165074942 -0.0061617507342767198 -0.013676521525557275 -0.0026736761798913885 0.0015345393074380348 -0.010015522518141444 -0.011345614181816219 -0.012507541985730767 0.0017261725035079393 -0.0065960397796211686 0.00099173548562002498 0.00088813188508247542 0.00021665082241328177 -0.00086837702540728656 -0.0046386357696335274 -0.0012855270836258721 0.00019136734755276574 -0.0053059284426298214 -0.0047214946925829508 0.00073866043545666327 -0.0053942780033980888 0.0012880900406296843 0.011041521875445603 -0.022779504159831293 -0.029218929771381089 -0.0061600600219696277 -0.00080817534885046073 -0.013904142320965743 -0.0079555260565614822
leaf_weight=191608 175426 562 265710 59112 140520 156447 22950 46383 28808 315895 99621 1277863 7405589 1147065 215239 345604 1096966 3392207 134244 60978 60190 219822 4460496 11038 3798 3950 34444 227816 72901 298077
leaf_count=191608 175426 562 265710 59112 140520 156447 22950 46383 28808 315895 99621 1277863 7405589 1147065 215239 345604 1096966 3392207 134244 60978 60190 219822 4460496 11038 3798 3950 34444 227816 72901 298077
internal_value=0 0.000324421 -0.0023718 -0.00758052 0.000560474 -0.0035885 -0.000765514 -0.00441348 -0.00434672 -9.62911e-05 -0.00218941 0.000680294 0.000478785 -0.000343296 -0.00403133 -0.00304802 -3.49092e-05 -0.000318663 -0.00172389 -0.000219999 -0.00560197 -0.00407597 0.00128137 -0.000658693 -0.00124831 -0.00256454 -0.00853237 -0.00165083 -0.00975013 -0.00890231
internal_weight=0 2.10696e+07 1.69614e+06 901710 1.93735e+07 1.1052e+06 1.60555e+06 887772 169328 590942 275047 1.77679e+07 1.33069e+07 1.43622e+06 841389 575679 5.90128e+06 4.62342e+06 1.23121e+06 217425 471620 280012 4.46106e+06 230075 219037 289160 38394 250766 430090 357189
internal_count=21971329 21069619 1696139 901710 19373480 1105197 1605553 887772 169328 590942 275047 17767927 13306869 1436225 841389 575679 5901280 4623417 1231210 217425 471620 280012 4461058 230075 219037 289160 38394 250766 430090 357189
is_linear=0
shrinkage=0.1


Tree=21
num_leaves=31
num_cat=0
split_feature=0 0 2 0 2 5 5 5 4 6 7 0 5 2 3 4 6 4 5 4 0 4 5 5 7 2 2 7 4 4
split_gain=4417.23 934.073 397.132 379.589 362.046 236.475 209.327 164.431 163.563 262.78 191.601 162.781 253.551 172.753 331.935 159.22 158.082 157.151 145.928 185.091 153.069 153.522 156.188 145.052 134.701 131.61 138.749 128.929 128.776 118.034
threshold=48.500000000000007 15.500000000000002 217.50000000000003 123.50000000000001 249.50000000000003 0.52864400000000011 0.5494150000000001 0.38566350000000005 0.00098550000000000005 0.49091600000000007 0.5116980000000001 490.50000000000006 0.55255750000000015 359.50000000000006 0.6312080000000001 0.0013615000000000001 0.57063600000000014 0.0008355000000000002 0.19203900000000004 0.00051550000000000012 2.5000000000000004 0.0016125000000000002 0.31762850000000004 0.66795050000000011 0.42921950000000003 95.500000000000014 158.50000000000003 0.81044500000000008 0.00032350000000000006 0.00088550000000000011
decision_type=2 2 2 2 2 2 2 2 2 2 2 2 2 2 2 2 2 2 2 2 2 2 2 2 2 2 2 2 2 2
left_child=1 5 25 4 6 18 -2 24 9 -6 -11 12 29 16 -15 -8 -14 -9 28 -20 -21 22 -22 -19 -4 -3 -27 -10 -1 -5
right_child=3 2 7 11 8 -7 15 17 27 10 -12 -13 13 14 -16 -17 -18 23 19 20 21 -23 -24 -25 -26 26 -28 -29 -30 -31
leaf_value=-0.0051982886686187746 0.00056081171901813196 -0.054816878935793546 -0.003214352896830345 0.00033935408027968979 -0.0016554214904899813 -0.010850970206962005 -0.0093589698709188682 -0.009040466972643121 0.00022284965368696248 -0.0151132674296078 -0.0048166008283611547 0.00099804484882372486 -0.0091839832422254391 -0.016781545530692884 -0.0023322777224193771 0.00041504071796464193 -0.00041903856418056196 -0.0037899455252840479 -0.011887652897521795 -0.011434218747610785 -0.0025268969071541125 -0.0020482998648355334 -0.008658947481026245 -0.010781609056331059 0.0095343473638846675 0.0042315968696280291 -0.0014676448639351931 -0.0093384919270853468 0.0039419339541956382 0.0011503096699354664
leaf_weight=49227 1466769 455 299105 7091089 530859 168207 38431 115885 313221 19770 210402 6675790 20972 18747 104642 29430 1092908 241187 70617 49330 57672 92963 148468 33836 8524 46414 536204 14768 22441 2402996
leaf_count=49227 1466769 455 299105 7091089 530859 168207 38431 115885 313221 19770 210402 6675790 20972 18747 104642 29430 1092908 241187 70617 49330 57672 92963 148468 33836 8524 46414 536204 14768 22441 2402996
internal_value=0 -0.00455549 -0.00298234 0.000441325 -0.000679967 -0.00761527 0.0003096 -0.0045906 -0.00207445 -0.002879 -0.00570101 0.000610329 0.000369137 -0.000977342 -0.00452761 -0.00512017 -0.000584064 -0.00595165 -0.00650614 -0.00721929 -0.00627315 -0.00542196 -0.00694338 -0.00465013 -0.0028611 -0.0010556 -0.00101362 -0.000207658 -0.00233626 0.000544611
internal_weight=0 1.94054e+06 1.28161e+06 2.00308e+07 2.62365e+06 658925 1.53463e+06 698537 1.08902e+06 761031 230172 1.74071e+07 1.07314e+07 1.23727e+06 123389 67861 1.11388e+06 390908 490718 419050 348433 299103 206140 275023 307629 583073 582618 327989 71668 9.49408e+06
internal_count=21971329 1940535 1281610 20030794 2623650 658925 1534630 698537 1089020 761031 230172 17407144 10731354 1237269 123389 67861 1113880 390908 490718 419050 348433 299103 206140 275023 307629 583073 582618 327989 71668 9494085
is_linear=0
shrinkage=0.1


Tree=22
num_leaves=31
num_cat=0
split_feature=0 0 5 5 4 5 0 4 5 5 4 4 4 5 0 4 6 5 2 4 6 4 5 5 4 4 5 6 4 7
split_gain=3641.23 776.015 394.957 320.092 253.009 250.473 240.19 211.697 218.868 203.308 321.141 186.302 182.676 224.33 179.882 177.016 178.672 164.736 247.478 158.214 155.002 144.333 140.848 134.716 130.1 122.605 120.298 119.654 115.39 113.845
threshold=24.500000000000004 87.500000000000014 0.28659700000000005 0.22075450000000002 0.00044950000000000008 0.53581300000000009 6.5000000000000009 0.00042850000000000006 0.39541150000000008 0.3899240000000001 0.0007375000000000002 0.0012795000000000003 0.00026350000000000006 0.20960500000000001 207.50000000000003 0.0013795000000000003 0.40260900000000005 0.75508300000000006 330.50000000000006 0.00014250000000000002 0.81170500000000012 0.00072550000000000012 0.75508300000000006 0.59535550000000004 0.00027050000000000007 0.00012050000000000002 0.10408100000000002 0.57063600000000014 0.00098550000000000005 0.69081700000000013
decision_type=2 2 2 2 2 2 2 2 2 2 2 2 2 2 2 2 2 2 2 2 2 2 2 2 2 2 2 2 2 2
left_child=3 2 12 24 -4 15 -5 19 -9 -3 14 -10 13 -2 23 16 -6 -12 -19 -8 28 -18 -13 -11 26 -15 -1 -17 -7 -16
right_child=1 9 4 6 5 20 7 8 11 10 17 22 -14 25 29 27 21 18 -20 -21 -22 -23 -24 -25 -26 -27 -28 -29 -30 -31
leaf_value=0.0015037090337756147 0.00076988201485949899 0.00080217709372098372 -0.0051724161065134222 -0.0092696275524317574 0.0002118708644626761 -0.0072008086727075194 -0.045680623199488374 -0.0023714908811112581 -0.009403069668508901 -0.0019004423536626597 0.00067691430710302002 -0.0038736994146367667 0.0022024114592291482 -0.014542198605445981 -0.00018925346838011108 0.0010522771840445857 -0.0050730601849338884 -0.010036019448901205 0.00069728507213452889 -0.0099178430161401699 -0.015337193741395675 -0.0015569449176498296 -0.015390543584546666 -0.0085472596414523788 0.0014084508380170773 -0.003476740361183932 -0.0066081388840162807 0.016011875997306486 -0.0026763849716615992 -0.0039863257371668083
leaf_weight=25571 240842 10110189 258193 242224 300525 74266 1258 213675 131194 535353 5313704 184910 339758 10972 2468130 231709 186801 36158 52925 74238 12030 311299 11266 32334 72138 114579 64133 5473 233911 81571
leaf_count=25571 240842 10110189 258193 242224 300525 74266 1258 213675 131194 535353 5313704 184910 339758 10972 2468130 231709 186801 36158 52925 74238 12030 311299 11266 32334 72138 114579 64133 5473 233911 81571
internal_value=0 0.000284136 -0.00144039 -0.00583266 -0.0023033 -0.001757 -0.00660146 -0.0055532 -0.00486102 0.00049892 0.00013907 -0.00648594 0.000532164 -0.00101666 -0.000669164 -0.00100135 -0.00171377 0.000605418 -0.00365927 -0.0105138 -0.0042014 -0.00287558 -0.00453509 -0.00227903 -0.00175323 -0.00444376 -0.00429578 0.00139747 -0.0037667 -0.000310731
internal_weight=0 2.09507e+07 2.32036e+06 1.02061e+06 1.61421e+06 1.35601e+06 858765 616541 541045 1.86304e+07 8.52018e+06 327370 706151 366393 3.11739e+06 1.03581e+06 798625 5.40279e+06 89083 75496 320207 498100 196176 567687 161842 125551 89704 237182 308177 2.5497e+06
internal_count=21971329 20950722 2320358 1020607 1614207 1356014 858765 616541 541045 18630364 8520175 327370 706151 366393 3117388 1035807 798625 5402787 89083 75496 320207 498100 196176 567687 161842 125551 89704 237182 308177 2549701
is_linear=0
shrinkage=0.1


Tree=23
num_leaves=31
num_cat=0
split_feature=0 0 2 0 2 5 4 5 5 2 2 0 5 4 4 0 4 5 4 4 5 4 7 1 5 5 4 2 4 2
split_gain=2984.29 712.643 317.054 225.165 318.742 258.507 248.622 212.341 195.291 176.008 166.105 142.138 140.689 137.887 130.565 125.431 197.245 161.986 184.461 144.346 119.671 118.691 118.406 115.61 114.229 113.616 106.29 101.389 101.126 99.8617
threshold=54.500000000000007 18.500000000000004 225.50000000000003 408.50000000000006 229.50000000000003 0.43109100000000006 0.00090650000000000008 0.52864400000000011 0.76801100000000011 316.50000000000006 95.500000000000014 117.50000000000001 0.58569800000000016 0.014352500000000002 0.00040850000000000006 2.5000000000000004 0.0020755000000000005 0.24388000000000001 0.00075450000000000007 0.00034050000000000004 0.38317700000000005 0.0006885000000000002 0.41081950000000006 923.50000000000011 0.15297700000000003 0.34233450000000004 0.014352500000000002 256.50000000000006 0.0007375000000000002 395.50000000000006
decision_type=2 2 2 2 2 2 2 2 2 2 2 2 2 2 2 2 2 2 2 2 2 2 2 2 2 2 2 2 2 2
left_child=1 7 23 4 10 28 11 15 26 -10 -2 12 -7 20 -13 -1 17 19 -19 24 22 -22 -4 -3 -17 -20 29 -14 -6 -8
right_child=3 2 13 -5 5 6 8 -9 9 -11 -12 14 27 -15 -16 16 -18 18 25 -21 21 -23 -24 -25 -26 -27 -28 -29 -30 -31
leaf_value=-0.0094572583947705423 -0.04573793085644396 0.0024784664546485852 -0.002820426103491821 0.0007582545007104194 7.2628385319428801e-06 -0.0032167436133377914 -2.8711388777553652e-06 -0.0088568542242352943 -0.0136835998412218 -0.0004736236528274393 0.0008029917256526458 -0.0039758735481610049 -0.026261090089797719 0.0091811583340204554 -0.001076589959569822 -0.0011876875983602405 0.00023992948681547535 -0.0095392218083805227 -0.00052103394156855366 0.001821064279115143 -0.0082752915374457621 -0.0040627351199576736 0.0055381155606598516 -0.0011908962348717235 -0.0088007112701357099 -0.0059892574671444659 0.004738460219216682 -0.0084336065262730821 0.0014122145618349073 -0.023022440564682958
leaf_weight=57259 767 100271 266213 8901615 3098319 229050 1443733 189427 19722 20644 3976731 177332 3738 8219 1251662 39346 74519 123629 50307 51127 85602 305887 18100 597629 39490 155276 48246 21767 613815 1887
leaf_count=57259 767 100271 266213 8901615 3098319 229050 1443733 189427 19722 20644 3976731 177332 3738 8219 1251662 39346 74519 123629 50307 51127 85602 305887 18100 597629 39490 155276 48246 21767 613815 1887
internal_value=0 -0.00352749 -0.00216326 0.000385052 8.04783e-05 -0.000329065 -0.000985068 -0.00594332 -6.42811e-05 -0.00692775 0.000794017 -0.00182419 -0.00400123 -0.00369324 -0.00143638 -0.00500941 -0.0045322 -0.00530667 -0.00648677 -0.00231732 -0.00384982 -0.00498384 -0.0022883 -0.000663699 -0.00500115 -0.00465116 0.000121178 -0.0110464 0.000239577 -3.29191e-05
internal_weight=0 2.1623e+06 1.38192e+06 1.9809e+07 1.09074e+07 6.92992e+06 3.21778e+06 780380 1.53423e+06 40366 3.9775e+06 1.68355e+06 254555 684021 1.42899e+06 590953 533694 459175 329212 129963 675802 391489 284313 697900 78836 205583 1.49387e+06 25505 3.71213e+06 1.44562e+06
internal_count=21971329 2162301 1381921 19809028 10907413 6929915 3217781 780380 1534232 40366 3977498 1683549 254555 684021 1428994 590953 533694 459175 329212 129963 675802 391489 284313 697900 78836 205583 1493866 25505 3712134 1445620
is_linear=0
shrinkage=0.1


Tree=24
num_leaves=31
num_cat=0
split_feature=0 0 0 5 2 4 5 4 3 4 5 7 3 3 4 4 0 2 4 3 2 5 4 6 5 5 2 2 2 3
split_gain=2455.51 412.48 329.799 325.128 233.475 205.139 212.755 161.786 192.959 151.781 119.077 527.191 125.253 118.182 112.556 112.115 108.115 121.38 155.897 187.305 116.983 230.705 98.6303 305.393 252.324 126.149 97.1639 113.125 96.5996 175.146
threshold=30.500000000000004 117.50000000000001 9.5000000000000018 0.34701600000000005 210.50000000000003 0.00052750000000000008 0.53581300000000009 0.00039250000000000005 0.25399750000000004 0.0001775 0.52179150000000007 0.55615750000000008 0.53206350000000013 0.79509900000000011 0.00098550000000000005 0.0013435000000000003 520.50000000000011 359.50000000000006 0.0009655000000000001 0.66965100000000011 321.50000000000006 0.76801100000000011 0.00047950000000000005 0.47534400000000004 0.46201900000000001 0.28175000000000006 152.50000000000003 76.500000000000014 305.50000000000006 0.64760700000000015
decision_type=2 2 2 2 2 2 2 2 2 2 2 2 2 2 2 2 2 2 2 2 2 2 2 2 2 2 2 2 2 2
left_child=2 3 -1 7 26 -5 15 8 -2 -10 22 12 -12 14 -8 -7 17 20 19 -19 21 28 23 25 -25 -3 27 -4 -13 -30
right_child=1 10 4 5 -6 6 13 -9 9 -11 11 16 -14 -15 -16 -17 -18 18 -20 -21 -22 -23 -24 24 -26 -27 -28 -29 29 -31
leaf_value=-0.006631526310897206 0.00061781084699977695 0.00084437089846483042 -0.045090835293134013 -0.0041341076470621475 -0.004918390087684528 -0.0011010823769528495 -0.0055227355001878191 0.0016477681862593721 -0.0088062917154248573 -0.0017409998200485215 -0.0077811960990134795 -9.2191375847007717e-05 -0.02045304557288875 -0.011753625981508165 -0.0017665172510423087 0.0012596748592967836 0.00086081303207093075 -0.01469214313506932 -0.00010844325231640161 -0.0033649463020157065 0.0021239492392548277 -0.013311903372116796 0.00081505744226675946 -0.0093498095460335801 -0.0015072105075889148 -1.654472857528282e-05 -0.002040958770929243 0.0039231629085776211 -0.00041815795243757136 -0.0073705609914957214
leaf_weight=407562 531123 3699838 477 293927 401987 713254 110086 557206 34083 281821 19797 1327437 12872 15309 289733 280196 965353 20100 81278 53335 192111 13917 7537761 47066 319570 3152026 409068 36752 112929 53355
leaf_count=407562 531123 3699838 477 293927 401987 713254 110086 557206 34083 281821 19797 1327437 12872 15309 289733 280196 965353 20100 81278 53335 192111 13917 7537761 47066 319570 3152026 409068 36752 112929 53355
internal_value=0 0.000260293 -0.0042936 -0.000802053 -0.00317033 -0.00173113 -0.0012297 0.000324365 -0.000546218 -0.00250328 0.000447725 -0.000143737 -0.0127741 -0.00313091 -0.00280075 -0.000435246 2.59183e-06 -0.000444161 -0.00312576 -0.00646533 -0.000200079 -0.000496219 0.000562058 0.000297869 -0.00251398 0.000448329 -0.00159583 0.00329517 -0.000376815 -0.00264895
internal_weight=0 2.07155e+07 1.25585e+06 3.10674e+06 848284 1.7025e+06 1.40858e+06 1.40423e+06 847027 315904 1.76087e+07 2.85248e+06 32669 415128 399819 993450 2.81982e+06 1.85446e+06 154713 73435 1.69975e+06 1.50764e+06 1.47563e+07 7.2185e+06 366636 6.85186e+06 446297 37229 1.49372e+06 166284
internal_count=21971329 20715483 1255846 3106738 848284 1702505 1408578 1404233 847027 315904 17608745 2852484 32669 415128 399819 993450 2819815 1854462 154713 73435 1699749 1507638 14756261 7218500 366636 6851864 446297 37229 1493721 166284
is_linear=0
shrinkage=0.1


Tree=25
num_leaves=31
num_cat=0
split_feature=0 0 1 5 2 0 1 2 0 4 5 0 2 2 1 4 5 4 0 4 0 4 3 0 5 1 5 4 3 0
split_gain=2019.53 508.499 306.389 196.685 162.545 220.358 185.051 139.968 129.688 124.663 180.508 139.978 112.572 107.827 107.581 105.104 117.677 103.477 103.435 100.453 98.9103 96.8439 93.9882 90.7421 87.2013 84.6859 81.8107 98.2356 80.1524 80.0308
threshold=21.500000000000004 63.500000000000007 1187.5000000000002 0.49484700000000009 207.50000000000003 225.50000000000003 3109.5000000000005 233.50000000000003 81.500000000000014 0.0011555000000000001 0.24388000000000001 2.5000000000000004 95.500000000000014 95.500000000000014 3988.5000000000005 0.00030050000000000004 0.15297700000000003 0.0013195000000000001 108.50000000000001 0.00046850000000000006 9.5000000000000018 0.014352500000000002 0.77516850000000004 6.5000000000000009 0.17954950000000003 5314.5000000000009 0.5494150000000001 0.0014795000000000001 0.41444200000000003 135.50000000000003
decision_type=2 2 2 2 2 2 2 2 2 2 2 2 2 2 2 2 2 2 2 2 2 2 2 2 2 2 2 2 2 2
left_child=3 2 12 9 13 6 -6 26 -8 10 15 -11 -2 -3 -10 16 -1 -5 -16 -12 -21 24 -19 -17 -9 -20 -4 -28 -13 -27
right_child=1 4 7 17 5 -7 8 21 14 11 19 28 -14 -15 18 23 -18 22 25 20 -22 -23 -24 -25 -26 29 27 -29 -30 -31
leaf_value=-0.00097668229489605266 -0.042978649685245465 -0.042116339468866559 -0.00079657717190011711 -0.011276889256178807 0.0022453713173678997 0.00042284824292281693 -0.0025222429375989738 0.0034729121584784529 0.0014387185177859923 -0.007224740447945458 -0.00989641518582598 0.0018482033949113832 0.0019923520180667228 0.00092993427730004598 -0.0019726925137280114 -0.0045421051931988452 -0.0082534373593449502 -0.0051004832805341535 0.00090114172629998906 -0.008410619319205245 -0.0037148449023807909 0.0084790438434361789 -0.010722455011274126 0.0032626399932347257 -0.0034344998753724578 -0.0019578122691357863 -0.0098654088066316998 -0.00059248609609352878 -0.0024236727702862896 -0.00034993097921038902
leaf_weight=48599 558 582 643138 45620 244538 11464728 319094 18808 286932 38370 59865 77652 226130 3820426 459358 21493 40949 179259 451271 66417 138182 7128 35651 48539 646694 363981 22587 23117 101114 2070549
leaf_count=48599 558 582 643138 45620 244538 11464728 319094 18808 286932 38370 59865 77652 226130 3820426 459358 21493 40949 179259 451271 66417 138182 7128 35651 48539 646694 363981 22587 23117 101114 2070549
internal_value=0 0.000198336 -0.00152226 -0.00463438 0.000338602 0.000195922 -0.000424148 -0.00208902 -0.000589364 -0.00369294 -0.00469073 -0.00174436 0.00188165 0.000923378 -0.000419553 -0.00203468 -0.00430424 -0.00695131 -0.000578947 -0.00629341 -0.00523919 -0.00311511 -0.0060331 0.000867344 -0.00323929 -0.000357092 -0.00108709 -0.00517518 -0.000568064 -0.000590322
internal_weight=0 2.10696e+07 1.58816e+06 901710 1.94815e+07 1.56605e+07 4.19572e+06 1.36147e+06 3.95118e+06 641180 424044 217136 226688 3.82101e+06 3.63209e+06 159580 89548 260530 3.34516e+06 264464 204599 672630 214910 70032 665502 2.8858e+06 688842 45704 178766 2.43453e+06
internal_count=21971329 21069619 1588160 901710 19481459 15660451 4195723 1361472 3951185 641180 424044 217136 226688 3821008 3632091 159580 89548 260530 3345159 264464 204599 672630 214910 70032 665502 2885801 688842 45704 178766 2434530
is_linear=0
shrinkage=0.1


Tree=26
num_leaves=31
num_cat=0
split_feature=0 0 2 0 5 4 5 4 4 5 2 3 5 2 5 4 2 7 2 5 6 6 5 4 5 4 5 4 6 3
split_gain=1669.87 276.913 206.919 204.471 280.303 260.511 241.085 218.747 127.242 131.14 112.043 147.815 150.42 135.093 98.1706 131.558 97.1557 98.0354 162.869 122.617 108.656 323.717 96.6968 92.7153 90.9925 133.668 143.876 127.838 88.5392 85.4042
threshold=36.500000000000007 9.5000000000000018 188.50000000000003 204.50000000000003 0.28659700000000005 0.00044650000000000007 0.58569800000000016 0.00064550000000000013 0.0013045000000000003 0.40712000000000004 355.50000000000006 0.6312080000000001 0.66795050000000011 376.50000000000006 0.49113000000000007 0.0010875000000000001 122.50000000000001 0.48287200000000002 237.50000000000003 0.50507250000000015 0.42238600000000009 0.41369900000000004 0.77438700000000005 0.0010265000000000003 0.29550950000000004 0.00028250000000000004 0.21504450000000003 0.00011350000000000001 0.65219700000000003 0.61448200000000008
decision_type=2 2 2 2 2 2 2 2 2 2 2 2 2 2 2 2 2 2 2 2 2 2 2 2 2 2 2 2 2 2
left_child=1 -1 -3 4 -2 16 8 28 9 -7 22 -12 13 -13 15 24 -6 20 -19 -20 21 -18 29 -16 25 26 -4 -28 -8 -9
right_child=3 2 14 -5 5 6 7 10 -10 -11 11 12 -14 -15 23 -17 17 18 19 -21 -22 -23 -24 -25 -26 -27 27 -29 -30 -31
leaf_value=-0.0054555184446351632 0.00080657062539853824 -2.3086773067075912e-05 -0.0013551045356037449 0.00043024850317060061 -0.035598119884593611 0.00060392108862667359 -0.022703543514725796 -0.0046536070075290118 0.0012006681791459735 -0.0010334080156983705 -0.021221630380310549 -0.0068327575940854693 -0.0077841683778875452 0.015693849467066628 -0.0088633151613999629 0.00032774499803389927 -0.0019688357638223911 0.0072569899123542505 -0.010584522079534996 -5.7083908867364319e-05 0.0015122747962027199 -0.013762959664549757 -0.010145488498538153 -0.0039159624329020183 -0.0044935098376899726 0.0013138261910218066 -0.039738818719487895 -0.0080598955241730549 -0.0082782006029177603 -0.00048882285984116114
leaf_weight=407562 1680869 274121 67469 14821913 878 822824 6065 58110 692173 1206354 5957 4745 33030 6065 48289 126945 625737 8117 42906 14908 79354 24171 12266 175723 268233 84864 1324 33632 14256 322469
leaf_count=407562 1680869 274121 67469 14821913 878 822824 6065 58110 692173 1206354 5957 4745 33030 6065 48289 126945 625737 8117 42906 14908 79354 24171 12266 175723 268233 84864 1324 33632 14256 322469
internal_value=0 -0.00323435 -0.00239661 0.000234985 -0.000276241 -0.0007335 -0.000329 -0.00243858 2.98877e-05 -0.000369477 -0.00197284 -0.00644148 -0.00443315 0.0058059 -0.00320336 -0.00251914 -0.00235152 -0.00231481 -0.00600758 -0.0078699 -0.00198095 -0.00240748 -0.0014064 -0.00498244 -0.00331251 -0.00162111 -0.00405284 -0.00925977 -0.0125836 -0.00112474
internal_weight=0 1.48816e+06 1.0806e+06 2.04832e+07 5.66125e+06 3.98038e+06 3.18431e+06 462963 2.72135e+06 2.02918e+06 442642 49797 43840 10810 806479 582467 796071 795193 65931 57814 729262 649908 392845 224012 455522 187289 102425 34956 20321 380579
internal_count=21971329 1488162 1080600 20483167 5661254 3980385 3184314 462963 2721351 2029178 442642 49797 43840 10810 806479 582467 796071 795193 65931 57814 729262 649908 392845 224012 455522 187289 102425 34956 20321 380579
is_linear=0
shrinkage=0.1


Tree=27
num_leaves=31
num_cat=0
split_feature=0 0 5 4 5 4 5 4 6 2 5 2 3 5 2 3 4 5 5 6 0 2 5 4 5 4 7 0 4 0
split_gain=1383.67 351.074 240.086 190.035 201.74 178.433 198.44 155.674 187.252 139.308 280.044 165.703 155.465 314.953 133.892 121.519 103.006 178.652 243.514 227.128 141.818 174.622 95.9727 109.236 104.34 95.0986 93.3852 101.847 90.0328 88.6667
threshold=57.500000000000007 12.500000000000002 0.26314050000000005 0.0016435000000000002 0.64064450000000017 0.00026350000000000006 0.15297700000000003 0.00041750000000000007 0.47220350000000005 298.50000000000006 0.75508300000000006 322.50000000000006 0.64760700000000015 0.64350200000000013 422.00000000000006 0.79509900000000011 0.00090650000000000008 0.45643550000000005 0.45992700000000003 0.47220350000000005 381.50000000000006 245.50000000000003 0.16684350000000001 0.00041750000000000007 0.31762850000000004 0.00040250000000000003 0.49913000000000007 96.500000000000014 0.0012265000000000004 4.5000000000000009
decision_type=2 2 2 2 2 2 2 2 2 2 2 2 2 2 2 2 2 2 2 2 2 2 2 2 2 2 2 2 2 2
left_child=1 22 5 4 7 6 -3 -4 -9 10 16 12 -11 -14 -13 -5 17 -2 19 -19 21 26 -1 -24 -25 -23 27 -20 -26 -30
right_child=9 2 3 15 -6 -7 -8 8 -10 11 -12 14 13 -15 -16 -17 -18 18 20 -21 -22 25 23 24 28 -27 -28 -29 29 -31
leaf_value=7.0154106502477687e-05 0.00040253883812023768 0.0017801286773075813 -0.005394374546604754 0.00059288270905584516 -0.0099819263872487282 0.00244412186699506 -0.0040477332141715784 -0.00086320728376174756 -0.0039370959589622393 -0.00084964763178018386 -0.0078187593529070211 0.00059966311173817531 -0.01154708434081121 -0.00054644441272675933 -0.0063218851965865137 -0.010627015450973991 0.00078414498151956058 0.00037921924730343335 -0.016976503791421179 -0.010058727979942114 0.0005080788405565107 -0.0067474790033810296 -0.010185594777544008 -0.0015699830565998754 -0.0080858710842520911 -0.001775046316126805 0.0017842092858740563 -0.0014869889606762483 -0.006328493840174464 -0.0027243802210038387
leaf_weight=41008 10327328 102537 172543 238669 39132 212614 135816 495832 330117 1272933 41628 1191716 42228 67834 28619 10060 4831581 35012 5199 51527 876026 40872 37063 93910 88369 652408 211534 23133 128588 145493
leaf_count=41008 10327328 102537 172543 238669 39132 212614 135816 495832 330117 1272933 41628 1191716 42228 67834 28619 10060 4831581 35012 5199 51527 876026 40872 37063 93910 88369 652408 211534 23133 128588 145493
internal_value=0 -0.00233688 -0.00164739 -0.00234344 -0.00293852 0.000338022 -0.00154065 -0.00266248 -0.00209179 0.000269488 0.000373259 -0.00041198 -0.00116141 -0.00476711 0.000437341 0.000139087 0.000393255 0.000238741 -0.000653583 -0.00583574 -0.000405702 -0.00126355 -0.00457824 -0.00496457 -0.00454055 -0.00206819 0.0010621 -0.00432936 -0.00531021 -0.00441529
internal_weight=0 2.27175e+06 1.73732e+06 1.28635e+06 1.03762e+06 450967 238353 998492 825949 1.96996e+07 1.70962e+07 2.60333e+06 1.383e+06 110062 1.22034e+06 248729 1.70546e+07 1.2223e+07 1.89571e+06 86539 1.80917e+06 933146 534431 493423 456360 693280 239866 28332 362450 274081
internal_count=21971329 2271751 1737320 1286353 1037624 450967 238353 998492 825949 19699578 17096248 2603330 1382995 110062 1220335 248729 17054620 12223039 1895711 86539 1809172 933146 534431 493423 456360 693280 239866 28332 362450 274081
is_linear=0
shrinkage=0.1


Tree=28
num_leaves=31
num_cat=0
split_feature=0 0 1 5 0 1 0 1 4 5 4 5 4 5 7 0 4 1 2 5 6 0 0 4 5 2 2 4 2 3
split_gain=1149.34 242.984 254.66 155.661 141.261 233.104 147.078 141.768 122.335 136.171 125.239 104.766 240.499 119.259 431.913 107.997 99.8628 105.317 99.4575 98.5523 96.8928 91.7347 86.8162 84.7623 97.8966 83.785 83.5369 82.8032 94.6864 96.589
threshold=24.500000000000004 75.500000000000014 1362.5000000000002 0.43790150000000005 36.500000000000007 1898.5000000000002 45.500000000000007 2421.5000000000005 0.00095450000000000016 0.22075450000000002 0.00021550000000000001 0.34650600000000004 0.00043550000000000007 0.52179150000000007 0.55615750000000008 270.50000000000006 0.0016125000000000002 222.50000000000003 400.00000000000006 0.76801100000000011 0.53850350000000013 535.50000000000011 4.5000000000000009 0.00021050000000000005 0.11365950000000001 213.50000000000003 95.500000000000014 0.0016765000000000003 352.50000000000006 0.62630050000000004
decision_type=2 2 2 2 2 2 2 2 2 2 2 2 2 2 2 2 2 2 2 2 2 2 2 2 2 2 2 2 2 2
left_child=3 2 26 8 -4 -6 -7 -8 9 23 -11 -3 15 -14 20 25 -5 -18 21 -19 -15 27 -10 24 -1 -13 -2 28 -16 -30
right_child=1 11 4 16 5 6 7 -9 22 10 -12 12 13 14 18 -17 17 19 -20 -21 -22 -23 -24 -25 -26 -27 -28 -29 29 -31
leaf_value=0.0011811492393086506 -0.035401066963870409 0.00053806669608913243 -0.0035421079081790771 -0.0067379711046868518 0.0017386906458013501 -0.004436633948779232 0.00076149187181575272 -0.0019306075180583436 -0.0035491835127629476 -0.017016119737092012 -0.0042288851889493865 -0.010315159101221157 0.00051271513724827683 -0.0060146083020947653 -0.00052491974794765736 -0.00054603699597365659 -0.0064619960556659825 -0.0013437054955975653 -0.0059431216233678096 -0.010428983102885052 -0.016684138953859212 0.00079488544731094041 0.001030475814354478 0.0016090686349361665 -0.0063073046811604489 -0.0021222802745945782 0.0019524373586298502 0.00077139427975131175 -0.0077424169002184018 -0.001720806230562097
leaf_weight=29646 600 8160324 258592 160380 254153 158746 275790 672858 57800 7893 258657 12842 6227578 16704 1487801 1193378 81638 150559 29101 12968 17354 868601 145832 72772 42462 445601 278286 450452 35531 106430
leaf_count=29646 600 8160324 258592 160380 254153 158746 275790 672858 57800 7893 258657 12842 6227578 16704 1487801 1193378 81638 150559 29101 12968 17354 868601 145832 72772 42462 445601 278286 450452 35531 106430
internal_value=0 0.000159634 -0.000919041 -0.00327692 -0.0013995 -0.00099256 -0.0016194 -0.00114796 -0.0022741 -0.00326629 -0.00460754 0.000267154 6.41727e-05 0.000262861 -0.00025374 -0.0010472 -0.00479782 -0.00352862 -0.000125676 -0.00206419 -0.0114512 -6.82657e-05 -0.000269439 -0.000798656 -0.00322855 -0.00235178 0.00187207 -0.000428678 -0.000760367 -0.00322794
internal_weight=0 2.09507e+07 1.89902e+06 1.02061e+06 1.62014e+06 1.36155e+06 1.10739e+06 948648 615062 411430 266550 1.90517e+07 1.08914e+07 9.23955e+06 3.01197e+06 1.65182e+06 405545 245165 2.97792e+06 163527 34058 2.94882e+06 203632 144880 72108 458443 278886 2.08021e+06 1.62976e+06 141961
internal_count=21971329 20950722 1899025 1020607 1620139 1361547 1107394 948648 615062 411430 266550 19051697 10891373 9239552 3011974 1651821 405545 245165 2977916 163527 34058 2948815 203632 144880 72108 458443 278886 2080214 1629762 141961
is_linear=0
shrinkage=0.1


Tree=29
num_leaves=31
num_cat=0
split_feature=0 0 1 5 1 0 5 4 5 4 0 4 5 1 0 0 5 0 1 2 3 2 5 2 4 3 4 3 6 2
split_gain=944.844 174.897 303.204 145.102 104.482 178.723 103.18 152.249 102.07 154.989 94.1205 98.2604 96.1369 91.6233 97.5996 89.3855 122.627 87.4112 213.665 83.9652 187.915 86.4808 165.184 115.065 265.902 131.647 122.117 194.778 90.8193 141.625
threshold=27.500000000000004 60.500000000000007 1539.5000000000002 0.60508250000000008 2931.5000000000005 93.500000000000014 0.15297700000000003 0.00021550000000000001 0.26314050000000005 0.0007915000000000001 4.5000000000000009 0.0020355000000000004 0.43109100000000006 3732.5000000000005 72.500000000000014 508.50000000000006 0.5574840000000002 39.500000000000007 2070.5000000000005 359.50000000000006 0.62630050000000004 321.50000000000006 0.76801100000000011 305.50000000000006 0.0013795000000000003 0.65259500000000015 0.00068650000000000015 0.65259500000000015 0.59102900000000014 270.50000000000006
decision_type=2 2 2 2 2 2 2 2 2 2 2 2 2 2 2 2 2 2 2 2 2 2 2 2 2 2 2 2 2 2
left_child=3 2 -2 6 -3 13 -1 -8 -9 -10 -11 12 -12 14 -6 16 -7 -4 -19 21 -21 22 23 26 -25 -26 27 -18 29 -28
right_child=1 4 17 -5 5 15 7 8 9 10 11 -13 -14 -15 -16 -17 19 18 -20 20 -22 -23 -24 24 25 -27 28 -29 -30 -31
leaf_value=0.0011040371134167914 0.0016903355712144874 0.0015907138535742012 -0.0036080863015044797 -0.005888510009451748 -0.0020770664975455783 0.00020210334760639972 -0.0087742600711277537 -0.00012963009964191038 -0.0051347752591540527 -0.0046399248355902924 -0.00015693787669046624 0.0014923209688916382 -0.003731392276422771 -0.0026001575312784154 0.0008450843032766711 0.00055966117631324485 -0.0015101486639685618 0.0011668816188271116 -0.0025628877111055254 -0.012239366924877926 -0.0016605244864453307 0.0017042928417631753 -0.010999159106093427 0.00017685913376317764 -0.004756450210408299 -0.015986063272357222 -0.0014427733193386077 -0.013321204972969462 0.00036350373393198002 -0.014049418720561131
leaf_weight=77888 313709 545590 227644 134564 199088 10788533 39325 160071 220101 103923 134995 97874 169997 317778 268379 6190085 68289 227376 473322 19584 117753 147885 15897 65241 22226 19686 52076 17551 724148 10751
leaf_count=77888 313709 545590 227644 134564 199088 10788533 39325 160071 220101 103923 134995 97874 169997 317778 268379 6190085 68289 227376 473322 19584 117753 147885 15897 65241 22226 19686 52076 17551 724148 10751
internal_value=0 0.000153318 -0.000997412 -0.00280486 0.000226275 0.000187187 -0.00239164 -0.00268558 -0.00241563 -0.00291903 -0.00195673 -0.00126457 -0.00214927 -0.00129003 -0.000399421 0.000250713 9.22648e-05 -0.00190567 -0.00135258 -0.000832728 -0.00316905 -0.000552192 -0.000887278 -0.000723244 -0.00381585 -0.010031 -0.000343573 -0.00392506 4.70807e-05 -0.00360003
internal_weight=0 2.08326e+07 1.24205e+06 1.13874e+06 1.95905e+07 1.9045e+07 1.00417e+06 926286 886961 726890 506789 402866 304992 785245 467467 1.82597e+07 1.20696e+07 928342 700698 1.28109e+06 137337 1.14375e+06 995865 979968 107153 41912 872815 85840 786975 62827
internal_count=21971329 20832591 1242051 1138738 19590540 19044950 1004174 926286 886961 726890 506789 402866 304992 785245 467467 18259705 12069620 928342 700698 1281087 137337 1143750 995865 979968 107153 41912 872815 85840 786975 62827
is_linear=0
shrinkage=0.1


Tree=30
num_leaves=31
num_cat=0
split_feature=0 0 1 5 4 1 0 1 0 4 2 0 3 4 5 5 7 2 2 5 5 0 2 0 6 6 3 4 1 2
