tree
version=v4
num_class=1
num_tree_per_iteration=1
label_index=0
max_feature_idx=10
objective=regression
feature_names=step dists inserts first_nn_dist nn_dist furthest_dist avg_dist variance percentile_25 percentile_50 percentile_75
feature_infos=[1:1003] [80:33150] [79:474] [0.0095940000000000001:6.1078830000000002] [0:4.3462230000000002] [0.015796000000000001:7.4168560000000001] [0.013261:5.8420500000000004] [3.0000000000000001e-06:0.71448500000000004] [0.012194:5.2254820000000004] [0.013406:5.8309759999999997] [0.014669:6.4681329999999999]
tree_sizes=2992 3125 3110 3114 3119 3125 3132 3126 3128 3137 3122 3130 3139 3140 3143 3138 3148 3172 3144 3171 3148 3167 3128 3127 3158 3131 3162 3095 3169 3155 3157 3104 3108 3155 3178 3131 3191 3134 3069 3153 3037 3140 3162 3093 3127 3071 3138 3160 3139 3017 3087 3064 3164 3146 3089 3036 3164 3138 3087 3106 3101 3060 3116 3101 3062 3147 3156 3134 3161 3069 3076 3172 3049 3079 3037 3080 3116 3058 3091 3049 2975 3049 3095 3052 3130 3052 3052 3087 3006 3069 3020 3172 3059 3108 3071 3070 3075 3093 3094 3023

Tree=0
num_leaves=31
num_cat=0
split_feature=0 0 0 4 4 0 0 0 0 4 4 0 0 0 2 2 4 2 2 4 2 2 4 2 0 4 4 2 4 0
split_gain=39092.3 5139.41 4796.75 916.698 728.379 722.595 581.641 465.273 303.689 282.064 225.934 219.713 179.755 122.363 121.723 119.956 115.93 106.499 105.067 98.0235 94.3063 85.0565 79.3731 76.8876 63.2845 62.9026 62.6633 57.9976 54.9915 50.9074
threshold=51.500000000000007 153.50000000000003 18.500000000000004 1.0517605000000001 0.96584350000000008 9.5000000000000018 305.50000000000006 88.500000000000014 33.500000000000007 1.0517605000000001 0.97491100000000019 82.500000000000014 30.500000000000004 3.5000000000000004 306.50000000000006 324.50000000000006 1.3274750000000002 356.50000000000006 301.50000000000006 0.83881300000000014 307.50000000000006 281.50000000000006 1.4222330000000001 261.50000000000006 481.50000000000006 1.4222330000000001 1.4222330000000001 238.50000000000003 1.4321290000000002 24.500000000000004
decision_type=2 2 2 2 2 2 2 2 2 2 2 2 2 2 2 2 2 2 2 2 2 2 2 2 2 2 2 2 2 2
left_child=2 3 5 11 12 13 9 14 27 -3 -7 18 -4 -1 -5 -9 -8 -11 -2 -15 -13 -10 -17 -14 -18 -16 -19 -6 -23 -29
right_child=1 6 4 7 8 10 16 15 21 17 -12 20 23 19 25 22 24 26 -20 -21 -22 28 -24 -25 -26 -27 -28 29 -30 -31
leaf_value=0.83108038806018025 0.91158680856380714 0.92026537459537117 0.88462817327848908 0.90208973194930475 0.88455502985137757 0.86986051264371023 0.9225238973451918 0.91113856404059512 0.89314369578270525 0.91704139001899354 0.85336980723784128 0.91830187520528272 0.90546694729228316 0.85377551863970613 0.89526873738958457 0.906689967705543 0.91855421018898764 0.91507703668358498 0.90226509667119359 0.83976958805737612 0.91215055765597297 0.88410330417729777 0.89974219747998119 0.89413838587466687 0.92129342780606338 0.88766023384750359 0.90986735135967822 0.86274257432702806 0.87516823982406011 0.87135921015867501
leaf_weight=10934 23720 185774 18256 15068 2252 14301 930536 28264 6417 102432 19826 47044 8178 7028 22930 34211 118027 44283 24664 17291 53004 16597 31660 22404 295522 20653 48239 11489 11775 17005
leaf_count=10934 23720 185774 18256 15068 2252 14301 930536 28264 6417 102432 19826 47044 8178 7028 22930 34211 118027 44283 24664 17291 53004 16597 31660 22404 295522 20653 48239 11489 11775 17005
internal_value=0.914817 0.918823 0.870652 0.906771 0.883236 0.849908 0.920927 0.901333 0.876347 0.917477 0.86028 0.912367 0.89248 0.839867 0.894342 0.905689 0.921905 0.91482 0.906835 0.843817 0.915043 0.882747 0.903351 0.897168 0.920512 0.891663 0.912361 0.869106 0.880395 0.867885
internal_weight=0 2.02603e+06 183753 301218 114373 69380 1.72481e+06 152786 65535 380728 34127 148432 48838 35253 58651 94135 1.34408e+06 194954 48384 24319 100048 34789 65871 30582 413549 43583 92522 30746 28372 28494
internal_count=2209784 2026031 183753 301218 114373 69380 1724813 152786 65535 380728 34127 148432 48838 35253 58651 94135 1344085 194954 48384 24319 100048 34789 65871 30582 413549 43583 92522 30746 28372 28494
is_linear=0
shrinkage=1


Tree=1
num_leaves=31
num_cat=0
split_feature=0 0 0 4 4 0 0 0 0 0 4 4 0 2 2 2 2 4 2 2 2 2 9 0 4 0 2 7 4 0
split_gain=31694.2 4221.22 3835.54 728.406 709.192 413.368 405.473 378.793 376.719 295.96 224.42 172.74 167.697 113.401 92.2085 90.8517 89.8283 80.7781 77.9261 71.9722 67.7308 67.0135 66.1789 61.2527 60.0545 54.6914 47.3265 46.3523 45.0603 42.5288
threshold=54.500000000000007 15.500000000000002 161.50000000000003 1.0476680000000003 1.0476680000000003 333.50000000000006 6.5000000000000009 30.500000000000004 98.500000000000014 30.500000000000004 1.2758315000000002 0.91576950000000001 92.500000000000014 306.50000000000006 302.50000000000006 311.50000000000006 279.50000000000006 1.3274750000000002 357.50000000000006 249.50000000000003 316.50000000000006 319.50000000000006 0.71421150000000011 72.500000000000014 1.4222330000000001 39.500000000000007 382.50000000000006 0.010624000000000003 0.69769250000000016 225.50000000000003
decision_type=2 2 2 2 2 2 2 2 2 2 2 2 2 2 2 2 2 2 2 2 2 2 2 2 2 2 2 2 2 2
left_child=1 6 3 12 9 10 28 27 13 22 21 -8 14 -5 -2 -10 -11 -7 -12 -9 -14 -4 -3 -15 -17 -21 -19 -6 -1 -20
right_child=2 4 5 8 7 17 11 19 15 16 18 -13 20 23 -16 24 -18 26 29 25 -22 -23 -24 -25 -26 -27 -28 -29 -30 -31
leaf_value=-0.061936885243112742 -0.0016420295463075154 -0.020079692834716091 0.0062459620997476735 -0.0095984956908707827 -0.046518178623349303 0.0070059548215128655 -0.045441221887585821 -0.012501895524879906 -0.00076846375040288332 -0.010284260905894571 0.0020435219687162678 -0.059924770489139023 0.0035559765618541003 -0.023132255260127861 -0.0096244074478055094 -0.0058359366192709504 -0.019991971067407396 0.0060461369691078952 -0.0056587303582103995 -0.035765402383843556 -0.001796113522831635 0.0031278321293196389 -0.032409902382964012 -0.016179707939684342 -0.011622094606477562 -0.028039909081703618 0.0037068057726944723 -0.033924808366474206 -0.073458337050221437 -0.0007149832106057275
leaf_weight=4125 28026 5511 125597 16910 24699 885601 13349 2234 18916 15810 71343 21493 50739 21399 29921 38157 24004 265675 28028 14726 44280 152750 20714 31071 33851 24260 128218 3315 19169 45893
leaf_count=4125 28026 5511 125597 16910 24699 885601 13349 2234 18916 15810 71343 21493 50739 21399 29921 38157 24004 265675 28028 14726 44280 152750 20714 31071 33851 24260 128218 3315 19169 45893
internal_value=0 -0.0386689 0.00370909 -0.00646015 -0.028984 0.00557963 -0.0612043 -0.0360556 -0.0111705 -0.0215703 0.00287204 -0.0543757 -0.00152385 -0.0167201 -0.00576374 -0.00693588 -0.0161371 0.00647605 -0.000314081 -0.0299578 0.00106184 0.00453481 -0.0298188 -0.0190152 -0.00855601 -0.030958 0.00528465 -0.045028 -0.0714181 -0.00258946
internal_weight=0 193409 2.01638e+06 313270 135273 1.7031e+06 58136 69234 160304 66039 423611 34842 152966 69380 57947 90924 39814 1.27949e+06 145264 41220 95019 278347 26225 52470 72008 38986 393893 28014 23294 73921
internal_count=2209784 193409 2016375 313270 135273 1703105 58136 69234 160304 66039 423611 34842 152966 69380 57947 90924 39814 1279494 145264 41220 95019 278347 26225 52470 72008 38986 393893 28014 23294 73921
is_linear=0
shrinkage=0.1


Tree=2
num_leaves=31
num_cat=0
split_feature=0 0 0 4 0 4 0 0 0 4 0 4 0 2 4 2 2 0 2 2 2 2 4 4 4 4 7 2 2 8
split_gain=25690.7 3713.43 2888.56 597.333 532.263 508.568 328.433 269.396 251.66 221.8 155.594 143.723 124.737 97.1405 97.1329 81.8687 80.1834 76.904 64.5537 64.2508 63.8465 58.8716 55.7064 51.0526 46.7557 46.2563 47.2779 44.5383 39.5894 39.402
threshold=48.500000000000007 135.50000000000003 15.500000000000002 1.0317480000000001 261.50000000000006 0.96584350000000008 6.5000000000000009 78.500000000000014 27.500000000000004 1.0517605000000001 27.500000000000004 1.0517605000000001 75.500000000000014 322.50000000000006 1.3200885000000002 355.50000000000006 284.50000000000006 449.50000000000006 307.50000000000006 268.50000000000006 273.50000000000006 259.50000000000006 1.4222330000000001 1.4585935000000003 1.4222330000000001 1.4321290000000002 0.006931500000000001 233.50000000000003 345.50000000000006 1.4362680000000003
decision_type=2 2 2 2 2 2 2 2 2 2 2 2 2 2 2 2 2 2 2 2 2 2 2 2 2 2 2 2 2 2
left_child=2 3 6 12 9 10 -1 16 -7 -3 27 -8 19 -9 -6 -11 -5 28 -14 -2 -10 -12 -15 -22 -17 -18 -27 -4 -16 -23
right_child=1 4 5 7 14 8 11 13 20 15 21 -13 18 22 17 24 25 -19 -20 -21 23 29 -24 -25 -26 26 -28 -29 -30 -31
leaf_value=-0.064276262564274197 -0.0003115452328826095 0.0038086948131434636 -0.018158963251744577 -0.0080853158875835978 0.0061663435734619736 -0.041319242606662254 -0.042110502020257012 -0.0041151329442565597 -0.019673765713551047 0.00067563906236076804 -0.0085143395399345703 -0.054979750709968439 0.0021150256065898027 -0.0085435072466643856 0.004628236765588478 -0.0012172214193446303 -0.017026466792713701 0.0052327193603737155 -0.0034484541868646441 -0.0096575599734193187 -0.027213571958485502 -0.017031206419848718 -0.014632218803110148 -0.035060043141218279 -0.0061081136751298783 -0.02586033629639329 -0.012755673837805135 -0.029971033353442419 0.0010412282668874858 -0.031401803914347784
leaf_weight=23294 9598 159183 4108 6578 993097 25304 16357 26478 6651 88393 8284 18485 40592 32259 48841 37529 24248 323441 42895 31486 20580 20477 28129 13888 40791 15911 3329 14318 83156 2104
leaf_count=23294 9598 159183 4108 6578 993097 25304 16357 26478 6651 88393 8284 18485 40592 32259 48841 37529 24248 323441 42895 31486 20580 20477 28129 13888 40791 15911 3329 14318 83156 2104
internal_value=0 0.00315078 -0.0368984 -0.00797414 0.0047903 -0.0277618 -0.0550838 -0.0125327 -0.0334728 0.0011389 -0.020066 -0.0489381 -0.00296326 -0.00916533 0.0056118 -0.0014103 -0.0183752 0.00440259 -0.000743449 -0.00747415 -0.0286442 -0.0157249 -0.0113797 -0.0303751 -0.00376452 -0.0199316 -0.0235929 -0.0273376 0.00236848 -0.0183702
internal_weight=0 2.03593e+06 173850 261503 1.77443e+06 115714 58136 136932 66423 325896 49291 34842 124571 86866 1.44854e+06 166713 50066 455438 83487 41084 41119 30865 60388 34468 78320 43488 19240 18426 131997 22581
internal_count=2209784 2035934 173850 261503 1774431 115714 58136 136932 66423 325896 49291 34842 124571 86866 1448535 166713 50066 455438 83487 41084 41119 30865 60388 34468 78320 43488 19240 18426 131997 22581
is_linear=0
shrinkage=0.1


Tree=3
num_leaves=31
num_cat=0
split_feature=0 0 0 8 4 0 0 0 0 0 2 9 4 2 2 4 8 2 0 2 2 7 2 4 0 4 0 7 7 8
split_gain=20867.9 3025.61 2346.15 490.042 452.339 400.689 328.216 215.183 208.634 167.947 141.669 141.545 129.288 114.555 93.1987 78.2341 64.9818 64.2589 64.0575 60.4335 56.1712 47.8937 47.0563 47.0119 45.8058 45.7217 45.0382 39.6878 39.3242 35.8887
threshold=57.500000000000007 18.500000000000004 177.50000000000003 1.0963090000000002 1.0476680000000003 9.5000000000000018 105.50000000000001 389.50000000000006 36.500000000000007 36.500000000000007 290.50000000000006 1.2290555000000001 0.77667200000000014 329.50000000000006 313.50000000000006 0.68073950000000016 1.6283735000000001 236.50000000000003 102.50000000000001 294.50000000000006 285.50000000000006 0.010183500000000002 380.50000000000006 1.4222330000000001 3.5000000000000004 1.4585935000000003 233.50000000000003 0.0033625000000000005 0.0026965000000000005 0.8842350000000001
decision_type=2 2 2 2 2 2 2 2 2 2 2 2 2 2 2 2 2 2 2 2 2 2 2 2 2 2 2 2 2 2
left_child=1 5 3 18 9 15 10 11 21 17 -5 -4 -7 -8 -13 -1 28 -3 -2 -11 -10 25 -9 -15 -17 -6 -16 -18 -12 -19
right_child=2 4 7 6 8 12 13 22 20 19 16 14 -14 23 26 24 27 29 -20 -21 -22 -23 -24 -25 -26 -27 -28 -29 -30 -31
leaf_value=-0.04493375633517694 -0.0020205795347800052 -0.01101488373694292 0.0049179868399287308 -0.00303349814968467 -0.031225152627572268 -0.030081554562796594 0.00010132134983017912 0.0057255186434008237 -0.013853002399500833 -0.0068369409829651187 -0.013683002041408474 0.0048740200733139692 -0.043679471022652697 -0.0041334090230558526 -0.0016603000559593717 -0.062965069923440406 -0.022428528538316839 -0.01834956327071972 0.0027122181296585684 -0.015244333394078564 -0.024054268034085863 -0.022556427100225755 0.0041286523157477847 -0.0089464029353339813 -0.054439613887019192 -0.039283609423672872 0.0014524679691661135 -0.014573408294166321 -0.0079767290653460412 -0.026031149049921837
leaf_weight=6365 47882 5239 210172 16209 16839 9815 46821 923721 6634 17379 25594 64857 24312 50555 64464 9289 9023 9721 71008 16829 28963 3731 230605 33905 19599 12100 166638 22400 22867 16248
leaf_count=6365 47882 5239 210172 16209 16839 9815 46821 923721 6634 17379 25594 64857 24312 50555 64464 9289 9023 9721 71008 16829 28963 3731 230605 33905 19599 12100 166638 22400 22867 16248
internal_value=0 -0.0305487 0.00309127 -0.00439636 -0.021755 -0.0474926 -0.00711665 0.0046527 -0.0274492 -0.0158127 -0.0115575 0.00293352 -0.0397687 -0.00386612 0.00152427 -0.0549697 -0.0132871 -0.0211176 0.000806122 -0.010973 -0.0221531 -0.0332198 0.00540651 -0.0060655 -0.057181 -0.0345946 0.000584187 -0.016829 -0.0109904 -0.0231557
internal_weight=0 203063 2.00672e+06 346264 133683 69380 227374 1.66046e+06 68267 65416 96093 506131 34127 131281 295959 35253 79884 31208 118890 34208 35597 32670 1.15433e+06 84460 28888 28939 231102 31423 48461 25969
internal_count=2209784 203063 2006721 346264 133683 69380 227374 1660457 68267 65416 96093 506131 34127 131281 295959 35253 79884 31208 118890 34208 35597 32670 1154326 84460 28888 28939 231102 31423 48461 25969
is_linear=0
shrinkage=0.1


Tree=4
num_leaves=31
num_cat=0
split_feature=0 0 0 0 4 6 0 0 0 4 2 0 2 0 2 2 4 4 2 2 4 2 4 7 6 2 4 4 7 4
split_gain=16919.5 2653.55 1749.98 436.547 390.985 367.572 211.895 157.439 155.049 144.454 116.491 88.2286 81.5867 79.7291 74.4957 69.8744 67.8636 64.9925 64.6413 55.261 43.2596 42.8591 40.1672 46.3006 39.8084 36.37 34.4522 34.159 38.4075 33.4919
threshold=60.500000000000007 21.500000000000004 185.50000000000003 9.5000000000000018 1.0517605000000001 1.1356430000000002 111.50000000000001 39.500000000000007 413.50000000000006 1.0517605000000001 335.50000000000006 105.50000000000001 250.50000000000003 39.500000000000007 240.50000000000003 287.50000000000006 1.4222330000000001 0.92107500000000009 304.50000000000006 298.50000000000006 0.64855000000000007 318.50000000000006 1.4321290000000002 0.0063945000000000009 0.42913450000000003 354.50000000000006 1.4321290000000002 1.4585935000000003 0.0054960000000000009 1.4585935000000003
decision_type=2 2 2 2 2 2 2 2 2 2 2 2 2 2 2 2 2 2 2 2 2 2 2 2 2 2 2 2 2 2
left_child=1 3 4 17 11 13 15 14 10 24 -4 18 -9 20 -7 -6 -12 -1 -2 -8 -3 -13 -17 -24 -5 -10 -21 -14 -29 -16
right_child=2 5 8 9 6 7 19 12 25 -11 16 21 27 -15 29 22 -18 -19 -20 26 -22 -23 23 -25 -26 -27 -28 28 -30 -31
leaf_value=-0.043516849218679945 0.00022945312722526636 -0.010404356485676483 0.0044113972482073271 -0.012733414868503039 -0.0026031967078491442 -0.012611125712971381 0.0023611515516193428 -0.0018764885744368383 0.0053852045568287864 -0.040058327820278947 0.0025313259650701129 0.0034942167230159766 -0.016889960463309862 -0.0071959609745671886 -0.025557914763289377 -0.0095426010540677064 -0.00076255054566082238 -0.052568175251609207 -0.005945361451667977 -0.0028207344381832645 -0.019216831838190326 -0.00050169946394290849 -0.01625539118812842 -0.0065407484550372916 -0.029886072395559956 0.0042118390794009843 -0.0067351261348760063 -0.026809484069379497 -0.016463055216974515 -0.031779250295474785
leaf_weight=12056 32940 9863 252250 1450 9459 3492 12890 2952 662890 23485 192561 58225 26088 25056 23061 37209 92642 23197 34933 48440 12799 49799 25550 6072 20235 439183 41963 9386 5808 13850
leaf_count=12056 32940 9863 252250 1450 9459 3492 12890 2952 662890 23485 192561 58225 26088 25056 23061 37209 92642 23197 34933 48440 12799 49799 25550 6072 20235 439183 41963 9386 5808 13850
internal_value=0 -0.0268068 0.00285623 -0.041133 -0.00348335 -0.0181018 -0.00673831 -0.0220588 0.0042385 -0.0346243 0.00284595 -0.000123166 -0.0179368 -0.0110834 -0.0265716 -0.0106621 0.00146138 -0.0494728 -0.00294861 -0.00376431 -0.0153814 0.0016521 -0.0117696 -0.01439 -0.0287391 0.00491761 -0.00463771 -0.0190852 -0.0228545 -0.0278923
internal_weight=0 212778 1.99701e+06 80423 357480 132355 181583 84637 1.63953e+06 45170 537453 175897 44234 47718 40403 78290 285203 35253 67873 103293 22662 108024 68831 31622 21685 1.10207e+06 90403 41282 15194 36911
internal_count=2209784 212778 1997006 80423 357480 132355 181583 84637 1639526 45170 537453 175897 44234 47718 40403 78290 285203 35253 67873 103293 22662 108024 68831 31622 21685 1102073 90403 41282 15194 36911
is_linear=0
shrinkage=0.1


Tree=5
num_leaves=31
num_cat=0
split_feature=0 0 0 8 0 4 0 0 2 0 0 2 2 9 4 4 2 7 0 0 4 2 8 4 7 2 4 8 7 7
split_gain=13721.4 2176.1 1421.29 353.816 322.948 291.409 191.374 153.504 138.026 125.307 101.406 93.5602 88.8543 82.8512 71.4742 56.036 54.5069 48.6565 46.895 45.4416 41.9736 40.9521 37.9882 36.9155 39.7152 34.5974 33.6641 33.6236 32.5 30.5952
threshold=45.500000000000007 129.50000000000003 12.500000000000002 1.0963090000000002 249.50000000000003 1.0517605000000001 75.500000000000014 24.500000000000004 316.50000000000006 24.500000000000004 6.5000000000000009 313.50000000000006 253.50000000000003 1.2290555000000001 1.3767255000000003 0.68073950000000016 238.50000000000003 0.0087370000000000017 522.50000000000011 69.500000000000014 1.4585935000000003 212.50000000000003 1.5767480000000003 1.4321290000000002 0.0053865000000000015 351.50000000000006 1.6949825000000003 0.8842350000000001 0.0034315000000000005 0.0073385000000000004
decision_type=2 2 2 2 2 2 2 2 2 2 2 2 2 2 2 2 2 2 2 2 2 2 2 2 2 2 2 2 2 2
left_child=2 3 10 19 8 9 12 29 -3 21 -1 -8 -5 -10 -6 -12 -11 20 25 -2 -9 -4 -13 -14 -25 -16 -15 -18 -24 -7
right_child=1 4 5 6 14 7 11 17 13 16 15 22 23 26 18 -17 27 -19 -20 -21 -22 -23 28 24 -26 -27 -28 -29 -30 -31
leaf_value=-0.047264388226366728 -0.0047259312968689652 0.003351226785887452 -0.010965430310021767 0.0010076530889359648 0.0045050520271776532 -0.035604705661644739 -0.0017352920472593226 -0.021147742544756001 0.0019395043093680651 -0.0034780080070052699 -0.028506381328618921 -0.0063736249028925373 -0.012527495352243399 -0.001574761612530264 0.0033324713501719193 -0.040481207197381963 -0.010554221288642663 -0.01315183238715578 0.0038352158047368703 0.00022554301185785352 -0.028486265655335213 -0.024499934835322708 -0.014913550475077825 -0.021005537180341712 -0.01218959687141351 0.00039560791589257844 -0.0053444173951138416 -0.017357379539056878 -0.0084291604631305389 -0.027607812314884957
leaf_weight=23294 26616 112419 2533 3976 1073284 16270 29659 18692 64230 4908 4958 41447 37376 106452 69712 18448 11590 4545 240332 61044 13368 19040 12603 13646 8169 94470 30471 19467 19988 6777
leaf_count=23294 26616 112419 2533 3976 1073284 16270 29659 18692 64230 4908 4958 41447 37376 106452 69712 18448 11590 4545 240332 61044 13368 19040 12603 13646 8169 94470 30471 19467 19988 6777
internal_value=0 0.00223028 -0.0278413 -0.00642191 0.00345961 -0.0219627 -0.00912427 -0.0268601 0.000544786 -0.0168853 -0.0425933 -0.00648112 -0.0134634 -0.00102366 0.0040781 -0.0379446 -0.0132709 -0.0228349 0.00294529 -0.00127786 -0.0242077 -0.0229108 -0.00838225 -0.0144354 -0.0177043 0.00164261 -0.00241367 -0.0148185 -0.0109367 -0.0332532
internal_weight=0 2.04589e+06 163890 254524 1.79137e+06 117190 166864 59652 313572 57538 46700 103697 63167 201153 1.4778e+06 23406 35965 36605 404514 87660 32060 21573 74038 59191 21815 164182 136923 31057 32591 23047
internal_count=2209784 2045894 163890 254524 1791370 117190 166864 59652 313572 57538 46700 103697 63167 201153 1477798 23406 35965 36605 404514 87660 32060 21573 74038 59191 21815 164182 136923 31057 32591 23047
is_linear=0
shrinkage=0.1


Tree=6
num_leaves=31
num_cat=0
split_feature=0 0 0 0 8 6 0 0 4 0 2 2 2 4 2 0 4 7 2 4 2 0 2 0 4 7 4 7 4 2
split_gain=11138.5 1857.46 1071.25 285.493 265.481 262.632 141.863 119.12 101.994 96.2029 82.7682 81.4588 74.0609 64.476 60.7543 55.5869 49.7749 46.9057 46.0033 43.6785 39.4942 36.5344 35.7135 34.9962 32.014 41.5275 30.6721 28.6182 27.1561 27.0531
threshold=63.500000000000007 21.500000000000004 193.50000000000003 9.5000000000000018 1.2037735000000003 1.1356430000000002 114.50000000000001 36.500000000000007 0.7743675000000001 433.50000000000006 371.50000000000006 254.50000000000003 287.50000000000006 0.64855000000000007 318.50000000000006 3.5000000000000004 0.75044800000000011 0.0026505000000000005 241.50000000000003 0.68073950000000016 339.50000000000006 36.500000000000007 311.50000000000006 111.50000000000001 1.4585935000000003 0.0061045000000000014 2.1262485000000004 0.0018045000000000003 2.0993470000000003 321.50000000000006
decision_type=2 2 2 2 2 2 2 2 2 2 2 2 2 2 2 2 2 2 2 2 2 2 2 2 2 2 2 2 2 2
left_child=1 3 4 15 16 13 11 18 -5 10 22 -6 -9 -3 -8 -1 -2 21 -7 -17 26 -15 -4 27 25 -10 -13 -18 -24 -11
right_child=2 5 9 8 6 7 14 12 24 29 -12 20 -14 17 -16 19 23 -19 -20 -21 -22 -23 28 -25 -26 -27 -28 -29 -30 -31
leaf_value=-0.046033941011161136 0.0023412289200614323 -0.0045280547033858315 0.0042201683801404155 -0.020591264619905219 0.0038143606599193402 -0.010825861923097757 0.00095290974795814881 -0.0080869696040599369 -0.031244646483650509 0.004716360035362065 0.00022234025358157489 -0.0057254288438054763 -0.016722455659959081 -0.019529897324416304 -0.0040157684244775125 -0.028813419177313337 -0.0065275030556948615 -0.0046213678731694225 -0.023458135781826026 -0.039529070951096548 -0.010903034183388198 -0.010987260386324471 0.0025745072331587299 0.00050333187247348493 -0.035493107300055511 -0.02070889366828306 -0.016163770815207819 -0.00040240921245970256 -0.002415524464039703 0.0036636435972384473
leaf_weight=10934 80394 22019 170026 12907 5549 3182 34103 12812 16432 381631 131006 37726 44174 7706 88398 4720 17243 7079 30667 19599 40879 14290 247306 47580 10987 4844 3042 13680 11409 677460
leaf_count=10934 80394 22019 170026 12907 5549 3182 34103 12812 16432 381631 131006 37726 44174 7706 88398 4720 17243 7079 30667 19599 40879 14290 247306 47580 10987 4844 3042 13680 11409 677460
internal_value=0 -0.0212258 0.00237472 -0.0333676 -0.00249078 -0.0143457 -0.00482694 -0.0175719 -0.0281041 0.00348255 0.00242216 -0.00790985 -0.014781 -0.00861008 -0.00263254 -0.0401119 0.000592274 -0.0117015 -0.0222706 -0.0374493 -0.00870666 -0.0139801 0.00309434 -0.00119881 -0.0311096 -0.0288459 -0.00650431 -0.00381783 0.00235445 0.00404298
internal_weight=0 222352 1.98743e+06 80423 368594 141929 209697 90835 45170 1.61884e+06 559747 87196 56986 51094 122501 35253 158897 29075 33849 24319 81647 21996 428741 78503 32263 21276 40768 30923 258715 1.05909e+06
internal_count=2209784 222352 1987432 80423 368594 141929 209697 90835 45170 1618838 559747 87196 56986 51094 122501 35253 158897 29075 33849 24319 81647 21996 428741 78503 32263 21276 40768 30923 258715 1059091
is_linear=0
shrinkage=0.1


Tree=7
num_leaves=31
num_cat=0
split_feature=0 0 0 8 4 0 0 0 4 0 2 2 0 4 9 2 7 2 0 7 2 8 7 4 4 7 2 0 2 2
split_gain=9054.51 1319.79 1039.85 240.1 187.828 175.115 146.178 120.509 99.4442 83.0936 70.6303 67.5046 66.3401 62.2852 47.3682 46.6669 41.3217 40.7135 39.3133 35.7664 34.6352 34.015 34.2614 33.9223 33.7524 33.1445 33.0208 32.4409 31.3709 30.3201
threshold=48.500000000000007 142.50000000000003 15.500000000000002 1.0851730000000004 1.0517605000000001 285.50000000000006 82.500000000000014 6.5000000000000009 1.4222330000000001 27.500000000000004 253.50000000000003 341.50000000000006 27.500000000000004 1.1140770000000002 1.2290555000000001 308.50000000000006 0.0059435000000000009 261.50000000000006 554.50000000000011 0.0065555000000000014 269.50000000000006 1.8010000000000002 0.0041605000000000001 1.4585935000000003 1.4321290000000002 0.0053125000000000004 220.50000000000003 72.500000000000014 264.50000000000006 315.50000000000006
decision_type=2 2 2 2 2 2 2 2 2 2 2 2 2 2 2 2 2 2 2 2 2 2 2 2 2 2 2 2 2 2
left_child=2 3 7 20 12 8 10 -1 15 -6 -5 28 26 -9 -7 -3 23 -14 29 -10 -2 22 -12 -11 -13 -23 -4 -22 -8 -16
right_child=1 5 4 6 9 14 11 13 19 16 21 24 17 -15 18 -17 -18 -19 -20 -21 27 25 -24 -25 -26 -27 -28 -29 -30 -31
leaf_value=-0.038384777142635301 0.003162938118976335 0.003679280370531108 -0.0062726050553942913 0.0021647520366443905 -0.025171052573142751 0.0040948567447787179 0.0040171212980722173 -0.024998662065180578 -0.0030326886804272683 -0.016688018907810166 -0.011322491270254267 -0.0048560168804486032 -0.0039890187618613774 -0.033459086691757199 0.0038569191573960835 0.00093471769466708552 -0.011701362091916162 -0.01169573590384492 0.0034977607617857811 0.0018198884680643195 -0.0049531572992442012 -0.01956871129188039 -0.0056088467311132609 -0.024028668590816683 -0.0098580923170866683 -0.010792396050583604 -0.018234354258415738 -0.00013826187054874953 -0.0028925790722630243 0.0015867735920235442
leaf_weight=23294 21521 94284 2634 4394 22461 575194 7520 17977 69461 16921 34601 33835 9254 16865 75605 180668 9343 26441 475217 19440 19010 7801 15064 10025 22434 9597 18635 53025 52048 265215
leaf_count=23294 21521 94284 2634 4394 22461 575194 7520 17977 69461 16921 34601 33835 9254 16865 75605 180668 9343 26441 475217 19440 19010 7801 15064 10025 22434 9597 18635 53025 52048 265215
internal_value=0 0.00187052 -0.0219054 -0.00449423 -0.0164236 0.00288902 -0.00656072 -0.0328166 0.000935806 -0.0203908 -0.0101177 -0.00436651 -0.012332 -0.0290939 0.00339985 0.00187586 -0.017432 -0.00969775 0.00290996 -0.00197157 -0.000357233 -0.0109224 -0.00958947 -0.019419 -0.0068503 -0.0147276 -0.016753 -0.00140891 -0.00202028 0.00209037
internal_weight=0 2.03593e+06 173850 280850 115714 1.75508e+06 187294 58136 363853 58750 71457 115837 56964 34842 1.39123e+06 274952 36289 35695 816037 88901 93556 67063 49665 26946 56269 17398 21269 72035 59568 340820
internal_count=2209784 2035934 173850 280850 115714 1755084 187294 58136 363853 58750 71457 115837 56964 34842 1391231 274952 36289 35695 816037 88901 93556 67063 49665 26946 56269 17398 21269 72035 59568 340820
is_linear=0
shrinkage=0.1


Tree=8
num_leaves=31
num_cat=0
split_feature=0 0 0 0 8 4 2 0 0 0 4 2 4 1 4 0 2 7 4 2 7 2 0 4 8 9 8 7 0 4
split_gain=7349.04 1164.56 772.139 190.903 190.162 161.347 91.1681 86.8997 74.1976 67.9652 61.4568 60.7278 53.2084 49.9036 49.598 44.8032 40.3081 37.9143 37.423 34.2267 33.0616 30.4874 27.4866 26.714 26.3475 26.2951 24.8695 24.0687 23.6625 23.5096
threshold=45.500000000000007 125.50000000000001 12.500000000000002 229.50000000000003 1.2195565000000002 1.1140770000000002 355.50000000000006 69.500000000000014 24.500000000000004 24.500000000000004 0.44140200000000002 308.50000000000006 1.4321290000000002 1975.0000000000002 0.75044800000000011 3.5000000000000004 238.50000000000003 0.0024715000000000002 1.3788520000000004 227.50000000000003 0.0059435000000000009 273.50000000000006 365.50000000000006 2.1262485000000004 1.7283100000000002 1.8558715000000003 0.8842350000000001 0.0074945000000000003 69.500000000000014 1.1420500000000002
decision_type=2 2 2 2 2 2 2 2 2 2 2 2 2 2 2 2 2 2 2 2 2 2 2 2 2 2 2 2 2 2
left_child=2 4 10 6 14 9 21 13 27 19 -1 -9 -5 -6 -2 -12 -11 28 -8 -4 25 -3 -14 -22 -23 -10 -18 -7 -16 -17
right_child=1 3 5 12 7 8 18 11 20 16 15 -13 22 -15 17 29 26 -19 -20 -21 23 24 -24 -25 -26 -27 -28 -29 -30 -31
leaf_value=-0.020523145625097189 0.00037494457865428529 0.0040536069880928623 -0.0092713544343275989 0.0032768958658601329 -0.0051276291065456619 -0.026947089562696008 -0.00085572846734564107 -0.0012624226821770532 -0.01731913963625446 -0.0018502010128478273 -0.038253890251638556 -0.0071734166767666169 0.00019922978392478811 -0.013057707477843981 -0.0092983632005370093 -0.027646516756260311 -0.0075495139541143568 0.00012754944516495635 -0.0049936617509168738 -0.018768205917182694 -0.0094789366878075682 0.0013875808613750672 0.0023372809415161083 -0.022518724004522792 -0.002011670716446493 -0.025341586212938361 -0.01323272440569785 -0.019563044288198075 -0.0039500841117024975 -0.033111709959420275
leaf_weight=4794 54142 34344 4747 1161461 10519 14629 55038 23448 17992 5161 10164 67170 75856 32311 11882 14441 11590 16612 36252 18922 7622 121536 290024 1979 28068 5286 22940 6322 27231 17301
leaf_count=4794 54142 34344 4747 1161461 10519 14629 55038 23448 17992 5161 10164 67170 75856 32311 11882 14441 11590 16612 36252 18922 7622 121536 290024 1979 28068 5286 22940 6322 27231 17301
internal_value=0 0.00163221 -0.0203754 0.00250876 -0.00486166 -0.0160424 8.45331e-05 -0.00739827 -0.020068 -0.0126223 -0.0312486 -0.00564391 0.00294562 -0.0111101 -0.0017806 -0.0324756 -0.0100931 -0.0038749 -0.00249894 -0.0168635 -0.0171044 0.00136666 0.00189401 -0.0121668 0.000749829 -0.0191409 -0.0113252 -0.0247189 -0.00557482 -0.0306253
internal_weight=0 2.04589e+06 163890 1.80258e+06 243315 117190 275238 133448 53830 63360 46700 90618 1.52734e+06 42830 109867 41906 39691 55725 91290 23669 32879 183948 365880 9601 149604 23278 34530 20951 39113 31742
internal_count=2209784 2045894 163890 1802579 243315 117190 275238 133448 53830 63360 46700 90618 1527341 42830 109867 41906 39691 55725 91290 23669 32879 183948 365880 9601 149604 23278 34530 20951 39113 31742
is_linear=0
shrinkage=0.1


Tree=9
num_leaves=31
num_cat=0
split_feature=0 0 0 8 6 0 0 0 0 2 4 2 2 2 4 7 2 4 2 4 2 7 7 4 0 2 2 0 2 4
split_gain=5967.22 880.477 681.636 162.402 147.884 116.203 97.1636 75.5943 73.9395 60.6617 60.5123 52.5529 51.3223 48.2731 43.9257 37.6521 33.2158 28.3349 28.2863 27.8252 27.6617 26.9301 26.6296 31.8615 26.5502 23.6532 22.5496 24.2258 20.4615 20.3939
threshold=57.500000000000007 18.500000000000004 173.50000000000003 1.0851730000000004 1.1356430000000002 6.5000000000000009 95.500000000000014 33.500000000000007 357.50000000000006 371.50000000000006 0.68073950000000016 344.50000000000006 257.50000000000006 285.50000000000006 0.64855000000000007 0.0026505000000000005 238.50000000000003 1.4321290000000002 380.50000000000006 2.1432180000000005 329.50000000000006 0.0034315000000000005 0.013104500000000002 1.5042885000000001 33.500000000000007 304.50000000000006 273.50000000000006 98.500000000000014 270.50000000000006 1.1832085000000003
decision_type=2 2 2 2 2 2 2 2 2 2 2 2 2 2 2 2 2 2 2 2 2 2 2 2 2 2 2 2 2 2
left_child=1 5 3 26 14 -1 12 16 9 25 -7 28 -5 -9 -3 24 -6 -13 -10 20 -14 -19 23 -12 -16 -4 -2 -28 -8 -11
right_child=2 4 8 6 7 10 11 13 18 29 22 17 19 -15 15 -17 -18 21 -20 -21 -22 -23 -24 -25 -26 -27 27 -29 -30 -31
leaf_value=-0.031232582005073478 0.0031511191902876927 -0.003698118219081334 0.0031643173349842034 0.0030115573023664307 -0.0083480966807262386 -0.015734562210527738 0.0034466589691978544 -0.0060603588510232415 0.0031198723243084209 0.0013143107264763877 -0.02360674697339403 -0.0028048681924394158 -0.0048586969737046716 -0.013336024165162953 -0.016660318614945668 -0.0034634063773697219 -0.018734423632502686 -0.0098108148653805183 0.0019165727882132747 -0.016425641866618584 -0.008866057828562323 -0.0036591091613259277 -0.016487921541422087 -0.030882774819865629 -0.0091823906024984352 0.0014142226222044042 -0.0023612737473570847 0.0011537532155066648 -0.0012996585633908177 -0.0017548807237125525
leaf_weight=23294 27431 20832 116587 4938 3418 10118 10592 11881 981400 31604 24232 43323 30873 39231 7581 6983 31052 14856 243909 3349 38965 13659 3729 8007 12705 228747 31184 52817 63751 68736
leaf_count=23294 27431 20832 116587 4938 3418 10118 10592 11881 981400 31604 24232 43323 30873 39231 7581 6983 31052 14856 243909 3349 38965 13659 3729 8007 12705 228747 31184 52817 63751 68736
internal_value=0 -0.0163358 0.00165304 -0.00245863 -0.011592 -0.0254761 -0.0040088 -0.0140855 0.00247917 0.00137619 -0.0225666 -0.00248727 -0.00685577 -0.0116448 -0.00715553 -0.00979681 -0.0177045 -0.00441611 0.00288034 -0.00752153 -0.00709454 -0.00686408 -0.0244884 -0.0254138 -0.0119769 0.00200507 0.000661768 -0.000151143 -0.000623428 -0.00078818
internal_weight=0 203063 2.00672e+06 335738 133683 69380 224306 85582 1.67098e+06 445674 46086 146181 78125 51112 48101 27269 34470 71838 1.22531e+06 73187 69838 28515 35968 32239 20286 345334 111432 84001 74343 100340
internal_count=2209784 203063 2006721 335738 133683 69380 224306 85582 1670983 445674 46086 146181 78125 51112 48101 27269 34470 71838 1225309 73187 69838 28515 35968 32239 20286 345334 111432 84001 74343 100340
is_linear=0
shrinkage=0.1


Tree=10
num_leaves=31
num_cat=0
split_feature=0 0 0 2 0 4 0 2 9 7 4 8 9 0 0 8 2 7 0 2 7 8 7 8 8 8 4 7 0 4
split_gain=4861.82 835.15 460.27 147.227 133.886 103.219 87.051 67.5462 51.9927 61.2748 44.9406 42.7793 42.1015 39.1945 37.3528 36.7487 35.252 32.6438 31.1275 29.4454 29.353 28.7043 29.9374 26.2348 24.5113 23.5014 23.1543 23.0942 22.9994 20.9165
threshold=42.500000000000007 122.50000000000001 12.500000000000002 302.50000000000006 237.50000000000003 1.3274750000000002 69.500000000000014 355.50000000000006 0.71421150000000011 0.0034915000000000002 0.44140200000000002 1.5517250000000002 1.2290555000000001 574.50000000000011 24.500000000000004 1.5646970000000002 261.50000000000006 0.006931500000000001 3.5000000000000004 315.50000000000006 0.0033625000000000005 1.5367210000000002 0.0033625000000000005 1.6946745000000003 1.7476265000000002 1.7370020000000002 1.8354945 0.0033935000000000002 27.500000000000004 0.21389250000000001
decision_type=2 2 2 2 2 2 2 2 2 2 2 2 2 2 2 2 2 2 2 2 2 2 2 2 2 2 2 2 2 2
left_child=2 3 10 16 7 8 15 24 29 14 -1 -8 -6 19 -10 -5 -2 28 -12 -14 -13 -9 -23 -11 -3 -18 -19 -17 -7 -4
right_child=1 4 5 6 12 17 11 21 9 23 18 20 13 -15 -16 27 25 26 -20 -21 -22 22 -24 -25 -26 -27 -28 -29 -30 -31
leaf_value=-0.016267949458406282 0.0021549412901069715 0.0016478501279414603 0.0030266701578826683 -0.0073172549132635174 0.0030386494446613126 -0.023757701035799217 -0.0028825397676898422 -0.00049850955788354628 -0.01954937275587864 -0.0080970816151721831 -0.031305242512899102 -0.010767566108946596 0.002824752817662075 0.0026164927376150656 -0.012805317306412928 -0.018476426678742473 -0.0013542760872523271 -0.0096261146221174373 -0.024946652508934967 0.00084181238707641947 -0.0049996110097822854 -0.0064274099226867875 -0.0012554657026809574 -0.020042636816423206 -0.0013110546813215158 -0.0069754381966262271 -0.018595916030969922 -0.010680928404598026 -0.017306712739978702 -0.00742940674251104
leaf_weight=4794 27180 169287 2496 33140 623599 10510 69959 55897 12973 25231 10164 13599 96402 452048 22381 5248 48197 6168 31742 335518 25121 22868 21920 1983 33544 8795 5395 13776 11656 8193
leaf_count=4794 27180 169287 2496 33140 623599 10510 69959 55897 12973 25231 10164 13599 96402 452048 22381 5248 48197 6168 31742 335518 25121 22868 21920 1983 33544 8795 5395 13776 11656 8193
internal_value=0 0.00128239 -0.0171565 -0.00419701 0.00202368 -0.0135409 -0.0059703 0.000107456 -0.0114333 -0.0125344 -0.0254397 -0.00435855 0.00240947 0.00196561 -0.01528 -0.00932825 -0.00080846 -0.0181185 -0.0264889 0.00128439 -0.0070254 -0.0020099 -0.00389617 -0.00896752 0.00115851 -0.00222173 -0.0138112 -0.0128314 -0.0203654 -0.0049878
internal_weight=0 2.0561e+06 153686 245015 1.81108e+06 106986 160843 303516 73257 62568 46700 108679 1.50757e+06 883968 35354 52164 84172 33729 41906 431920 38720 100685 44788 27214 202831 56992 11563 19024 22166 10689
internal_count=2209784 2056098 153686 245015 1811083 106986 160843 303516 73257 62568 46700 108679 1507567 883968 35354 52164 84172 33729 41906 431920 38720 100685 44788 27214 202831 56992 11563 19024 22166 10689
is_linear=0
shrinkage=0.1


Tree=11
num_leaves=31
num_cat=0
split_feature=0 0 0 8 8 0 2 0 2 0 4 4 2 4 4 4 4 1 7 4 7 7 4 7 0 2 7 4 0 4
split_gain=3946.17 668.102 383.852 117.856 105.095 102.864 62.5795 58.5484 49.7241 45.215 43.7498 42.1326 33.542 28.7367 28.4186 25.4841 24.2641 31.2114 23.4654 23.0873 27.4044 22.8066 23.2752 23.0833 20.9613 19.9971 19.422 18.0866 17.6471 16.8937
threshold=63.500000000000007 21.500000000000004 201.50000000000003 1.0851730000000004 1.1007990000000001 9.5000000000000018 314.50000000000006 102.50000000000001 247.50000000000003 39.500000000000007 0.7743675000000001 1.7728765000000004 399.50000000000006 1.0278380000000003 0.7743675000000001 2.3610565000000006 2.1432180000000005 1795.0000000000002 0.0061045000000000014 1.6949825000000003 0.0066865000000000006 0.012314 1.4585935000000003 0.0047135000000000015 526.50000000000011 257.50000000000006 0.0020295000000000005 1.3495810000000001 477.50000000000006 0.65675950000000005
decision_type=2 2 2 2 2 2 2 2 2 2 2 2 2 2 2 2 2 2 2 2 2 2 2 2 2 2 2 2 2 2
left_child=1 5 3 29 14 13 15 -8 -6 -10 -7 12 24 -1 -3 25 17 -11 28 -9 -21 22 23 -12 -4 -5 -16 -14 -13 -2
right_child=2 4 11 6 8 10 7 19 9 16 21 18 27 -15 26 -17 -18 -19 -20 20 -22 -23 -24 -25 -26 -27 -28 -29 -30 -31
leaf_value=-0.0205289733366468 0.002344287870985682 -0.0030154619385893951 0.0019791639097158191 0.0035417603597592074 -0.0026083321182745383 -0.01183596363841603 -0.0063911154402971279 -0.001835367639773604 -0.013839358084851828 -0.0035394049595649391 -0.020156138105906943 -0.002019714334048683 0.0017932031517546413 -0.026337106966119031 -0.010817613357946745 -0.0083743260263270721 -0.018834042118137492 -0.0099870185174639366 0.0021249083726334497 -0.006879819778964927 0.00093880274140382839 -0.010795875568827773 -0.023941442425679006 -0.013012437756596088 0.0027755382089381699 -0.00059840137184503418 -0.0040844989616006079 -0.0008121768714388569 0.0006912422513145202 4.0776827968088246e-05
leaf_weight=14403 57589 31949 613494 14884 7346 12907 53419 108398 36548 9450 13490 39366 56635 20850 10298 3565 2471 36531 60473 20281 5755 3261 8707 6805 716526 53964 7336 50318 61564 71201
leaf_count=14403 57589 31949 613494 14884 7346 12907 53419 108398 36548 9450 13490 39366 56635 20850 10298 3565 2471 36531 60473 20281 5755 3261 8707 6805 716526 53964 7336 50318 61564 71201
internal_value=0 -0.0126339 0.00141347 -0.00140341 -0.00850769 -0.0199159 -0.00262775 -0.00359049 -0.0105016 -0.0111838 -0.0167564 0.00209912 0.00227119 -0.0239641 -0.00479408 -0.00013024 -0.00918068 -0.00866191 0.000567196 -0.00247762 -0.00515159 -0.0187248 -0.0196164 -0.0177608 0.0024082 0.000296645 -0.00801654 0.000567454 -0.000366119 0.0010708
internal_weight=0 222352 1.98743e+06 389056 141929 80423 260266 187853 92346 85000 45170 1.59838e+06 1.43697e+06 35253 49583 72413 48452 45981 161403 134434 26036 32263 29002 20295 1.33002e+06 68848 17634 106953 100930 128790
internal_count=2209784 222352 1987432 389056 141929 80423 260266 187853 92346 85000 45170 1598376 1436973 35253 49583 72413 48452 45981 161403 134434 26036 32263 29002 20295 1330020 68848 17634 106953 100930 128790
is_linear=0
shrinkage=0.1


Tree=12
num_leaves=31
num_cat=0
split_feature=0 0 0 2 0 4 8 8 2 0 2 4 7 7 4 2 2 0 4 2 4 4 0 0 8 0 7 4 8 2
split_gain=3216.44 554.817 303.999 102.162 94.7853 74.7525 62.1994 55.6493 46.0203 42.2333 34.5835 33.4961 29.8301 28.2286 27.3006 26.8648 25.9035 25.3529 24.9074 24.7807 23.9155 22.5094 19.8833 17.8388 17.0226 16.8032 16.7376 19.2857 17.0191 16.3654
threshold=42.500000000000007 118.50000000000001 12.500000000000002 302.50000000000006 277.50000000000006 1.4585935000000003 1.0851730000000004 1.5646970000000002 212.50000000000003 24.500000000000004 333.50000000000006 0.61527100000000012 0.0033625000000000005 0.0082155000000000023 2.1432180000000005 321.50000000000006 253.50000000000003 72.500000000000014 1.7040650000000002 278.50000000000006 2.0074580000000002 2.3610565000000006 3.5000000000000004 616.50000000000011 0.90137100000000014 78.500000000000014 0.0039540000000000009 0.7743675000000001 0.95391100000000006 400.50000000000006
decision_type=2 2 2 2 2 2 2 2 2 2 2 2 2 2 2 2 2 2 2 2 2 2 2 2 2 2 2 2 2 2
left_child=2 3 11 16 6 8 -3 17 -4 26 -8 -1 25 -7 -14 -6 -2 -5 -12 -11 23 24 -13 29 -18 -9 27 -10 -28 -17
right_child=1 4 5 7 15 13 10 12 9 19 18 22 14 -15 -16 20 21 -19 -20 -21 -22 -23 -24 -25 -26 -27 28 -29 -30 -31
leaf_value=-0.014502461324967925 0.0023852944743304365 0.0020621194807817081 8.7552558219712945e-05 -0.0057342909974684182 0.0026004178932359035 -0.017913477909406929 0.00090656992820781874 -0.014798095233975284 -0.010686448367618085 -0.0051287649304211629 -0.00082544208502177696 -0.025798261799059516 -0.0050085282361499346 -0.010523985222295602 -0.013375774392802676 0.0015978336058451643 0.0008305079463228858 -0.002433371180410978 -0.0038414920351833473 -0.0099534523210023998 -0.00041020124697394077 -0.01469933712928821 -0.020566788945374542 0.0022880006629824941 -0.0027078152007657618 -0.0084619817251254219 0.0011780303157866 -0.017327151825326469 -0.011346332399095044 -0.00028927906157194202
leaf_weight=7376 20644 134538 4672 37174 510668 17912 102042 7162 6943 16601 141724 9617 31672 7267 4447 381856 21270 62200 33938 29676 51033 1307 29707 414421 37689 10071 1205 11816 10894 52242
leaf_count=7376 20644 134538 4672 37174 510668 17912 102042 7162 6943 16601 141724 9617 31672 7267 4447 381856 21270 62200 33938 29676 51033 1307 29707 414421 37689 10071 1205 11816 10894 52242
internal_value=0 0.00104306 -0.0139546 -0.00354483 0.00163121 -0.0110162 0.00029736 -0.00506685 -0.00954971 -0.0101334 -0.000557606 -0.0206863 -0.007672 -0.0157808 -0.00603871 0.00202113 -0.000671857 -0.00366819 -0.00140814 -0.00822269 0.00169228 -0.00171908 -0.0218462 0.00181873 -0.00143133 -0.0110953 -0.0129989 -0.0148693 -0.010099 0.00137073
internal_weight=0 2.0561e+06 153686 233636 1.82246e+06 106986 412242 152726 81807 77135 277704 46700 53352 25179 36119 1.41022e+06 80910 99374 175662 46277 899552 60266 39324 848519 58959 17233 30858 18759 12099 434098
internal_count=2209784 2056098 153686 233636 1822462 106986 412242 152726 81807 77135 277704 46700 53352 25179 36119 1410220 80910 99374 175662 46277 899552 60266 39324 848519 58959 17233 30858 18759 12099 434098
is_linear=0
shrinkage=0.1


Tree=13
num_leaves=31
num_cat=0
split_feature=0 0 0 2 8 0 0 2 4 7 4 0 1 0 9 7 0 8 2 8 7 4 2 4 4 1 7 2 8 7
split_gain=2617.69 353.143 335.347 79.9777 75.0178 50.0707 49.4247 44.4108 40.1041 34.1907 43.4444 32.8483 31.9962 30.2053 25.1952 24.1304 24.1236 23.4867 21.36 20.7841 23.2768 20.4199 19.5806 19.0484 18.2131 18.1046 17.7388 16.1581 16.0371 15.0094
threshold=51.500000000000007 146.50000000000003 15.500000000000002 304.50000000000006 1.2256395000000002 85.500000000000014 349.50000000000006 362.50000000000006 1.1420500000000002 0.0030475000000000003 0.33125750000000004 30.500000000000004 1335.0000000000002 33.500000000000007 1.8236900000000003 0.0060085000000000008 3.5000000000000004 1.5646970000000002 236.50000000000003 0.42048400000000002 0.0055550000000000009 2.3610565000000006 261.50000000000006 1.3767255000000003 2.0074580000000002 3715.0000000000005 0.0031265000000000004 321.50000000000006 1.5716295000000002 0.0074945000000000003
decision_type=2 2 2 2 2 2 2 2 2 2 2 2 2 2 2 2 2 2 2 2 2 2 2 2 2 2 2 2 2 2
left_child=2 3 8 21 9 17 7 24 16 10 -4 18 -13 -12 25 -16 -1 -5 -6 -18 -21 22 -2 -9 -3 -7 -19 -8 -29 -26
right_child=1 6 4 5 11 14 27 23 -10 -11 13 12 -14 -15 15 -17 19 26 -20 20 -22 -23 -24 -25 29 -27 -28 28 -30 -31
leaf_value=-0.021529587679584173 0.0025734887813464681 0.0015026517908447801 0.0028847483360837146 -0.0042463186471892707 -0.0056250227681717262 0.0013395890459248041 0.0023847490768277822 0.00024844446023716881 -0.020378679573074491 -0.0020247218602109144 -0.011406486659419951 -0.0026105583510435972 -0.010146553405801263 -0.0056363300195782125 -0.0071129390675481272 -0.00068099881886686834 -0.0028107297618955168 -0.012879187764265131 -0.014170476072621311 -0.016939574191117159 -0.010271788791174068 -0.0089255292503195704 -0.00059773543841217707 -0.0020410937648204014 -0.0048704121167639659 -0.0021522586198552979 -0.0065823302181062457 0.0019699912918019536 0.0010329274009278477 0.001097451427633199
leaf_weight=4905 28115 335009 3716 42510 3286 18380 448962 86010 28584 16682 17813 6830 32174 18488 17560 8734 1595 5992 26628 15013 8039 2422 63323 62922 8371 77276 17657 509668 284633 8487
leaf_count=4905 28115 335009 3716 42510 3286 18380 448962 86010 28584 16682 17813 6830 32174 18488 17560 8734 1595 5992 26628 15013 8039 2422 63323 62922 8371 77276 17657 509668 284633 8487
internal_value=0 0.00103652 -0.0114285 -0.00224695 -0.0085223 -0.0034366 0.00156737 0.000728605 -0.0177081 -0.00582806 -0.00741356 -0.0107389 -0.00882692 -0.00846776 -0.00223491 -0.00497646 -0.015125 -0.00565165 -0.0132318 -0.0138504 -0.0146143 0.000137285 0.00037734 -0.000718858 0.00134126 -0.00148131 -0.00817778 0.00190524 0.0016342 -0.00186595
internal_weight=0 2.02603e+06 183753 281969 125617 188109 1.74406e+06 500799 58136 56699 40017 68918 39004 36301 121950 26294 29552 66159 29914 24647 23052 93860 91438 148932 351867 95656 23649 1.24326e+06 794301 16858
internal_count=2209784 2026031 183753 281969 125617 188109 1744062 500799 58136 56699 40017 68918 39004 36301 121950 26294 29552 66159 29914 24647 23052 93860 91438 148932 351867 95656 23649 1243263 794301 16858
is_linear=0
shrinkage=0.1


Tree=14
num_leaves=31
num_cat=0
split_feature=0 0 0 2 8 0 9 8 7 7 4 9 0 0 0 7 4 7 3 6 7 7 3 8 3 7 4 4 3 2
split_gain=2134.46 380.507 192.133 71.7286 68.5984 60.9453 42.048 38.1792 67.9518 34.2268 33.0473 27.5322 26.4679 26.0569 25.0669 23.1021 22.3829 20.0166 19.8957 19.1678 22.2212 19.0876 24.3122 18.566 16.6446 16.6026 16.0132 15.9584 15.4218 14.6561
threshold=66.500000000000014 21.500000000000004 209.50000000000003 306.50000000000006 0.90137100000000014 6.5000000000000009 1.2333495000000003 1.8078970000000003 0.0043855000000000014 0.0081135000000000009 1.1169715000000002 1.2270220000000003 102.50000000000001 501.50000000000006 33.500000000000007 0.0018045000000000003 0.33125750000000004 0.0031265000000000004 2.0086830000000004 0.42913450000000003 0.0036825000000000004 0.0033935000000000002 2.1396985000000002 0.98691750000000011 2.1396985000000002 0.014443500000000001 1.7873085000000002 2.3610565000000006 2.8822800000000002 391.50000000000006
decision_type=2 2 2 2 2 2 2 2 2 2 2 2 2 2 2 2 2 2 2 2 2 2 2 2 2 2 2 2 2 2
left_child=1 5 3 27 15 -1 -5 8 14 -9 19 -4 -8 17 -6 16 -3 24 -10 -7 -21 22 29 -22 -13 26 -12 -2 -29 -14
right_child=2 4 11 6 7 10 12 9 18 -11 25 13 21 -15 -16 -17 -18 -19 -20 20 23 -23 -24 -25 -26 -27 -28 28 -30 -31
leaf_value=-0.018945884364617804 0.0012640788111250162 0.0032987379901617264 0.0020635596740132939 -6.5554177969472048e-05 -0.011462265211865261 -0.00067085118088941204 -0.0047504711354828385 -0.01342391733135277 -0.0030346177989331626 -0.0060527572785443878 -0.015038713552351394 0.00013071662616794059 -0.00187747317122502 0.0016604151528235478 -0.0069382527801106157 0.0024488190308413959 -0.0050479558353774814 0.0012612544494128074 0.0073216246333794371 -0.013753829087246301 -0.00081074810693456106 -0.00063382673501073824 -0.0085250522168637249 -0.010129342376739701 -0.0031586094841703663 -0.0082842096818517875 -0.021675657327537717 -0.021542201279547681 -0.0028076712482890225 -0.0061925448200598849
leaf_weight=23294 122669 3870 644003 92504 16574 1832 46240 16223 28133 10298 19857 165224 59726 544441 46920 8613 18920 207274 1986 15542 2736 59269 7275 9783 16963 2929 4450 527 2643 9066
leaf_count=23294 122669 3870 644003 92504 16574 1832 46240 16223 28133 10298 19857 165224 59726 544441 46920 8613 18920 207274 1986 15542 2736 59269 7275 9783 16963 2929 4450 527 2643 9066
internal_value=0 -0.0090752 0.00106434 -0.000893425 -0.00612463 -0.0146348 -0.00180089 -0.00721243 -0.00626356 -0.0105617 -0.012877 0.00156054 -0.00268496 0.00121366 -0.00811917 -0.00196317 -0.00363059 0.00058913 -0.00235174 -0.0105812 -0.0112282 -0.00197923 -0.00302753 -0.00809278 -0.000175545 -0.0153967 -0.0162538 0.00108305 -0.00592221 -0.00244615
internal_weight=0 231960 1.97782e+06 399919 151537 80423 274080 120134 93613 26521 57129 1.5779e+06 181576 933902 63494 31403 22790 389461 30119 29893 28061 135336 76067 12519 182187 27236 24307 125839 3170 68792
internal_count=2209784 231960 1977824 399919 151537 80423 274080 120134 93613 26521 57129 1577905 181576 933902 63494 31403 22790 389461 30119 29893 28061 135336 76067 12519 182187 27236 24307 125839 3170 68792
is_linear=0
shrinkage=0.1


Tree=15
num_leaves=31
num_cat=0
split_feature=0 0 0 2 0 8 7 4 8 1 7 3 9 2 4 7 7 4 3 4 7 0 7 4 4 7 3 4 0 9
split_gain=1736.94 300.209 167.789 61.2673 50.8402 47.2215 40.1634 45.4944 38.606 37.034 31.1399 29.771 23.9159 22.3515 21.758 20.8883 20.4658 17.1501 18.4904 17.1865 17.0904 16.7893 16.239 16.2372 16.0855 18.6525 15.6782 15.6698 14.7747 14.7596
threshold=42.500000000000007 118.50000000000001 12.500000000000002 289.50000000000006 221.50000000000003 1.8171885000000001 0.0048675000000000012 0.7743675000000001 1.6088450000000003 4815.0000000000009 0.0024545000000000005 1.1458770000000003 1.2290555000000001 378.50000000000006 1.0517605000000001 0.0084540000000000014 0.0035315000000000004 2.2004235000000008 2.7331775000000005 1.1169715000000002 0.015882500000000004 27.500000000000004 0.006931500000000001 1.1832085000000003 0.21389250000000001 0.0014585000000000004 2.1625195000000006 2.3610565000000006 594.50000000000011 1.8236900000000003
decision_type=2 2 2 2 2 2 2 2 2 2 2 2 2 2 2 2 2 2 2 2 2 2 2 2 2 2 2 2 2 2
left_child=2 3 14 27 9 6 7 24 10 -3 11 -5 -11 -6 -1 -7 -10 18 19 -18 -19 -9 29 -15 -4 -26 -12 -2 -25 -21
right_child=1 4 5 8 13 15 -8 21 16 12 26 -13 -14 23 -16 -17 17 20 -20 22 -22 -23 -24 28 25 -27 -28 -29 -30 -31
leaf_value=-0.0128083062151061 0.00045831561312611763 0.001819413752951464 0.0046319724330204882 -0.0018230397994044131 0.0016143517032127935 -0.015533064320717519 -0.0036326497292074704 -0.012295115993717368 -0.0087555578795075455 0.00064723340939174781 -0.00090274990487469872 -0.0059222245529611918 -0.0016202556263990274 0.0017694454795968825 -0.017159430195254798 -0.008873851349845396 -0.01078899055734342 -0.01277065703438679 0.0054693673208561612 -0.00079190584035197787 0.0064525800290703289 -0.0083614009233281116 0.0014888675541126009 -0.00060360627340887976 -0.0080099509394513605 -0.0015243844514998333 0.013978750787903671 -0.00959079955294408 0.0010294938037404447 -0.006486378087440816
leaf_weight=20431 57159 76272 1767 34487 1231377 10623 24281 20683 16293 74280 50570 36436 124445 94468 26269 8463 3617 3778 2060 6654 527 22822 5336 112060 10845 7502 718 1595 109560 14406
leaf_count=20431 57159 76272 1767 34487 1231377 10623 24281 20683 16293 74280 50570 36436 124445 94468 26269 8463 3617 3778 2060 6654 527 22822 5336 112060 10845 7502 718 1595 109560 14406
internal_value=0 0.000766501 -0.0102547 -0.00260831 0.00119915 -0.00807166 -0.00709269 -0.00841326 -0.00354693 -5.37675e-05 -0.00257153 -0.00392896 -0.000772707 0.0014218 -0.0152558 -0.0125803 -0.00581014 -0.00449094 -0.00369546 -0.0043245 -0.0104174 -0.0102316 -0.00343868 0.000671671 -0.00448042 -0.00535803 -0.000694418 0.000185511 0.000203733 -0.00468718
internal_weight=0 2.0561e+06 153686 233636 1.82246e+06 106986 87900 63619 174882 274997 122211 70923 198725 1.54746e+06 46700 19086 52671 36378 32073 30013 4305 43505 26396 316088 20114 18347 51288 58754 221620 21060
internal_count=2209784 2056098 153686 233636 1822462 106986 87900 63619 174882 274997 122211 70923 198725 1547465 46700 19086 52671 36378 32073 30013 4305 43505 26396 316088 20114 18347 51288 58754 221620 21060
is_linear=0
shrinkage=0.1


Tree=16
num_leaves=31
num_cat=0
split_feature=0 0 0 8 2 0 7 7 4 4 7 9 2 0 4 4 7 2 8 4 4 8 4 7 0 7 8 2 8 8
split_gain=1422.74 254.483 125.252 56.4494 45.315 32.2937 28.141 27.6603 32.7958 26.6353 26.8029 26.4473 26.2813 27.5453 25.93 37.18 25.9764 21.6644 21.3699 20.5438 19.9581 19.1018 19.072 18.3324 15.8978 15.4029 20.8962 14.952 14.5335 13.7912
threshold=66.500000000000014 18.500000000000004 169.50000000000003 1.2256395000000002 341.50000000000006 6.5000000000000009 0.0057095000000000002 0.0026505000000000005 0.57049500000000009 1.3200885000000002 0.0035795000000000007 1.8461725000000002 319.50000000000006 493.50000000000006 2.1432180000000005 0.88434250000000014 0.019409500000000007 268.50000000000006 0.68200700000000014 1.1882765000000004 2.0074580000000002 2.3764240000000005 1.7168380000000003 0.0027275000000000003 33.500000000000007 0.0066865000000000006 1.8078970000000003 399.50000000000006 1.6597985000000002 2.1998655000000005
decision_type=2 2 2 2 2 2 2 2 2 2 2 2 2 2 2 2 2 2 2 2 2 2 2 2 2 2 2 2 2 2
left_child=1 5 4 7 17 -1 11 8 -3 -6 -11 23 -4 20 15 -8 -16 -2 -7 -17 27 -19 -12 -5 -10 28 -27 -14 -20 -22
right_child=2 3 12 6 9 18 14 -9 24 10 22 -13 13 -15 16 19 -18 21 25 -21 29 -23 -24 -25 -26 26 -28 -29 -30 -31
leaf_value=-0.015514243288296878 0.0022110934426460534 -0.00021070213135684327 0.0017375201807977383 -0.0099235083065010252 -0.0012633609697339618 -0.0044340915836615829 -0.0091063944660138684 -0.00045371779870505887 -0.0093091441505102537 -0.0063999080710274922 0.0011994598251998763 -0.012572759276345467 0.00070161661667495899 0.0013568042009421642 -0.016589326417547352 0.0075047415673907382 0.0011150337252326104 -0.00033109688064174195 -0.012274918213947286 -0.0024126865491134603 -0.0095067136980126216 -0.0059284495748261655 -0.004766841821595205 -0.0056640145873137959 -0.0047388888231651447 -0.0060647721654218762 -0.013197660374376575 -0.0011223453215020818 -0.019341952478061863 -0.0016102862061036238
leaf_weight=23294 34488 12802 594498 15815 65445 4543 8595 24481 10816 27685 11060 11597 401798 608763 3147 2360 1125 140724 21604 18172 2441 6373 10392 27982 25688 9070 7506 50604 3363 23553
leaf_count=23294 34488 12802 594498 15815 65445 4543 8595 24481 10816 27685 11060 11597 401798 608763 3147 2360 1125 140724 21604 18172 2441 6373 10392 27982 25688 9070 7506 50604 3363 23553
internal_value=0 -0.00740926 0.000868961 -0.00524552 -0.0010273 -0.0124796 -0.00694414 -0.00320145 -0.00456573 -0.00258446 -0.00434403 -0.00832648 0.00120292 0.000910586 -0.00465145 -0.00358436 -0.011927 -4.47124e-05 -0.0109458 -0.00127275 0.00034277 -0.000573603 -0.0016908 -0.00720211 -0.00609304 -0.0116579 -0.00929471 0.000497595 -0.0132268 -0.00235181
internal_weight=0 231960 1.97782e+06 162580 296167 69380 88793 73787 49306 114582 49137 55394 1.68166e+06 1.08716e+06 33399 29127 4272 181585 46086 20532 478396 147097 21452 43797 36504 41543 16576 452402 24967 25994
internal_count=2209784 231960 1977824 162580 296167 69380 88793 73787 49306 114582 49137 55394 1681657 1087159 33399 29127 4272 181585 46086 20532 478396 147097 21452 43797 36504 41543 16576 452402 24967 25994
is_linear=0
shrinkage=0.1


Tree=17
num_leaves=31
num_cat=0
split_feature=0 0 0 2 0 8 8 8 7 3 7 4 7 3 7 8 4 7 0 2 6 2 1 4 2 4 7 1 0 7
split_gain=1162.76 217.869 95.6437 46.1399 39.6924 36.8126 30.7305 28.3185 24.3754 26.5135 23.009 19.7214 19.4451 21.2046 19.1566 27.385 17.3743 16.1985 15.7889 15.324 15.0264 14.9742 14.2655 13.8259 13.8767 13.5777 13.1035 12.8296 12.2023 11.8373
threshold=39.500000000000007 108.50000000000001 12.500000000000002 289.50000000000006 293.50000000000006 1.0851730000000004 1.1268620000000003 1.2195565000000002 0.0033625000000000005 2.1396985000000002 0.0020725000000000006 1.9823770000000003 0.0024335000000000003 0.48873250000000007 0.0030965000000000003 1.8171885000000001 1.3933445000000002 0.0066865000000000006 82.500000000000014 220.50000000000003 0.74896600000000013 394.50000000000006 3625.0000000000005 1.7728765000000004 416.50000000000006 2.3610565000000006 0.0089485000000000016 1705.0000000000002 3.5000000000000004 0.0061045000000000014
decision_type=2 2 2 2 2 2 2 2 2 2 2 2 2 2 2 2 2 2 2 2 2 2 2 2 2 2 2 2 2 2
left_child=2 3 16 19 5 -3 12 10 9 21 20 -10 13 -4 -8 -16 28 -13 27 -2 -5 -7 -20 24 -6 -21 -17 -9 -1 -30
right_child=1 4 6 7 23 8 14 18 11 -11 -12 17 -14 -15 15 26 -18 -19 22 25 -22 -23 -24 -25 -26 -27 -28 -29 29 -31
leaf_value=-0.014798400472441291 0.0053261656955689556 0.0014304453211374259 0.00068849667678268125 0.00046255555978802921 0.0014009743235470547 -0.00058018638497202594 -0.011660218780020212 0.00018309747241700689 0.00090304675545554037 -0.0056843796185024444 0.0011153611365123397 -0.0056526623908784504 -0.0015047469581261745 -0.0076773025083087089 -0.0055671396440391801 -0.012960567342623389 -0.015221250041117707 0.00011922151542585052 -0.00031208100171290919 -0.00019887746763802176 -0.0040344303849005909 -0.0037888338121058514 -0.004353571370755439 0.00028188737133141173 -0.00036149048115902377 -0.010409946224623975 -0.0073699164094244048 -0.005708077253928856 -0.011709063441773892 -0.0071625786201529448
leaf_weight=6939 5016 156247 3601 9726 1187080 139759 13122 3953 134267 12592 20671 8875 13038 19101 30821 9750 15032 10754 14871 50058 31481 16234 21163 138784 46420 1337 7355 57008 15721 9008
leaf_count=6939 5016 156247 3601 9726 1187080 139759 13122 3953 134267 12592 20671 8875 13038 19101 30821 9750 15032 10754 14871 50058 31481 16234 21163 138784 46420 1337 7355 57008 15721 9008
internal_value=0 0.000604481 -0.00870481 -0.00240644 0.000954669 0.00017065 -0.00691145 -0.00327879 -0.00043974 -0.00127041 -0.00160725 0.000470214 -0.00458265 -0.00635032 -0.00827482 -0.00734791 -0.0124216 -0.00249046 -0.00434515 5.03898e-05 -0.00297302 -0.000914106 -0.00268567 0.00122818 0.00133465 -0.00046451 -0.0105566 -0.00532607 -0.0110927 -0.0100529
internal_weight=0 2.0663e+06 143488 215284 1.85101e+06 478728 96788 158873 322481 168585 61878 153896 35740 22702 61048 47926 46700 19629 96995 56411 41207 155993 36034 1.37228e+06 1.2335e+06 51395 17105 60961 31668 24729
internal_count=2209784 2066296 143488 215284 1851012 478728 96788 158873 322481 168585 61878 153896 35740 22702 61048 47926 46700 19629 96995 56411 41207 155993 36034 1372284 1233500 51395 17105 60961 31668 24729
is_linear=0
shrinkage=0.1


Tree=18
num_leaves=31
num_cat=0
split_feature=0 0 0 8 2 0 6 7 7 8 7 4 9 0 2 8 7 2 3 4 3 3 4 4 4 2 3 3 0 3
split_gain=946.199 133.724 116.649 40.322 38.0563 31.8681 24.8087 40.8448 30.3115 21.0706 21.3051 24.9155 20.7752 21.6286 17.8987 17.8297 23.8454 17.6496 23.4035 18.8437 15.588 17.6039 15.565 14.4535 18.1821 13.985 13.2202 16.1291 12.4726 12.3697
threshold=54.500000000000007 24.500000000000004 165.50000000000003 0.89253650000000018 281.50000000000006 6.5000000000000009 1.8236060000000003 0.0023745000000000003 0.0066865000000000006 1.6802415000000002 0.0051885000000000013 0.52669200000000005 1.2270220000000003 638.50000000000011 314.50000000000006 1.4362680000000003 0.0031655000000000003 367.50000000000006 2.0086830000000004 1.3200885000000002 1.9399145000000002 2.3437520000000007 2.1129600000000006 1.5845120000000001 2.7444205000000004 212.50000000000003 2.2486750000000009 2.1396985000000002 92.500000000000014 2.4800650000000002
decision_type=2 2 2 2 2 2 2 2 2 2 2 2 2 2 2 2 2 2 2 2 2 2 2 2 2 2 2 2 2 2
left_child=1 5 3 -2 25 -1 7 28 20 10 11 -7 -4 14 -14 16 -6 18 -9 -19 -8 26 -16 -10 -25 -3 27 -22 -5 -24
right_child=2 4 12 6 15 9 8 17 23 -11 -12 -13 13 -15 22 -17 -18 19 -20 -21 21 -23 29 24 -26 -27 -28 -29 -30 -31
leaf_value=-0.012653874583617029 0.001117020316858951 0.0055101997071113715 0.0013952554264827915 -0.0045946273776077007 -0.005531536215959065 -0.0021954974161112915 -0.011463012052590834 0.00024947465519096953 -0.0043963491015654001 -0.011380623677224337 -0.0042456973096502383 -0.0097847979504507125 0.0013223293953853639 0.0012722053814255871 0.0001691809076399491 -0.0073817767264130396 0.00034702983198930113 0.00047903955060971961 0.0086474276487703335 -0.006107433886630184 -0.0017295328152542929 -0.0084946134919533511 -0.0078748885186155724 0.0023924847239714161 -0.0076460064833961871 -0.0020597976690539931 0.001867825289245722 -0.0077674475700523328 -0.0019782980169406753 -0.0014750815473594623
leaf_weight=23294 65575 2645 691331 27708 28723 5049 3735 99445 7095 17312 15465 30200 137436 383608 452246 30080 9082 8430 3433 8961 10278 8500 3448 13485 2083 31559 4255 7768 53217 24338
leaf_count=23294 65575 2645 691331 27708 28723 5049 3735 99445 7095 17312 15465 30200 137436 383608 452246 30080 9082 8430 3433 8961 10278 8500 3448 13485 2083 31559 4255 7768 53217 24338
internal_value=0 -0.00668134 0.000640869 -0.00109756 -0.00419443 -0.00946152 -0.00165957 -0.00113712 -0.00349728 -0.00836837 -0.0073401 -0.00869772 0.000973646 0.000682488 0.00031612 -0.00556492 -0.00411931 3.16392e-05 0.000529711 -0.00291475 -0.00536208 -0.00462226 2.80361e-05 -0.000655521 0.00104933 -0.00147441 -0.00314632 -0.00432859 -0.00287411 -0.00226924
internal_weight=0 193409 2.01638e+06 323968 102089 91320 258393 201194 57199 68026 50714 35249 1.69241e+06 1.00108e+06 617468 67885 37805 120269 102878 17391 34536 30801 480032 22663 15568 34204 22301 18046 80925 27786
internal_count=2209784 193409 2016375 323968 102089 91320 258393 201194 57199 68026 50714 35249 1692407 1001076 617468 67885 37805 120269 102878 17391 34536 30801 480032 22663 15568 34204 22301 18046 80925 27786
is_linear=0
shrinkage=0.1


Tree=19
num_leaves=31
num_cat=0
split_feature=0 0 0 1 0 1 8 2 6 8 7 0 1 4 2 4 6 7 4 9 0 1 7 6 2 4 3 4 4 10
split_gain=774.864 160.956 54.3178 36.2959 33.0113 29.7886 27.2039 23.8992 19.7412 18.2511 20.4541 16.5385 18.1707 13.9015 13.5294 14.2818 20.0645 13.2864 11.5414 11.0164 10.8987 11.0758 10.521 11.4974 10.5027 18.8907 12.0921 10.2239 11.1538 14.0428
threshold=36.500000000000007 95.500000000000014 12.500000000000002 1615.0000000000002 213.50000000000003 4075.0000000000005 1.1007990000000001 227.50000000000003 1.3341440000000002 1.4556140000000002 0.0031655000000000003 51.500000000000007 2345.0000000000005 0.91576950000000001 399.50000000000006 2.0074580000000002 2.2248085000000004 0.0047135000000000015 0.7743675000000001 2.1089325000000003 66.500000000000014 3075.0000000000005 0.0017575000000000002 1.8236060000000003 391.50000000000006 1.3788520000000004 1.7314075000000002 1.3495810000000001 1.5525105000000001 1.6716210000000002
decision_type=2 2 2 2 2 2 2 2 2 2 2 2 2 2 2 2 2 2 2 2 2 2 2 2 2 2 2 2 2 2
left_child=2 3 13 -2 5 -3 -5 -4 -7 10 18 -8 19 -1 15 -6 -17 -11 -9 -13 -14 -22 -10 24 26 -26 -24 -16 29 -29
right_child=1 4 7 6 14 8 11 9 22 17 -12 12 20 -15 27 16 -18 -19 -20 -21 21 -23 23 -25 25 -27 -28 28 -30 -31
leaf_value=-0.0077959001455059143 0.0013785949759200673 0.0015819684518309765 -0.0011543286523993156 -0.0010099257723926122 0.0011007281472132362 0.00018888354206589655 -0.0060779376389719347 -0.0044363193653276208 -0.0045149218440143453 -0.01159185463156579 -0.0024595477777547572 0.0012190199364304054 -0.0060361887374552146 -0.011410177310858617 0.00096694293100513674 -0.0079348710218512964 2.5405637788973352e-05 -0.0070320684947713964 -0.0084519013215621133 -0.004415567752127386 -0.0012602901171716472 -0.0042825877416115925 -0.0012143124544958792 -0.0026484203554120768 0.0009441673605982509 -0.0080215636855841491 0.0016424162376680762 -0.00026758972903859999 0.0001297574035344773 -0.0048464791845289242
leaf_weight=16404 23224 74435 9421 54127 1367924 124177 23864 12048 11243 9090 16850 13171 17051 30296 55782 3318 69322 21516 17633 4711 19737 31442 36750 40563 4586 4820 24827 14053 44602 12797
leaf_count=16404 23224 74435 9421 54127 1367924 124177 23864 12048 11243 9090 16850 13171 17051 30296 55782 3318 69322 21516 17633 4711 19737 31442 36750 40563 4586 4820 24827 14053 44602 12797
internal_value=0 0.000474368 -0.00739196 -0.00232155 0.000751602 -0.000171636 -0.00284519 -0.005909 -0.000700169 -0.00648971 -0.00524219 -0.00374846 -0.0031029 -0.0101406 0.000940868 0.00102817 -0.000338198 -0.00838633 -0.00682191 -0.000265408 -0.00384656 -0.00311705 -0.00159927 -0.00130539 -0.000537927 -0.00365022 -6.25187e-05 -4.75925e-05 -0.000839632 -0.00244994
internal_weight=0 2.07653e+06 133258 187327 1.8892e+06 321401 164103 86558 246966 77137 46531 109976 86112 46700 1.5678e+06 1.44056e+06 72640 30606 29681 17882 68230 51179 122789 111546 70983 9406 61577 127234 71452 26850
internal_count=2209784 2076526 133258 187327 1889199 321401 164103 86558 246966 77137 46531 109976 86112 46700 1567798 1440564 72640 30606 29681 17882 68230 51179 122789 111546 70983 9406 61577 127234 71452 26850
is_linear=0
shrinkage=0.1


Tree=20
num_leaves=31
num_cat=0
split_feature=0 0 0 2 2 4 8 8 7 7 8 3 3 0 2 0 4 2 7 3 4 3 4 7 8 8 4 7 8 7
split_gain=630.002 130.119 46.6394 30.7361 27.4667 23.3742 19.1219 18.6678 18.199 17.8271 17.8235 17.7697 16.6374 15.0853 13.3127 13.8724 13.5251 13.2426 12.9521 13.1544 12.6266 14.0566 12.0817 11.6547 18.08 13.61 10.9654 10.9404 10.8561 15.5214
threshold=72.500000000000014 24.500000000000004 197.50000000000003 278.50000000000006 289.50000000000006 1.4585935000000003 1.5517250000000002 1.5646970000000002 0.0036155000000000002 0.0030965000000000003 0.15029950000000003 1.7322685000000002 1.7245760000000001 3.5000000000000004 315.50000000000006 678.50000000000011 2.1129600000000006 212.50000000000003 0.0057095000000000002 1.0263650000000002 2.2004235000000008 2.7331775000000005 0.61527100000000012 0.0026505000000000005 1.4154860000000002 1.0083380000000002 2.7843990000000005 0.0015455000000000002 1.3292270000000002 0.0023965000000000006
decision_type=2 2 2 2 2 2 2 2 2 2 2 2 2 2 2 2 2 2 2 2 2 2 2 2 2 2 2 2 2 2
left_child=1 5 4 17 -2 10 12 11 -9 -8 -1 23 28 -12 -4 16 -16 -3 22 -20 21 -10 27 25 -25 -5 -11 -15 29 -6
right_child=2 3 14 7 6 -7 9 8 20 26 13 -13 -14 18 15 -17 -18 -19 19 -21 -22 -23 -24 24 -26 -27 -28 -29 -30 -31
leaf_value=0.0094874805597147307 0.0012788040271959535 0.0051094945359623275 0.0012437921401282411 -0.002459917067970194 -0.00078174949518546814 -0.010422551911033001 -0.0042174050984576878 -0.0093919923233012868 -0.0042249113174053898 -0.0010264206190103121 -0.011225540963785224 0.0040501525438926917 0.0038914330574311307 -0.0068057950834281098 0.00045415706750313547 0.0011138088866559867 -0.0018155334104212216 -0.0012267303927849069 0.0025475167308107406 -0.0052907290331085152 -0.010416670932725407 0.0059570531900161403 -0.0083241621000399238 -9.4389107801772426e-05 -0.0056283916103973923 -0.0059085809678218601 -0.012067446996163774 0.00088910279444394868 -0.0020275261518688443 0.0015729444940355526
leaf_weight=667 73401 3605 527597 22001 97571 23808 27166 9618 24886 65664 7317 3477 8994 4999 669736 383818 27326 38791 2443 17325 3101 1434 31830 20515 8289 23847 912 2931 37458 39257
leaf_count=667 73401 3605 527597 22001 97571 23808 27166 9618 24886 65664 7317 3477 8994 4999 669736 383818 27326 38791 2443 17325 3101 1434 31830 20515 8289 23847 912 2931 37458 39257
internal_value=0 -0.00471808 0.000604263 -0.00299522 -0.000441134 -0.00772845 -0.000896856 -0.00383008 -0.00561574 -0.00205857 -0.00677838 -0.00293784 -0.000302676 -0.00694068 0.000832014 0.000631017 0.000365181 -0.000687951 -0.006414 -0.00432205 -0.00438125 -0.00367016 -0.00745408 -0.00326331 -0.00168692 -0.00425368 -0.00117767 -0.00396169 -0.000519113 -0.00010617
internal_weight=0 250884 1.9589e+06 159564 350423 91320 277022 117168 39039 93742 67512 78129 183280 66845 1.60848e+06 1.08088e+06 697062 42396 59528 19768 29421 26320 39760 74652 28804 45848 66576 7930 174286 136828
internal_count=2209784 250884 1958900 159564 350423 91320 277022 117168 39039 93742 67512 78129 183280 66845 1608477 1080880 697062 42396 59528 19768 29421 26320 39760 74652 28804 45848 66576 7930 174286 136828
is_linear=0
shrinkage=0.1


Tree=21
num_leaves=31
num_cat=0
split_feature=0 0 0 1 0 8 2 6 7 3 0 1 4 7 7 8 7 2 0 1 6 7 4 4 7 8 4 7 4 7
split_gain=518.268 116.003 31.9999 28.8919 23.9838 26.331 23.0811 22.1157 21.14 20.1903 16.2319 20.1294 16.2042 16.0172 15.7384 13.9533 14.7358 13.178 11.8971 16.4656 11.6252 10.9289 10.849 10.7243 10.7206 12.8066 10.3072 12.969 9.69597 9.04842
threshold=33.500000000000007 92.500000000000014 9.5000000000000018 1515.0000000000002 373.50000000000006 1.0851730000000004 204.50000000000003 1.8236060000000003 0.0033625000000000005 2.1396985000000002 45.500000000000007 2155.0000000000005 2.1832170000000004 0.011738500000000001 0.0053125000000000004 1.1268620000000003 0.0015455000000000002 396.50000000000006 60.500000000000007 2805.0000000000005 0.74259200000000014 0.0018345000000000002 1.3495810000000001 0.33125750000000004 0.0036465000000000004 1.8171885000000001 0.88434250000000014 0.0066865000000000006 0.33125750000000004 0.0089485000000000016
decision_type=2 2 2 2 2 2 2 2 2 2 2 2 2 2 2 2 2 2 2 2 2 2 2 2 2 2 2 2 2 2
left_child=2 3 28 -2 5 -3 -4 10 9 17 -5 -12 -10 -14 -9 16 23 21 -13 -20 -18 22 -7 -8 -17 26 -26 -28 -1 -27
right_child=1 4 6 7 -6 8 15 14 12 -11 11 18 13 -15 -16 24 20 -19 19 -21 -22 -23 -24 -25 25 29 27 -29 -30 -31
leaf_value=-0.0030906322952855558 0.0013361681047172687 0.0010237034468147095 0.0013277448446132956 -0.0044674100645255062 0.0008812205457087726 -0.00093874324925633304 0.0011195794383397834 -0.0073955958269400247 0.00067575592572606503 -0.0040282024533012583 0.00098881492966338075 -0.0044184730661096664 -0.0046077228547169082 0.0014427351856743035 -0.0027432026081419341 -0.0089459878180031382 0.0043822330616070685 -0.002953636265621562 0.00046823729676245455 -0.0027135039947044862 -0.0031867522844731123 0.00014221983805396207 -0.0047412019450288534 -0.0081280285769534857 -0.009489874125169372 -0.010315228243089229 -0.0050507004028922291 0.00059683315863928678 -0.0093299581099002288 -0.0053648374412055728
leaf_weight=2697 22906 230664 4978 21132 1189603 67686 1448 13849 208228 19180 26124 18585 11922 6912 15309 14739 2313 22463 25320 45479 16538 132981 8439 9362 3310 8129 14519 5648 32556 6765
leaf_count=2697 22906 230664 4978 21132 1189603 67686 1448 13849 208228 19180 26124 18585 11922 6912 15309 14739 2313 22463 25320 45479 16538 132981 8439 9362 3310 8129 14519 5648 32556 6765
internal_value=0 0.000371809 -0.0063079 -0.00199282 0.000606897 0.000146279 -0.00528556 -0.00245274 -0.000277299 -0.00091026 -0.00191922 -0.00145304 0.000421692 -0.00238723 -0.00495292 -0.0056833 -0.00394592 -0.000652012 -0.00216671 -0.00157561 -0.00225804 -0.000404762 -0.00136027 -0.00688931 -0.00665359 -0.00577304 -0.00431791 -0.00346904 -0.00885262 -0.00806671
internal_weight=0 2.08678e+06 123002 188704 1.89808e+06 708475 87749 165798 477811 250749 136640 115508 227062 18834 29158 82771 29661 231569 89384 70799 18851 209106 76125 10810 53110 38371 23477 20167 35253 14894
internal_count=2209784 2086782 123002 188704 1898078 708475 87749 165798 477811 250749 136640 115508 227062 18834 29158 82771 29661 231569 89384 70799 18851 209106 76125 10810 53110 38371 23477 20167 35253 14894
is_linear=0
shrinkage=0.1


Tree=22
num_leaves=31
num_cat=0
split_feature=0 0 0 9 7 8 7 2 2 0 3 8 1 4 4 0 1 8 7 4 7 4 3 2 6 4 7 2 1 8
split_gain=422.229 81.7371 38.9709 27.6222 22.324 19.0973 27.9215 18.8067 15.207 13.7462 12.8629 12.7733 12.7073 12.6421 12.3941 11.7436 11.2586 10.7137 16.0195 10.38 18.5472 14.1032 10.0202 10.0119 11.5884 9.51272 9.42691 9.36671 9.18484 9.09145
threshold=39.500000000000007 132.50000000000003 15.500000000000002 1.8317045000000001 0.0055550000000000009 0.65574800000000011 0.0024545000000000005 258.50000000000006 353.50000000000006 590.50000000000011 1.1458770000000003 0.42048400000000002 1705.0000000000002 1.5621110000000002 1.6949825000000003 66.500000000000014 2895.0000000000005 1.4408955000000001 0.0032575000000000004 2.3610565000000006 0.016367500000000004 1.5845120000000001 2.8822800000000002 409.50000000000006 1.6060930000000002 1.5993795000000002 0.0036825000000000004 449.50000000000006 165.00000000000003 2.1998655000000005
decision_type=2 2 2 2 2 2 2 2 2 2 2 2 2 2 2 2 2 2 2 2 2 2 2 2 2 2 2 2 2 2
left_child=2 3 11 5 13 -2 10 29 -3 14 -7 -1 -8 -5 23 -14 -17 18 -9 21 22 -6 -21 -10 -25 -23 -19 -26 -13 -4
right_child=1 8 7 4 19 6 12 17 9 -11 -12 28 15 -15 -16 16 -18 26 -20 20 -22 25 -24 24 27 -27 -28 -29 -30 -31
leaf_value=0.00080429685896775773 0.0019340133426560373 0.00085013783555362666 -0.00081828698113990239 -0.018645788022395377 -0.00396615045529907 -0.0011013942069545933 0.0037431384765778683 -0.0050305587259468904 0.00033291141592987829 0.00076179619601314714 -0.0033976973033067802 -0.010522541841633398 -0.0020034196737981 -0.0050284261507610234 -0.001318671011821151 0.002681890746460084 -0.00027668154140671062 -0.010253557261066493 -0.000420912888869786 -0.027896035445955238 0.0025712134219430024 0.01553244189373513 -0.0088023449885530989 5.8863300521044914e-05 -0.0045246675574657771 0.00088264938027344153 -0.005404363335478714 0.0019656249831229689 -0.0069722033133867494 -0.0080776904424199932
leaf_weight=1908 23896 1081820 20824 701 7545 47490 8565 25234 288098 301623 50158 8603 28143 24844 72179 16693 56051 4915 10751 313 1606 457 2255 23141 13325 14724 21747 2669 47625 1881
leaf_count=1908 23896 1081820 20824 701 7545 47490 8565 25234 288098 301623 50158 8603 28143 24844 72179 16693 56051 4915 10751 313 1606 457 2255 23141 13325 14724 21747 2669 47625 1881
internal_value=0 0.000364259 -0.00524551 -0.00121313 -0.00328494 -0.000742755 -0.00105161 -0.00388539 0.000615036 0.000252232 -0.00228092 -0.00724236 4.51181e-05 -0.00540211 -0.000132575 -0.000268833 0.00040224 -0.00477902 -0.00365337 -0.00127441 -0.00585802 -0.000432551 -0.0111296 0.000129047 -0.00137173 0.00132366 -0.00629829 -0.0034416 -0.00751541 -0.00141969
internal_weight=0 2.0663e+06 143488 283441 52445 230996 207100 85352 1.78286e+06 701035 97648 58136 109452 25545 399412 100887 72744 62647 35985 26900 4174 22726 2568 327233 39135 15181 26662 15994 56228 22705
internal_count=2209784 2066296 143488 283441 52445 230996 207100 85352 1782855 701035 97648 58136 109452 25545 399412 100887 72744 62647 35985 26900 4174 22726 2568 327233 39135 15181 26662 15994 56228 22705
is_linear=0
shrinkage=0.1


Tree=23
num_leaves=31
num_cat=0
split_feature=0 0 0 2 8 2 7 3 6 8 4 3 2 3 7 8 8 4 7 4 3 3 4 3 7 3 4 7 7 4
split_gain=345.932 79.1209 22.1906 22.047 19.3401 19.1602 16.3476 19.5208 15.1746 14.3102 14.1456 13.6574 12.5456 15.9171 12.0999 10.4249 10.1331 10.0605 10.9717 14.9063 12.0852 10.0595 9.87965 10.1072 10.4193 9.41127 9.03448 8.99552 8.69797 8.5947
threshold=78.500000000000014 21.500000000000004 217.50000000000003 253.50000000000003 1.8319310000000002 273.50000000000006 0.0042105000000000016 2.0086830000000004 1.8236060000000003 1.1443335000000003 0.7743675000000001 1.9399145000000002 369.50000000000006 2.0086830000000004 0.0030475000000000003 1.4303105000000003 0.15029950000000003 2.7843990000000005 0.0084540000000000014 1.5316580000000002 2.8822800000000002 1.3941480000000002 2.1832170000000004 2.7331775000000005 0.018807500000000001 2.1355600000000003 1.3274750000000002 0.0014585000000000004 0.0027275000000000003 0.88434250000000014
decision_type=2 2 2 2 2 2 2 2 2 2 2 2 2 2 2 2 2 2 2 2 2 2 2 2 2 2 2 2 2 2
left_child=1 9 5 -3 6 -2 10 15 12 16 27 -10 13 -7 -13 21 -1 18 -6 20 -20 -8 23 24 -16 28 -14 -5 -12 -17
right_child=2 3 -4 4 17 8 7 -9 11 -11 25 14 26 -15 22 29 -18 -19 19 -21 -22 -23 -24 -25 -26 -27 -28 -29 -30 -31
leaf_value=0.0087376111909185719 0.0016121568379647427 0.0006361000127825566 0.00063392559421860924 -0.0021066582486054856 -0.0061624601912732453 4.2791911916635355e-05 -0.00074791964441075598 0.0069149675455674464 -0.0072237107810251798 -0.0069743695607750638 -0.0042139354332093306 -0.0046950000576219978 -0.00061547891168693409 0.0063535116875989275 6.0459028455345182e-05 -0.007617729307065231 -0.0044614399226783046 -0.019017540767840426 -0.010846555536980116 0.00098013033647521191 0.0061244326628154093 0.0050414814972921402 -0.0037325758060678519 0.004978715024179476 -0.0049370311634595772 -0.016191317963455788 -0.0034245646494589898 0.0018336355832063789 -0.0020079117222954763 -0.0017238100078471371
leaf_weight=594 49866 23363 1557534 17165 18617 216225 10982 3390 4473 51864 47432 9763 33127 4072 29953 3022 27965 506 2346 5936 511 4130 9422 3532 4847 578 17496 8746 28680 13647
leaf_count=594 49866 23363 1557534 17165 18617 216225 10982 3390 4473 51864 47432 9763 33127 4072 29953 3022 27965 506 2346 5936 511 4130 9422 3532 4847 578 17496 8746 28680 13647
internal_value=0 -0.00335736 0.000466276 -0.00223975 -0.00264527 -0.000215898 -0.00215894 -0.000298434 -0.000489719 -0.00598452 -0.0027967 -0.00190113 -0.000166769 0.00015944 -0.00148721 -0.00106787 -0.00418691 -0.00504541 -0.00478748 -0.00187631 -0.00781114 0.000834282 -0.000831394 -0.000118283 -0.000635599 -0.00347921 -0.00158634 -0.000776651 -0.00338268 -0.00279235
internal_weight=0 269474 1.94031e+06 189051 165688 382776 137772 35171 332910 80423 102601 61990 270920 220297 57517 31781 28559 27916 27410 8793 2857 15112 47754 38332 34800 76690 50623 25911 76112 16669
internal_count=2209784 269474 1940310 189051 165688 382776 137772 35171 332910 80423 102601 61990 270920 220297 57517 31781 28559 27916 27410 8793 2857 15112 47754 38332 34800 76690 50623 25911 76112 16669
is_linear=0
shrinkage=0.1


Tree=24
num_leaves=31
num_cat=0
split_feature=0 0 8 0 2 4 7 7 4 9 0 4 7 3 8 4 2 7 8 4 3 8 7 7 4 4 7 6 3 7
split_gain=285.743 62.8908 19.0214 18.2104 18.183 15.9529 19.2306 16.055 15.5646 15.1558 15.6792 15.0617 14.2338 15.9748 13.0029 13.6384 12.8083 11.4721 9.5952 10.1479 9.64085 9.02129 13.6118 12.5964 10.9181 10.7179 10.5303 8.98123 10.2244 8.52575
threshold=33.500000000000007 108.50000000000001 0.65574800000000011 9.5000000000000018 204.50000000000003 2.1262485000000004 0.0048105000000000014 0.016367500000000004 0.48464500000000005 1.2270220000000003 325.50000000000006 1.3200885000000002 0.0033625000000000005 1.1629700000000003 1.4056765000000002 0.87494100000000008 372.50000000000006 0.0015355000000000002 1.7723865000000003 1.5435735000000002 1.9399145000000002 1.4556140000000002 0.0034915000000000002 0.0061045000000000014 0.88434250000000014 2.1432180000000005 0.013772500000000002 0.92414350000000012 1.6602250000000003 0.0019325000000000002
decision_type=2 2 2 2 2 2 2 2 2 2 2 2 2 2 2 2 2 2 2 2 2 2 2 2 2 2 2 2 2 2
left_child=3 2 -2 -1 -5 6 11 -7 -8 -3 12 17 13 -11 -10 -16 -15 -4 19 -14 -20 22 -6 -23 -25 26 -26 -19 -29 -13
right_child=1 9 5 4 21 7 8 -9 14 10 -12 29 18 16 15 -17 -18 27 20 -21 -22 23 -24 24 25 -27 -28 28 -30 -31
leaf_value=-0.0066034327647759711 0.0016812810024069516 0.00081587572255307865 -0.0027352827361598274 0.0019572622577145398 -0.0046098065617930211 -0.0079092433158392018 -0.0020989297181921028 0.0028851674608229125 0.0050106335423351226 -0.024192506260542836 0.00047979987456742303 -0.0081153752321865402 0.00068298372016241437 -0.00028710433948020176 -0.0090500834983415629 0.0008698919568682497 -0.0021407820233343661 0.0025523829444310431 -0.0047368855476603976 0.004478425135350763 -0.00021622527458575215 -0.0076987997437422562 -0.0011348879566686302 -0.010501634609174571 -0.002883820946720273 -0.0086922918594710095 0.0049968371899308467 -0.0013102007550451671 0.0043698314592599567 -0.003143820658116712
leaf_weight=35253 20085 757312 38186 4978 33008 6895 20326 1722 7643 297 769238 3803 80190 99885 1452 30459 59468 8115 5049 7723 71850 14931 17119 2113 10987 2608 2005 56624 3357 37103
leaf_count=35253 20085 757312 38186 4978 33008 6895 20326 1722 7643 297 769238 3803 80190 99885 1452 30459 59468 8115 5049 7723 71850 14931 17119 2113 10987 2608 2005 56624 3357 37103
internal_value=0 0.000276077 -0.00126213 -0.00468376 -0.00391254 -0.00153623 -0.00136079 -0.00575211 0.000150113 0.000472004 0.000233897 -0.00197546 -0.000349094 -0.00102205 0.00130585 0.000418518 -0.000978867 -0.00134789 0.000302788 0.00101641 -0.000513041 -0.00426556 -0.00342308 -0.00555925 -0.00375573 -0.00284201 -0.00166763 -0.000569882 -0.000992302 -0.00360602
internal_weight=0 2.08678e+06 235770 123002 87749 215685 207068 8617 59880 1.85101e+06 1.0937e+06 147188 324462 159650 39554 31911 159353 106282 164812 87913 76899 82771 50127 32644 17713 15600 12992 68096 59981 40906
internal_count=2209784 2086782 235770 123002 87749 215685 207068 8617 59880 1851012 1093700 147188 324462 159650 39554 31911 159353 106282 164812 87913 76899 82771 50127 32644 17713 15600 12992 68096 59981 40906
is_linear=0
shrinkage=0.1


Tree=25
num_leaves=31
num_cat=0
split_feature=0 0 0 2 8 1 0 1 2 4 4 0 4 9 8 7 2 7 10 4 7 8 8 4 3 3 4 4 4 4
split_gain=234.207 34.2464 30.765 15.3748 15.2182 12.7186 12.5596 17.4079 11.2006 13.8501 10.1174 9.86839 9.71981 8.39 8.34278 8.3363 8.28997 8.84062 9.29383 8.93388 8.07625 9.57503 8.39815 9.5359 9.94 8.29338 7.53917 7.33165 7.29715 7.15549
threshold=48.500000000000007 146.50000000000003 18.500000000000004 258.50000000000006 0.90137100000000014 2065.0000000000005 82.500000000000014 3535.0000000000005 285.50000000000006 2.1432180000000005 1.3933445000000002 687.50000000000011 1.8187710000000001 2.1089325000000003 0.15029950000000003 0.0015245000000000002 399.50000000000006 0.0028925000000000005 1.6716210000000002 1.6245760000000002 0.0034915000000000002 1.5716295000000002 1.4362680000000003 0.88434250000000014 2.1625195000000006 2.8822800000000002 1.6113265000000003 1.4401935000000001 0.45862850000000005 1.5702225000000001
decision_type=2 2 2 2 2 2 2 2 2 2 2 2 2 2 2 2 2 2 2 2 2 2 2 2 2 2 2 2 2 2
left_child=2 4 10 -4 15 -6 -7 13 -3 11 14 16 20 -8 -1 -2 -10 18 -18 26 21 28 -22 25 -25 -24 -20 -26 -5 -29
right_child=1 8 3 12 5 6 7 -9 9 -11 -12 -13 -14 -15 -16 -17 17 -19 19 -21 22 -23 23 24 27 -27 -28 29 -30 -31
leaf_value=0.0083689636929305863 -5.592471608164676e-05 0.0010473211779870439 -5.1076282766572876e-05 0.0026996249170857601 0.0015572804208885604 -0.0023806681294176696 0.0021091573226636961 -0.0013512619871891764 0.00032606751040496464 -0.0013057922852206586 -0.0069729390429490948 0.00080245053024594276 -0.0063512572605217421 -0.0016475678489380717 -0.0044893359725125355 0.0025100212115103052 -0.0004111642526571928 0.00072243983822426437 -0.0040852496312557092 -0.0013893657002643862 0.000782816585152236 -0.0087866461529239777 -0.010071425603640294 -0.0027217125878457359 0.017743738861903443 0.0083761479672494719 -0.011542826376574809 -0.020473947695323402 -0.0034780962676099524 0.0035390130090163481
leaf_weight=510 42273 280633 21432 2014 17063 69840 25888 111016 881210 48399 21248 448123 8077 7717 47622 18075 34851 28826 7145 13202 10743 3280 2419 16136 344 271 1673 133 37768 1853
leaf_count=510 42273 280633 21432 2014 17063 69840 25888 111016 881210 48399 21248 448123 8077 7717 47622 18075 34851 28826 7145 13202 10743 3280 2419 16136 344 271 1673 133 37768 1853
internal_value=0 0.000300837 -0.00352306 -0.00243897 -0.000701724 -0.00107038 -0.00127944 -0.000747638 0.000468617 0.000357642 -0.00515543 0.000414538 -0.00305529 0.00124647 -0.00435309 0.000712609 0.000234756 -0.000704191 -0.0014273 -0.00303554 -0.00270015 -0.00359351 -0.00149415 -0.0026504 -0.00184008 -0.00821295 -0.00550014 0.00426549 -0.00316534 0.00193089
internal_weight=0 2.03593e+06 173850 104470 291872 231524 214461 144621 1.74406e+06 1.46343e+06 69380 1.41503e+06 83038 33605 48132 60348 966907 85697 56871 22020 74961 43062 31899 21156 18466 2690 8818 2330 39782 1986
internal_count=2209784 2035934 173850 104470 291872 231524 214461 144621 1744062 1463429 69380 1415030 83038 33605 48132 60348 966907 85697 56871 22020 74961 43062 31899 21156 18466 2690 8818 2330 39782 1986
is_linear=0
shrinkage=0.1


Tree=26
num_leaves=31
num_cat=0
split_feature=0 0 1 0 4 8 6 2 2 7 8 3 3 4 4 3 7 5 7 1 0 5 0 1 0 4 4 7 9 2
split_gain=191.3 38.5983 16.6251 15.5662 11.91 21.5876 11.6587 11.5604 10.0239 9.75382 11.4512 9.47174 9.08581 9.04966 12.3264 13.0558 11.887 8.7776 8.68668 8.58881 17.938 8.18527 8.08803 11.2355 8.04963 7.53234 7.3933 7.1434 8.31689 7.09246
threshold=36.500000000000007 98.500000000000014 1615.0000000000002 12.500000000000002 2.0074580000000002 2.1998655000000005 1.8236060000000003 236.50000000000003 399.50000000000006 0.011159000000000002 2.4018445000000006 2.7331775000000005 2.3437520000000007 1.3495810000000001 1.5525105000000001 1.8844335000000003 0.0028925000000000005 1.6901845000000002 0.0057095000000000002 4165.0000000000009 138.50000000000003 1.4825185000000003 48.500000000000007 2245.0000000000005 401.50000000000006 1.8187710000000001 0.023019000000000001 0.019409500000000007 2.6905435000000004 326.50000000000006
decision_type=2 2 2 2 2 2 2 2 2 2 2 2 2 2 2 2 2 2 2 2 2 2 2 2 2 2 2 2 2 2
left_child=3 2 -2 -1 8 -6 22 26 19 10 11 12 -7 21 15 -15 -16 -17 -8 -3 -21 -10 -4 -24 -12 -9 -5 28 -20 -14
right_child=1 4 6 7 5 9 18 25 13 -11 24 -13 29 14 16 17 -18 -19 27 20 -22 -23 23 -25 -26 -27 -28 -29 -30 -31
leaf_value=-0.0051442929394325976 0.0014089786626244353 0.0015519831179351307 -0.0028611278608768704 -0.0078007949382870581 -0.0065264126755615846 0.0027235922777019261 -0.0047801457986992322 -0.0030478856315756257 -0.00040949516787283039 0.0014263475760916118 -0.0041204275268550633 0.0030170311789314273 0.00067695284613319279 -0.00099162020134288434 -0.001384550567992837 -0.00089446447753522131 0.0020856338177020883 -0.0069188133588862794 0.0010456631280448172 -0.0013010645184419467 0.00051615620899946306 0.0019295721455591661 0.0011399776349203044 -0.0012348401016047765 -0.00097113777420467027 -0.0065034462043013098 0.00051045986599795271 -0.0054628305568479134 -0.0067874087767375788 -0.0036412999629025604
leaf_weight=46700 23296 74220 21187 1171 5995 5599 16369 65966 39666 23380 13524 9713 6235 17742 25811 3343 15984 8746 9059 56333 1519930 24020 25116 96333 20297 6975 12446 3281 1594 9753
leaf_count=46700 23296 74220 21187 1171 5995 5599 16369 65966 39666 23380 13524 9713 6235 17742 25811 3343 15984 8746 9059 56333 1519930 24020 25116 96333 20297 6975 12446 3281 1594 9753
internal_value=0 0.000235701 -0.00109886 -0.00367286 0.000374981 -0.000719106 -0.00143669 -0.00287899 0.000432875 -0.000325723 -0.000954758 0.000423675 -0.000743197 -0.00039457 -0.00116571 -0.0027185 -5.74199e-05 -0.00525289 -0.00321804 0.000500712 0.000451212 0.000472714 -0.00105824 -0.000743721 -0.00223044 -0.00337832 -0.00020427 -0.00138295 -0.000126393 -0.00195727
internal_weight=0 2.07653e+06 196235 133258 1.88029e+06 94496 172939 86558 1.7858e+06 88501 65121 31300 21587 135312 71626 29831 41795 12089 30303 1.65048e+06 1.57626e+06 63686 142636 121449 33821 72941 13617 13934 10653 15988
internal_count=2209784 2076526 196235 133258 1880291 94496 172939 86558 1785795 88501 65121 31300 21587 135312 71626 29831 41795 12089 30303 1650483 1576263 63686 142636 121449 33821 72941 13617 13934 10653 15988
is_linear=0
shrinkage=0.1


Tree=27
num_leaves=31
num_cat=0
split_feature=0 0 1 0 8 7 6 7 8 2 3 3 3 3 3 4 4 4 4 4 6 7 0 8 8 3 8 4 3 2
split_gain=156.566 27.889 18.9618 17.1725 12.8906 12.2056 17.586 14.422 12.1032 11.3175 14.135 9.95383 10.7658 13.5072 13.4128 20.0003 10.7807 9.73201 11.8719 9.2549 8.81216 11.84 12.1127 13.4169 8.13766 7.92952 7.88347 7.31876 7.17063 7.16529
threshold=60.500000000000007 27.500000000000004 1245.0000000000002 205.50000000000003 0.89253650000000018 0.0020585000000000004 1.8236060000000003 0.006931500000000001 1.8243650000000002 367.50000000000006 2.0086830000000004 1.9399145000000002 2.3437520000000007 2.2486750000000009 2.1396985000000002 1.9066420000000004 1.8454405000000003 1.5845120000000001 2.7444205000000004 2.2004235000000008 0.42913450000000003 0.0038975000000000004 3.5000000000000004 0.98382500000000006 0.65574800000000011 1.4619400000000002 1.9710840000000003 1.651537 1.4508435000000002 441.50000000000006
decision_type=2 2 2 2 2 2 2 2 2 2 2 2 2 2 2 2 2 2 2 2 2 2 2 2 2 2 2 2 2 2
left_child=1 8 -3 4 -2 25 9 11 20 10 -7 27 13 14 16 -16 -13 -9 26 24 -1 -22 -23 -24 -4 28 -19 -8 -6 -11
right_child=3 2 19 -5 5 6 7 17 -10 29 -12 12 -14 -15 15 -17 -18 18 -20 -21 21 22 23 -25 -26 -27 -28 -29 -30 -31
leaf_value=0.0019488744044125217 0.00081641506160109198 0.001610791640139115 0.001852662373162966 0.00042353353020506044 -0.0012712109593325562 0.00053210765370201828 -0.012425138760473874 -0.0024591418764945317 -0.0059250908179913561 -0.0016687239318638305 0.0063247063595840355 -0.0013127683296412247 -0.0047019385605196655 0.0034377516792335455 -0.0025926943865928823 -0.013712380686140991 0.0065640317713390565 0.0093684052127000535 -0.0046355086155481593 -0.0085730401278404766 -0.0048172578937381123 -0.0061903003709337422 0.0037072830821433356 -0.0023008928740287549 -0.0021207345931529135 -0.0036782001575133257 0.0018830896273768799 -0.0040883746647734417 0.0080616832472661243 0.0086559655810814606
leaf_weight=3168 82162 16822 5481 1588196 70239 135266 1641 8809 20802 29215 4348 10504 11617 5351 7571 2057 2082 1563 2626 2116 34413 6862 4198 32423 86493 15201 14098 2939 833 688
leaf_count=3168 82162 16822 5481 1588196 70239 135266 1641 8809 20802 29215 4348 10504 11617 5351 7571 2057 2082 1563 2626 2116 34413 6862 4198 32423 86493 15201 14098 2939 833 688
internal_value=0 -0.0025787 -0.00148152 0.000274757 -0.000303231 -0.000584856 -0.000218644 -0.00154162 -0.00377332 0.000334358 0.000712507 -0.00266421 -0.00214858 -0.00107249 -0.00215894 -0.00496839 -9.77311e-06 0.000271449 0.0015868 -0.00203438 -0.00322114 -0.00343141 -0.00233463 -0.00161215 -0.00188395 -0.0016052 0.00263014 -0.00707541 -0.00116182 -0.00143118
internal_weight=0 212778 110912 1.99701e+06 408810 326648 240375 70858 101866 169517 139614 43762 39182 27565 22214 9628 12586 27096 18287 94090 81064 77896 43483 36621 91974 86273 15661 4580 71072 29903
internal_count=2209784 212778 110912 1997006 408810 326648 240375 70858 101866 169517 139614 43762 39182 27565 22214 9628 12586 27096 18287 94090 81064 77896 43483 36621 91974 86273 15661 4580 71072 29903
is_linear=0
shrinkage=0.1


Tree=28
num_leaves=31
num_cat=0
split_feature=0 0 1 0 2 0 3 4 7 8 3 4 8 8 7 10 7 2 3 7 3 8 3 4 4 7 3 4 3 7
split_gain=128.237 29.1678 15.7201 11.1196 10.8042 13.291 10.3926 9.80134 9.12604 12.5895 11.7125 11.7478 12.7056 9.07265 9.05167 10.9962 15.7141 9.11941 16.0418 13.9918 11.2593 8.67296 10.0339 8.60485 7.37256 9.91301 12.4675 10.8898 10.6848 8.84852
threshold=33.500000000000007 88.500000000000014 1515.0000000000002 3.5000000000000004 284.50000000000006 469.50000000000006 0.27213400000000004 2.7843990000000005 0.0062480000000000009 1.4850730000000001 0.79954550000000013 0.014216000000000001 1.8243650000000002 0.88837300000000019 0.0019085000000000003 1.8669915000000004 0.0063945000000000009 396.50000000000006 1.9399145000000002 0.0034915000000000002 1.9655460000000002 1.2195565000000002 1.4065855000000003 1.5845120000000001 0.99809450000000011 0.0040705000000000003 2.1355600000000003 2.2004235000000008 2.0153380000000003 0.0062480000000000009
decision_type=2 2 2 2 2 2 2 2 2 2 2 2 2 2 2 2 2 2 2 2 2 2 2 2 2 2 2 2 2 2
left_child=3 2 -2 -1 -3 7 -5 13 9 -8 -10 -12 -13 -6 -15 17 -17 18 -16 20 -19 22 -4 -18 29 26 28 -27 -26 -23
right_child=1 4 21 6 5 -7 8 -9 10 -11 11 12 -14 14 15 16 23 19 -20 -21 -22 24 -24 -25 25 27 -28 -29 -30 -31
leaf_value=-0.006181677964476693 0.0014047578508693947 0.00084654430047624541 -0.00077018538732786558 0.0052250814561624476 0.00075168972109605618 0.0004735972873050191 -0.0029297409884106855 -0.0058481645552382585 0.0093183071537396248 -0.0061541827932423271 -0.0077458891872660175 0.00023274652905046095 -0.0035347899386249 -0.00082354804504817733 0.00028160201677261275 -0.0015136333892327323 -0.00092270981034193534 -0.0019362838659852438 0.0031001092409180262 0.0010057637938238977 -0.0082940766901795013 -0.019485088239621629 0.0063538681046417262 0.0017364509254454213 -0.0024455080944129912 0.00022961525203284421 -0.0076725179562598918 -0.0058951911713613827 0.0064913703296589258 -0.0041053769849027661
leaf_weight=10934 22825 302858 65056 1575 112179 830280 54678 2957 933 15553 3282 19501 16546 181032 285798 91583 20200 13277 21729 14054 3525 391 2039 30608 40085 28511 4530 3232 1384 8649
leaf_count=10934 22825 302858 65056 1575 112179 830280 54678 2957 933 15553 3282 19501 16546 181032 285798 91583 20200 13277 21729 14054 3525 391 2039 30608 40085 28511 4530 3232 1384 8649
internal_value=0 0.000184948 -0.00104424 -0.00313771 0.00029866 0.000195419 -0.00284073 -0.000101856 -0.0029557 -0.00364381 -0.0017554 -0.0020181 -0.0014966 -7.99025e-05 -0.000220861 6.0764e-06 -0.000731174 0.00031631 0.00048075 -0.00132258 -0.00327013 -0.00140751 -0.000553687 0.000679235 -0.00206763 -0.00175333 -0.00269138 -0.000393999 -0.00214725 -0.00477058
internal_weight=0 2.08678e+06 176702 123002 1.91008e+06 1.60722e+06 112068 776942 110493 70231 40262 39329 36047 773985 661806 480774 142391 338383 307527 30856 16802 153877 67095 50808 86782 77742 45999 31743 41469 9040
internal_count=2209784 2086782 176702 123002 1910080 1607222 112068 776942 110493 70231 40262 39329 36047 773985 661806 480774 142391 338383 307527 30856 16802 153877 67095 50808 86782 77742 45999 31743 41469 9040
is_linear=0
shrinkage=0.1


Tree=29
num_leaves=31
num_cat=0
split_feature=0 0 0 1 0 2 1 4 0 1 0 1 3 4 0 1 9 7 4 8 3 3 7 8 3 8 7 4 7 5
split_gain=105.596 18.1756 13.5272 10.9133 11.5125 9.6739 9.65817 9.49244 8.66008 9.90716 11.0867 11.6008 7.74308 7.03074 6.93031 8.91787 6.92636 9.04057 8.03595 16.8607 7.18592 10.9484 7.06557 7.52885 6.20663 6.19199 10.9883 10.8808 9.64684 7.10111
threshold=42.500000000000007 149.50000000000003 15.500000000000002 1885.0000000000002 54.500000000000007 257.50000000000006 5265.0000000000009 2.1262485000000004 122.50000000000001 2535.0000000000005 75.500000000000014 3345.0000000000005 2.4059475000000003 0.023019000000000001 88.500000000000014 4255.0000000000009 1.2270220000000003 0.0025835000000000003 2.0074580000000002 2.2214000000000005 1.9655460000000002 1.9769045000000003 0.0063945000000000009 3.1237360000000005 0.81329300000000015 2.1998655000000005 0.0050585000000000014 0.48464500000000005 0.019409500000000007 1.7269380000000003
decision_type=2 2 2 2 2 2 2 2 2 2 2 2 2 2 2 2 2 2 2 2 2 2 2 2 2 2 2 2 2 2
left_child=2 3 -1 -2 -5 13 7 8 9 -6 -11 -12 -9 24 -13 -16 -3 20 -19 -20 -18 -22 -21 -24 -4 26 29 -28 -27 -15
right_child=1 16 5 4 6 -7 -8 12 -10 10 11 14 -14 25 15 -17 17 18 19 22 21 -23 23 -25 -26 28 27 -29 -30 -31
leaf_value=-0.0037311993958118409 0.0013207862636679703 0.00055699386361698737 0.0032664309174882688 -0.0028743892130372439 0.00099147086975912664 -0.0023701026553374304 -0.0024389268342589875 -0.018673083681326648 0.00096862229384928012 -0.0025425257362578948 0.0010550212419044153 -0.0031952016083800099 -0.0029492292974996163 -0.00042624821413842759 0.00019747419986966138 -0.0021380607446620115 -8.2444682193646691e-05 0.0004906554895011473 -0.0071212620210040281 -0.0013197541088602151 -0.0081930590917666767 -0.0010669312372797123 0.00147008450709847 -0.0015852191271565575 -0.0090380869735304879 -0.012298580307671577 -0.0042371255873442657 0.0058294969747164716 0.0023579435657680638 -0.015386758017942218
leaf_weight=58136 29758 709394 567 22276 35351 72123 23635 325 49918 31337 36537 13096 8612 11852 43155 26320 305574 595379 3759 34039 2265 44792 29472 11104 1480 916 1303 6102 881 326
leaf_count=58136 29758 709394 567 22276 35351 72123 23635 325 49918 31337 36537 13096 8612 11852 43155 26320 305574 595379 3759 34039 2265 44792 29472 11104 1480 916 1303 6102 881 326
internal_value=0 0.000188992 -0.00252844 -0.000503123 -0.000689919 -0.00179664 -0.000508541 -0.000322052 -0.000200763 -0.000514944 -0.000868915 -0.000428593 -0.00352104 -3.11527e-05 -0.00108508 -0.000687323 0.000316714 0.000150643 0.000365354 -0.000586519 -0.000259592 -0.00140993 -0.000257308 0.000633972 -0.00562985 0.000504887 0.00102041 0.00405815 -0.00511305 -0.000826735
internal_weight=0 2.0561e+06 153686 320320 290562 95550 268286 244651 235714 185796 150445 119108 8937 23427 82571 69475 1.73578e+06 1.02638e+06 673753 78374 352631 47057 74615 40576 2047 21380 19583 7405 1797 12178
internal_count=2209784 2056098 153686 320320 290562 95550 268286 244651 235714 185796 150445 119108 8937 23427 82571 69475 1735778 1026384 673753 78374 352631 47057 74615 40576 2047 21380 19583 7405 1797 12178
is_linear=0
shrinkage=0.1


Tree=30
num_leaves=31
num_cat=0
split_feature=0 0 1 8 2 0 4 3 3 0 1 7 4 1 8 9 3 7 4 8 4 5 3 2 4 3 4 7 4 4
split_gain=86.337 20.6426 13.9121 9.16189 8.11249 10.6323 8.98216 7.99604 7.46523 7.36839 10.1904 7.33559 9.92905 7.36603 7.71087 7.17037 20.0165 8.32508 10.8637 8.03712 13.7975 16.2802 14.9503 9.60956 8.73724 7.87232 7.79575 10.6536 11.1649 7.93067
threshold=30.500000000000004 85.500000000000014 1425.0000000000002 1.13243 273.50000000000006 534.50000000000011 2.1262485000000004 2.8113820000000005 2.4059475000000003 42.500000000000007 1975.0000000000002 0.0024335000000000003 0.21389250000000001 265.00000000000006 0.90137100000000014 1.2290555000000001 1.1629700000000003 0.0023575000000000007 1.0476680000000003 1.6088450000000003 1.4906855000000003 1.8358200000000002 1.9716190000000002 422.50000000000006 1.6773385000000001 1.7245760000000001 1.4653805000000002 0.0036155000000000002 1.4696635000000002 1.1169715000000002
decision_type=2 2 2 2 2 2 2 2 2 2 2 2 2 2 2 2 2 2 2 2 2 2 2 2 2 2 2 2 2 2
left_child=3 2 -2 11 -3 6 7 15 -8 -4 -11 12 -1 -13 -15 -6 -17 18 -18 25 23 -22 -23 26 -24 -19 29 -28 -29 -21
right_child=1 4 9 -5 5 -7 8 -9 -10 10 -12 13 -14 14 -16 16 17 19 -20 20 21 22 24 -25 -26 -27 27 28 -30 -31
leaf_value=0.004975456682202937 0.0013727697495267447 0.00079248757096994724 -0.0028253376218467961 -0.0033694511942977991 0.0003107170715563783 0.00044527390134849919 -0.0092192050605965203 0.0029656547184419421 -0.0013821565417841243 0.00078752547824629301 -0.0013869334715868977 -0.0036377904527175177 -0.0034245478337947403 0.0041483412154116345 -0.00065425453088452682 -0.01829545234155849 -0.0057234175458881981 0.00010843390092731525 -0.00069335222834616657 -0.0025182471888074427 0.0024696862305743179 -0.0025265995366931951 0.0017377110622986539 -0.010307659925263583 -0.00039423644537482281 0.0016394301489022003 -0.0076822966630094823 -0.01669545778791413 0.0010262563471010061 0.00037511574857740257
leaf_weight=1520 23673 233660 24396 72546 364326 746953 1264 8993 31646 27261 102916 4485 18958 5077 9789 615 4409 120567 164191 18384 23711 25914 26192 1317 72247 46554 4556 393 3726 19545
leaf_count=1520 23673 233660 24396 72546 364326 746953 1264 8993 31646 27261 102916 4485 18958 5077 9789 615 4409 120567 164191 18384 23711 25914 26192 1317 72247 46554 4556 393 3726 19545
internal_value=0 0.000144683 -0.000884723 -0.00270041 0.000240291 0.00016374 -6.03208e-05 -1.34855e-06 -0.00168316 -0.00123046 -0.000931569 -0.0014818 -0.00280105 -8.57247e-05 0.000985916 -3.11064e-05 -0.000265054 -0.000244199 -0.000824892 2.54325e-05 -0.000409015 6.83229e-05 -0.000389557 -0.00188387 0.000173018 0.000534915 -0.00164582 -0.0043502 -0.000664599 -0.00102728
internal_weight=0 2.09741e+06 178246 112375 1.91916e+06 1.6855e+06 938550 905640 32910 154573 130177 39829 20478 19351 14866 896647 532321 531706 168600 363106 195985 148064 124353 47921 98439 167121 46604 8675 4119 37929
internal_count=2209784 2097409 178246 112375 1919163 1685503 938550 905640 32910 154573 130177 39829 20478 19351 14866 896647 532321 531706 168600 363106 195985 148064 124353 47921 98439 167121 46604 8675 4119 37929
is_linear=0
shrinkage=0.1


Tree=31
num_leaves=31
num_cat=0
split_feature=0 8 3 0 2 0 2 6 3 3 3 2 7 4 3 4 3 4 3 4 7 7 3 4 3 2 4 3 8 6
split_gain=70.687 16.7886 14.487 10.1253 10.4023 8.71426 9.8001 9.29655 11.3254 10.1511 9.66574 9.50455 8.89226 8.65495 7.50453 8.07618 19.8275 8.02302 7.56083 9.43699 7.2251 7.11702 14.9063 13.2963 11.6189 8.92622 7.66112 6.98008 7.23731 6.81504
threshold=60.500000000000007 1.8319310000000002 1.9769045000000003 15.500000000000002 199.50000000000003 273.50000000000006 259.50000000000006 1.8236060000000003 1.9399145000000002 1.9716190000000002 1.9655460000000002 337.50000000000006 0.0030475000000000003 2.7843990000000005 3.6200140000000007 2.2004235000000008 2.7331775000000005 1.1169715000000002 2.4800650000000002 1.7954985000000001 0.0074945000000000003 0.0020585000000000004 1.3004995000000001 1.1303250000000002 1.3115395000000001 348.50000000000006 1.3495810000000001 2.1271865000000005 1.7684980000000001 0.74896600000000013
decision_type=2 2 2 2 2 2 2 2 2 2 2 2 2 2 2 2 2 2 2 2 2 2 2 2 2 2 2 2 2 2
left_child=1 2 3 -1 -5 6 -2 9 11 10 21 -9 -10 -14 15 16 17 -3 -19 -20 27 22 23 29 25 -24 -26 28 -4 -8
right_child=5 14 20 4 -6 -7 7 8 12 -11 -12 -13 13 -15 -16 -17 -18 18 19 -21 -22 -23 24 -25 26 -27 -28 -29 -30 -31
