tree
version=v4
num_class=1
num_tree_per_iteration=1
label_index=0
max_feature_idx=10
objective=regression
feature_names=step dists inserts first_nn_dist nn_dist furthest_dist avg_dist variance percentile_25 percentile_50 percentile_75
feature_infos=[0:510] [0:26448] [1:15] [15353:139814] [7944:120250] [7944:120250] [7944:120250] none [7944:120250] [7944:120250] [7944:120250]
tree_sizes=2983 3137 3128 3104 3098 3090 3050 3087 3117 3118 3112 3095 3116 3091 3097 3033 3033 3129 3100 3129 3117 3034 3114 3125 3043 3105 3088 3146 3063 3019 3158 3034 3172 3135 3026 3088 3105 3117 3121 3124 3164 3072 3123 3123 3082 3112 3023 3154 3009 3064 3020 2975 2978 3048 2993 3089 2989 3096 2965 3018 3013 2991 3045 3044 2996 3037 3009 3000 3045 3068 2978 3031 2957 3037 3030 3020 3012 3017 3052 3025 2979 3050 2961 3067 3033 3015 2973 3065 3010 3011 2962 3029 3021 2951 2998 2956 2932 3005 2930 3072

Tree=0
num_leaves=31
num_cat=0
split_feature=0 4 0 4 0 0 0 4 0 4 3 0 4 3 4 4 4 3 3 4 4 3 3 4 3 2 3 4 4 2
split_gain=132874 21275.7 13184 13091.3 7620 3035.59 2285.4 1535.8 1819.21 2264.78 1852.19 1470.66 1092.83 1204.96 950.019 1003.44 928.664 847.841 18115 1893.87 796.149 787.585 687.616 678.932 614.504 613.253 2173.4 1281.16 1055.52 2588.14
threshold=16.500000000000004 54736.500000000007 46.500000000000007 54921.500000000007 6.5000000000000009 8.5000000000000018 26.500000000000004 57493.500000000007 104.50000000000001 57657.500000000007 94341.500000000015 2.5000000000000004 43938.000000000007 60551.000000000007 55133.500000000007 66331.000000000015 63351.000000000007 92613.500000000015 92423.000000000015 57657.500000000007 62120.500000000007 85008.500000000015 83387.000000000015 44343.000000000007 64053.000000000007 5.5000000000000009 79733.500000000015 57742.000000000007 66015.500000000015 10.500000000000002
decision_type=2 2 2 2 2 2 2 2 2 2 2 2 2 2 2 2 2 2 2 2 2 2 2 2 2 2 2 2 2 2
left_child=1 4 3 -2 11 -3 16 -4 9 10 -9 -1 -6 -14 -8 -16 21 18 19 -10 22 -5 -7 -13 -25 27 -27 -11 -28 -30
right_child=2 5 7 6 12 20 14 8 17 25 -12 23 13 -15 15 -17 -18 -19 -20 -21 -22 -23 -24 24 -26 26 28 -29 29 -31
leaf_value=0.87432229500956038 0.95269105291292577 0.86528268189813173 0.95773316560647115 0.90565693945603809 0.94149752093035455 0.88907101368050678 0.86518973596269 0.8580272016608409 0.8580272016608409 0.8580272016608409 0.95802719979819573 0.91437913349371258 0.88564885981666952 0.9287086024504797 0.93481311485972141 0.91069544927879842 0.89536607234890786 0.95802070154472241 0.8580272016608409 0.95601753311450277 0.88038783238902807 0.92960444195526659 0.91638035702406584 0.86439054866289977 0.90153076457248815 0.8580272016608409 0.95034101133877869 0.95756306012289805 0.94136163631825076 0.8580272016608409
leaf_weight=25253 442604 125767 6414560 27170 76771 21067 2178 5050 1977 1314 2925 27653 7295 59539 133699 19807 27928 861770 19392 838547 37329 27770 16395 6286 15293 2785 163423 81441 30224 4251
leaf_count=25253 442604 125767 6414560 27170 76771 21067 2178 5050 1977 1314 2925 27653 7295 59539 133699 19807 27928 861770 19392 838547 37329 27770 16395 6286 15293 2785 163423 81441 30224 4251
internal_value=0.953364 0.898278 0.955895 0.942513 0.919896 0.87477 0.92363 0.956977 0.954567 0.94726 0.894704 0.893942 0.933358 0.924009 0.930771 0.931701 0.910214 0.955804 0.953582 0.955787 0.890724 0.917761 0.901023 0.904005 0.890712 0.948739 0.945752 0.955983 0.946987 0.931086
internal_weight=0 418648 9.10882e+06 681156 218090 200558 238552 8.42766e+06 2.0131e+06 291413 7975 74485 143605 66834 155684 153506 82868 1.72169e+06 859916 840524 74791 54940 37462 49232 21579 283438 200683 82755 197898 34475
internal_count=9527463 418648 9108815 681156 218090 200558 238552 8427659 2013099 291413 7975 74485 143605 66834 155684 153506 82868 1721686 859916 840524 74791 54940 37462 49232 21579 283438 200683 82755 197898 34475
is_linear=0
shrinkage=1


Tree=1
num_leaves=31
num_cat=0
split_feature=0 4 0 4 0 0 0 0 4 4 4 3 4 4 3 4 3 4 4 3 2 3 2 4 3 4 1 4 4 4
split_gain=107735 14496.6 13154.1 11794.6 5083.22 2114.51 1812.06 1532.47 2221.57 2249.53 891.946 1363.24 890.201 848.417 781.528 761.551 749.612 688.788 3704.91 10839.2 673.032 628.316 1286.03 569.591 658.163 827.394 532.351 531.917 517.019 1941.81
threshold=14.500000000000002 53872.500000000007 40.500000000000007 54921.500000000007 4.5000000000000009 6.5000000000000009 24.500000000000004 96.500000000000014 52609.500000000007 52805.000000000007 43938.000000000007 60551.000000000007 66331.000000000015 62120.500000000007 82690.000000000015 62120.500000000007 83699.000000000015 59148.000000000007 59341.000000000007 96903.500000000015 7.5000000000000009 80011.500000000015 8.5000000000000018 43707.000000000007 64053.000000000007 43891.500000000007 143.50000000000003 55133.500000000007 62473.000000000007 62749.000000000007
decision_type=2 2 2 2 2 2 2 2 2 2 2 2 2 2 2 2 2 2 2 2 2 2 2 2 2 2 2 2 2 2
left_child=1 4 3 23 26 -3 13 8 -4 21 -6 -12 14 16 27 -7 -5 -9 19 -19 -11 22 -10 -2 25 -25 -1 -8 -22 -30
right_child=2 5 7 6 10 15 12 17 9 20 11 -13 -14 -15 -16 -17 -18 18 -20 -21 28 -23 -24 24 -26 -27 -28 -29 29 -31
leaf_value=-0.071278449416018019 0.0019256078065552204 -0.081448238564438932 0.0033923843774325679 -0.045769705821787549 -0.015527411761252328 -0.0505692059628714 -0.085012208973304304 0.0041434905819302606 0.0042817831719929528 -0.0013991995536234325 -0.069393428435785873 -0.025833348855455268 -0.044944520823986429 -0.053867738171318291 -0.014101985960210978 -0.069776717022416321 -0.020397891496939973 -0.095366446222189621 0.0027086920871135633 0.0042075722356979496 -0.0058675195736910789 -0.095722197607365625 -0.09573549985885621 -0.095185477671952082 -0.003322488893527049 -0.016060099009237678 -0.049991713683723675 -0.029230442506480232 -0.094854109858717117 -0.012726508027129378
leaf_weight=24249 196764 106800 706965 24406 75043 41430 1793 5990346 3093 283385 8340 51855 17057 37470 70295 41140 22271 15268 1324480 38496 140690 2821 2200 1392 160556 26109 22790 36690 3054 50215
leaf_count=24249 196764 106800 706965 24406 75043 41430 1793 5990346 3093 283385 8340 51855 17057 37470 70295 41140 22271 15268 1324480 38496 140690 2821 2200 1392 160556 26109 22790 36690 3054 50215
internal_value=0 -0.0527804 0.00214243 -0.0122376 -0.0326497 -0.072157 -0.0313006 0.00314152 -0.000184389 -0.00539319 -0.0228009 -0.0318686 -0.0237041 -0.0426606 -0.0203735 -0.0601392 -0.0336641 0.00367974 0.00166409 -0.0240696 -0.00450568 -0.057605 -0.0372897 -0.00183557 -0.00577089 -0.0200651 -0.0609652 -0.0318294 -0.00904442 -0.017435
internal_weight=0 371647 9.15582e+06 594803 182277 189370 209982 8.56101e+06 1.19242e+06 485458 135238 60195 125835 84147 108778 82570 46677 7.36859e+06 1.37824e+06 53764 477344 8114 5293 384821 188057 27501 47039 38483 193959 53269
internal_count=9527463 371647 9155816 594803 182277 189370 209982 8561013 1192423 485458 135238 60195 125835 84147 108778 82570 46677 7368590 1378244 53764 477344 8114 5293 384821 188057 27501 47039 38483 193959 53269
is_linear=0
shrinkage=0.1


Tree=2
num_leaves=31
num_cat=0
split_feature=0 4 0 4 0 0 0 1 4 4 3 4 3 3 2 4 3 2 3 4 3 2 3 3 4 4 2 4 4 2
split_gain=87612.5 16035.5 7067.65 7685.56 5971.21 2631.11 1289.04 946.298 918.99 2029.45 7087.07 826.829 972.547 777.684 3854.81 741.703 845.152 739.705 884.267 636.862 603.479 583.439 1835.23 15192.5 1835.38 1084.75 3616.83 567.908 548.172 1018.46
threshold=18.500000000000004 54736.500000000007 52.500000000000007 54921.500000000007 6.5000000000000009 8.5000000000000018 30.500000000000004 143.50000000000003 58899.500000000007 59341.000000000007 81857.500000000015 43938.000000000007 62386.000000000007 91692.500000000015 7.5000000000000009 67087.000000000015 94910.500000000015 4.5000000000000009 93283.000000000015 63351.000000000007 82690.000000000015 7.5000000000000009 93283.000000000015 92423.000000000015 66331.000000000015 60588.500000000007 8.5000000000000018 45362.500000000007 69732.500000000015 5.5000000000000009
decision_type=2 2 2 2 2 2 2 2 2 2 2 2 2 2 2 2 2 2 2 2 2 2 2 2 2 2 2 2 2 2
left_child=1 4 3 -2 7 -3 19 -1 -4 10 -10 -6 -13 14 -12 16 -7 18 -17 20 -5 -11 23 24 25 26 -23 -9 -8 -30
right_child=2 5 8 6 11 15 28 27 9 21 13 12 -14 -15 -16 17 -18 -19 -20 -21 -22 22 -24 -25 -26 -27 -28 -29 29 -31
leaf_value=-0.064487801144374537 0.00029174076948553629 -0.071468498064250305 0.0035376425342958043 -0.035961593550493602 -0.0082648440355701912 -0.050692002012999685 -0.013962091601206953 -0.031312338509519339 -0.085700373212162811 0.0037553347554755167 0.004121108371032558 -0.048846383946004594 -0.017598158428906534 0.00098363414542516664 -0.086783680564347113 -0.08189984152607728 -0.025515190453162979 -0.07640243146824377 0.018037906193418728 -0.042218788802032323 -0.01676980692110568 -0.095182440174634869 0.0032960073273428517 -0.086194822476106825 -0.092863512039184581 0.0043191964926139427 0.0041273776441812515 -0.052925092978704819 0.0073112162174062524 -0.057855253855460857
leaf_weight=24851 498601 125767 6692179 27684 92739 55946 157329 28344 11672 783305 18070 11642 68939 82717 6288 1583 17505 15391 2009 29428 40142 4868 477698 22201 2065 181314 14868 21290 3525 7503
leaf_count=24851 498601 125767 6692179 27684 92739 55946 157329 28344 11672 783305 18070 11642 68939 82717 6288 1583 17505 15391 2009 29428 40142 4868 477698 22201 2065 181314 14868 21290 3525 7503
internal_value=0 -0.0422861 0.00217466 -0.00702769 -0.0248793 -0.0620545 -0.0207676 -0.0485585 0.00302223 0.000873287 -0.0117069 -0.0147031 -0.0221128 -0.00364104 -0.0193459 -0.0492457 -0.0446918 -0.0668661 -0.0260048 -0.0299335 -0.0246032 0.00187836 -0.000212983 -0.00765248 0.000932405 0.00189579 -0.020368 -0.0405829 -0.0154728 -0.0370254
internal_weight=0 466006 9.06146e+06 764212 247805 218201 265611 74485 8.29724e+06 1.60507e+06 118747 173320 80581 107075 24358 92434 73451 18983 3592 97254 67826 1.48632e+06 703014 225316 203115 201050 19736 49634 168357 11028
internal_count=9527463 466006 9061457 764212 247805 218201 265611 74485 8297245 1605066 118747 173320 80581 107075 24358 92434 73451 18983 3592 97254 67826 1486319 703014 225316 203115 201050 19736 49634 168357 11028
is_linear=0
shrinkage=0.1


Tree=3
num_leaves=31
num_cat=0
split_feature=0 4 0 4 1 0 0 4 1 4 3 4 4 4 3 4 3 4 4 3 4 3 3 2 3 4 3 4 4 2
split_gain=71128.2 9691.84 8658.93 8124.79 2977.09 1929.5 1486.16 886.491 1208.59 2767.44 1639.73 802.127 707.964 673.351 648.159 1126.71 659.218 614.505 533.549 901.725 531.454 526.889 508.124 479.43 471.662 565.129 464.752 665.026 1158.57 939.608
threshold=14.500000000000002 51875.500000000007 44.500000000000007 54921.500000000007 220.50000000000003 6.5000000000000009 24.500000000000004 57493.500000000007 5864.5000000000009 57657.500000000007 94341.500000000015 60974.000000000007 55133.500000000007 66331.000000000015 74594.500000000015 44343.000000000007 64053.000000000007 62120.500000000007 50408.500000000007 62039.500000000007 78231.000000000015 83699.000000000015 82690.000000000015 8.5000000000000018 76268.500000000015 30840.000000000004 74389.500000000015 57810.500000000007 57427.000000000007 6.5000000000000009
decision_type=2 2 2 2 2 2 2 2 2 2 2 2 2 2 2 2 2 2 2 2 2 2 2 2 2 2 2 2 2 2
left_child=1 4 3 18 24 -3 17 -4 9 10 -9 -7 -8 22 15 -6 -17 21 -2 -20 -15 23 26 -5 25 -1 -14 28 29 -28
right_child=2 5 7 6 14 11 12 8 -10 -11 -12 -13 13 20 -16 16 -18 -19 19 -21 -22 -23 -24 -25 -26 -27 27 -29 -30 -31
leaf_value=-0.031478178283993553 0.00070086514373435141 -0.066113965049322945 0.0031875876794499342 -0.032708243780347299 -0.014884961655431654 -0.037231920383708199 -0.074322994076973611 -0.086011135041640221 0.001919833489314648 -0.0030432865206109932 0.0043334600061843897 -0.055910121540753144 -0.011037462262277337 -0.039349056837970853 -0.0038627222684331783 -0.059462091540805451 -0.027026275043078574 -0.044127534999548676 -0.092720313272653523 -0.0067469799660573124 0.0158199095662604 -0.015810972906036568 -0.010291838060664971 -0.081993165804848889 -0.0025586809198825788 -0.059726153078623528 -0.0017615510251839579 -0.014791092132597184 -0.088559940021114891 -0.063700119727434917
leaf_weight=9690 353258 113629 6448084 22240 73782 45692 2209 6488 1666768 347754 2910 46279 18438 18603 27025 9786 17419 37470 1237 88575 1927 22271 88248 2166 2028 26317 5917 12606 4468 4179
leaf_count=9690 353258 113629 6448084 22240 73782 45692 2209 6488 1666768 347754 2910 46279 18438 18603 27025 9786 17419 37470 1237 88575 1927 22271 88248 2166 2028 26317 5917 12606 4468 4179
internal_value=0 -0.042886 0.0017408 -0.00908371 -0.0249166 -0.0573985 -0.0238713 0.00261449 0.000788654 -0.00449037 -0.0580368 -0.0466306 -0.0181118 -0.0173075 -0.0176179 -0.0212989 -0.0386939 -0.0345896 -0.00104887 -0.00793111 -0.0341708 -0.0269331 -0.0147211 -0.0370822 -0.0494814 -0.0521242 -0.0232915 -0.0316072 -0.0461626 -0.0273996
internal_weight=0 371647 9.15582e+06 683812 166047 205600 240742 8.472e+06 2.02392e+06 357152 9398 91971 156595 154386 128012 100987 27205 84147 443070 89812 20530 46677 133856 24406 38035 36007 45608 27170 14564 10096
internal_count=9527463 371647 9155816 683812 166047 205600 240742 8472004 2023920 357152 9398 91971 156595 154386 128012 100987 27205 84147 443070 89812 20530 46677 133856 24406 38035 36007 45608 27170 14564 10096
is_linear=0
shrinkage=0.1


Tree=4
num_leaves=31
num_cat=0
split_feature=0 4 0 4 0 1 0 4 3 2 2 3 4 3 3 3 3 3 4 4 2 0 3 3 4 4 3 3 2 2
split_gain=57843.8 10725.7 4687.39 5135.05 4124.43 1393.85 935.479 875.729 883.471 852.832 1679.85 1149.04 681.459 1302.96 700.882 832.794 959.915 986.655 965.656 942.921 974.762 679.469 631.64 624.5 613.195 1624.47 5685.81 638.611 3115.52 538.174
threshold=18.500000000000004 56188.000000000007 54.500000000000007 56301.000000000007 6.5000000000000009 440.50000000000006 26.500000000000004 46937.500000000007 62386.000000000007 9.5000000000000018 10.500000000000002 111558.00000000001 50408.500000000007 62039.500000000007 83387.000000000015 76886.000000000015 78640.000000000015 78082.500000000015 54921.500000000007 50691.500000000007 7.5000000000000009 2.5000000000000004 82895.000000000015 116543.50000000001 58899.500000000007 59341.000000000007 81857.500000000015 91692.500000000015 7.5000000000000009 8.5000000000000018
decision_type=2 2 2 2 2 2 2 2 2 2 2 2 2 2 2 2 2 2 2 2 2 2 2 2 2 2 2 2 2 2
left_child=1 4 3 12 21 -3 -5 -6 -9 -8 11 -11 -2 -14 15 19 17 18 -17 20 -15 -1 -18 29 -4 26 -26 28 -28 -7
right_child=2 5 24 6 7 23 9 8 -10 10 -12 -13 13 14 -16 16 22 -19 -20 -21 -22 -23 -24 -25 25 -27 27 -29 -30 -31
leaf_value=-0.053140534967934361 0.0016981371545506116 -0.059492122474079069 0.0029005188871142141 -0.02923845913956423 -0.0075828982142807991 -0.041258507337014222 -0.011179161960340663 -0.057123238685365542 -0.018214566618635308 -0.080209694272252774 -0.01466258345649462 0.01520997157488811 -0.068204644329043607 -0.094407964589107371 0.0040427981901731188 -0.0011082395882286763 -0.0088064648275200247 -0.091352818986134871 -0.07824302023654188 0.0021691329914121744 0.0050340068267384405 -0.033645426882037442 -0.088024215524514365 -0.0016319536875317416 -0.0771802734338701 0.0016196499427578127 0.0035982556754045945 0.00086773136562825397 -0.07818111135001099 -0.064171428137617018
leaf_weight=27010 419343 109139 6657216 55763 113456 75071 147446 6396 66628 7843 23261 1504 3306 2138 56503 5022 28782 3360 2398 47981 1829 52878 1043 3556 11560 1478677 17976 82218 6288 11872
leaf_count=27010 419343 109139 6657216 55763 113456 75071 147446 6396 66628 7843 23261 1504 3306 2138 56503 5022 28782 3360 2398 47981 1829 52878 1043 3556 11560 1478677 17976 82218 6288 11872
internal_value=0 -0.0343592 0.001767 -0.00550443 -0.0212252 -0.0518833 -0.0179208 -0.0130807 -0.0216225 -0.0144157 -0.0290504 -0.064856 -0.000382937 -0.00611064 -0.00473342 -0.0100912 -0.0208205 -0.046395 -0.0260367 -0.00170478 -0.0485599 -0.0402367 -0.0115768 -0.0427073 0.0024784 0.000718447 -0.0105707 -0.00333932 -0.0175948 -0.0443872
internal_weight=0 466006 9.06146e+06 807522 266368 199638 235817 186480 73024 180054 32608 9347 571705 152362 149056 92553 40605 10780 7420 51948 3967 79888 29825 90499 8.25394e+06 1.59672e+06 118042 106482 24264 86943
internal_count=9527463 466006 9061457 807522 266368 199638 235817 186480 73024 180054 32608 9347 571705 152362 149056 92553 40605 10780 7420 51948 3967 79888 29825 90499 8253935 1596719 118042 106482 24264 86943
is_linear=0
shrinkage=0.1


Tree=5
num_leaves=31
num_cat=0
split_feature=0 0 4 4 1 0 4 0 3 3 4 4 2 4 4 4 2 4 3 4 3 2 3 3 3 2 3 3 4 4
split_gain=47209.7 7149.28 5348.06 5212.29 1513.86 1278.13 1805.64 931.419 790.71 1297.73 877.608 1169.03 909.122 815.918 623.903 591.84 942.896 580.953 505.449 714.169 502.489 489.54 488.081 460.654 949.154 653.461 455.662 459.868 452.254 3184.12
threshold=12.500000000000002 32.500000000000007 56599.500000000007 51875.500000000007 220.50000000000003 72.500000000000014 54736.500000000007 4.5000000000000009 94827.000000000015 96903.500000000015 64657.500000000007 59246.000000000007 4.5000000000000009 68823.000000000015 60974.000000000007 66015.500000000015 10.500000000000002 52258.500000000007 76052.500000000015 43707.000000000007 101879.00000000001 6.5000000000000009 89449.000000000015 81857.500000000015 81693.500000000015 6.5000000000000009 62386.000000000007 70472.500000000015 57427.000000000007 57742.000000000007
decision_type=2 2 2 2 2 2 2 2 2 2 2 2 2 2 2 2 2 2 2 2 2 2 2 2 2 2 2 2 2 2
left_child=3 2 17 4 -1 6 -3 -5 13 -10 11 -11 -12 21 22 23 -17 -2 19 -6 26 -4 -9 24 28 -25 -19 -28 -8 -30
right_child=1 5 8 7 18 -7 15 14 9 10 12 -13 -14 -15 -16 16 -18 20 -20 -21 -22 -23 -24 25 -26 -27 27 -29 29 -31
leaf_value=-0.04004898877411129 -0.0017493738792790853 0.00164606784537331 -0.024281006374036462 -0.056088015913752912 -0.013476494715437199 0.002365082007704032 -0.003268455422743679 -0.038090231848660609 0.014038720117923887 -0.068334588122756154 0.022884793564402629 -0.00039692049848141911 -0.047151797497416284 -0.069566990297855305 -0.049236464487110651 -0.015829936753988885 -0.084386166598439616 -0.053628044027388966 -0.0020801394316654594 -0.033093001326637263 -0.066966218623026749 -0.040145033441173004 -0.011020709619272588 0.00488844290854 -0.06471993138024397 -0.0077310629206705566 0.014629902865484821 -0.012647756497997703 -0.079111256061628457 -0.0038416710365714226
leaf_weight=38035 264267 568865 49875 87251 55261 7868974 41948 36060 10468 2978 2062 16943 18322 5710 52145 34776 2129 2413 19241 27944 1653 31889 8170 61687 3344 122554 7057 49757 6989 28696
leaf_count=38035 264267 568865 49875 87251 55261 7868974 41948 36060 10468 2978 2062 16943 18322 5710 52145 34776 2129 2413 19241 27944 1653 31889 8170 61687 3344 122554 7057 49757 6989 28696
internal_value=0 0.00132099 -0.0107833 -0.0375108 -0.0230121 0.00196275 -0.00167209 -0.0486028 -0.0272586 -0.0173319 -0.0254795 -0.010553 -0.0400671 -0.0330204 -0.0418263 -0.00791981 -0.0197849 -0.00377821 -0.0166868 -0.0200646 -0.0125849 -0.0304682 -0.0330901 -0.00626879 -0.0125551 -0.00350584 -0.0110672 -0.00925953 -0.0103082 -0.0185834
internal_weight=0 9.20336e+06 463394 324107 140481 8.73996e+06 870988 183626 138247 50773 40305 19921 20384 87474 96375 302123 36905 325147 102446 83205 60880 81764 44230 265218 80977 184241 59227 56814 77633 35685
internal_count=9527463 9203356 463394 324107 140481 8739962 870988 183626 138247 50773 40305 19921 20384 87474 96375 302123 36905 325147 102446 83205 60880 81764 44230 265218 80977 184241 59227 56814 77633 35685
is_linear=0
shrinkage=0.1


Tree=6
num_leaves=31
num_cat=0
split_feature=0 4 0 4 1 0 4 4 4 3 3 2 3 4 2 3 3 4 4 3 3 2 3 2 3 4 3 4 4 2
split_gain=38341.1 6227.74 3772.66 4000.91 1902.04 1400.18 892.015 1283.06 836.622 973.304 722.813 694.694 676.324 714.512 670.227 1141.95 893.363 1135.77 1420.82 1083.98 742.076 867.983 663.714 663.643 1138.93 1006.37 658.49 645.746 597.458 632.517
threshold=16.500000000000004 51875.500000000007 50.500000000000007 56493.500000000007 291.50000000000006 8.5000000000000018 57742.000000000007 63135.000000000007 57493.500000000007 103381.00000000001 70194.000000000015 12.500000000000002 76052.500000000015 17120.500000000004 8.5000000000000018 111558.00000000001 93283.000000000015 64156.500000000007 66331.000000000015 79733.500000000015 107770.00000000001 6.5000000000000009 86375.000000000015 3.5000000000000004 79733.500000000015 59148.000000000007 94341.500000000015 56553.500000000007 65934.000000000015 14.500000000000002
decision_type=2 2 2 2 2 2 2 2 2 2 2 2 2 2 2 2 2 2 2 2 2 2 2 2 2 2 2 2 2 2
left_child=1 4 3 -2 12 -3 8 10 9 11 -8 27 13 -1 16 26 17 -9 -19 -20 -18 -22 -10 -12 25 -25 -16 -5 29 -17
right_child=2 5 -4 6 -6 -7 7 14 22 -11 23 -13 -14 -15 15 28 20 18 19 -21 21 -23 -24 24 -26 -27 -28 -29 -30 -31
leaf_value=0.0083522797669980092 -0.00077784332098758456 -0.047109504357791883 0.0019778187195185859 -0.084074937520770859 -0.010002225288267618 -0.031018228566180906 -0.069904208740654034 -0.076304914224242695 -0.071835807430093462 -0.080339150759895617 0.014372292077008764 -0.088360115553478946 0.0059711791121261383 -0.038480545015540518 -0.020305613347405604 -0.078745406108631219 0.002076606552902711 0.001899206651984265 0.02203519812115624 -0.072232465017146308 0.00085651754972286423 -0.063102208896167827 -0.012528024080503306 0.0099057590126283221 -0.0065806598941982241 -0.078669504600264839 -0.0735522104066645 -0.0047638734587784632 0.016769642538368417 0.012040619037336915
leaf_weight=3499 548821 137966 8340180 1090 136696 88933 1826 4899 7273 2494 13441 1184 4319 47235 3157 1865 22195 10536 1508 6383 4049 4458 2548 1852 93156 4173 8787 17645 3991 1304
leaf_count=3499 548821 137966 8340180 1090 136696 88933 1826 4899 7273 2494 13441 1184 4319 47235 3157 1865 22195 10536 1508 6383 4049 4458 2548 1852 93156 4173 8787 17645 3991 1304
internal_value=0 -0.0295903 0.00135999 -0.0053438 -0.0163228 -0.0408025 -0.0167439 -0.0141031 -0.0321111 -0.0214467 -0.00749194 -0.0140729 -0.0320167 -0.0352506 -0.0244493 -0.0405486 -0.0187568 -0.0335093 -0.0221317 -0.0542176 -0.00754841 -0.0326604 -0.0564488 -0.00648002 -0.00930592 -0.0514427 -0.0594782 -0.00937818 -0.00897089 -0.0413882
internal_weight=0 418648 9.10882e+06 768635 191749 226899 219814 187580 32234 22413 114448 19919 55053 50734 73132 19104 54028 23326 18427 7891 30702 8507 9821 112622 99181 6025 11944 18735 7160 3169
internal_count=9527463 418648 9108815 768635 191749 226899 219814 187580 32234 22413 114448 19919 55053 50734 73132 19104 54028 23326 18427 7891 30702 8507 9821 112622 99181 6025 11944 18735 7160 3169
is_linear=0
shrinkage=0.1


Tree=7
num_leaves=31
num_cat=0
split_feature=0 4 0 0 4 4 3 4 4 3 4 2 4 2 4 1 4 3 4 3 3 4 4 4 3 4 3 4 2 3
split_gain=31281.5 6588.4 2698.27 2030.26 2469.9 907.53 1146.77 748.682 1173.52 720.044 704.337 1201.03 877.763 703.388 806.497 614.207 531.193 635.044 476.845 630.027 474.746 542.307 943.669 634.882 939.812 1231.44 1200 1308.52 658.49 779.084
threshold=20.500000000000004 56493.500000000007 8.5000000000000018 60.500000000000007 54736.500000000007 67087.000000000015 85008.500000000015 60812.000000000007 59473.000000000007 117576.00000000001 69732.500000000015 4.5000000000000009 78981.500000000015 5.5000000000000009 56870.500000000007 143.50000000000003 43707.000000000007 64053.000000000007 44343.000000000007 64053.000000000007 83387.000000000015 56301.000000000007 56870.500000000007 60812.000000000007 93283.000000000015 61020.000000000007 90193.500000000015 62269.000000000007 8.5000000000000018 109083.50000000001
decision_type=2 2 2 2 2 2 2 2 2 2 2 2 2 2 2 2 2 2 2 2 2 2 2 2 2 2 2 2 2 2
left_child=1 2 15 4 -2 6 -3 8 13 -9 20 -12 -13 14 -8 -1 -4 -18 -17 -20 -6 -22 -23 -24 25 -25 -27 -28 -26 -30
right_child=3 5 16 -5 10 -7 7 9 -10 -11 11 12 -14 -15 -16 18 17 -19 19 -21 21 22 23 24 28 26 27 -29 29 -31
leaf_value=-0.040255239741846006 0.00070217103285718238 -0.041194978612231585 -0.0019014544705945387 0.0018635655280738661 -0.014548658673185461 -0.045647368999493974 -0.064081174995994084 -0.034151584064329214 0.016434223064837421 0.026476458267009097 0.0066003054747130188 -0.053560292268557269 0.018142958009203718 -0.053835334083612629 0.021510887634096497 -0.015448553145896417 -0.030925701765373612 -0.0090304090788446301 -0.052712698254406512 -0.023612532302464156 0.0084460895324073235 -0.037382115319016439 0.00061156773863547964 -0.086504517861244218 0.0064353709296871807 -0.0046684673587076104 0.00015453061044131851 -0.076471918183772719 -0.037508836340218323 4.9085747435700878e-05
leaf_weight=26680 578491 66833 91251 8124045 101686 84511 1558 34728 10632 2076 6918 12717 1972 5868 3752 42790 15677 85443 9763 31267 22640 10290 73840 3016 28196 18859 3535 6030 9889 12510
leaf_count=26680 578491 66833 91251 8124045 101686 84511 1558 34728 10632 2076 6918 12717 1972 5868 3752 42790 15677 85443 9763 31267 22640 10290 73840 3016 28196 18859 3535 6030 9889 12510
internal_value=0 -0.0240239 -0.0145867 0.00136668 -0.00316593 -0.0376373 -0.032241 -0.0220316 -0.00735015 -0.0307317 -0.0103357 -0.0277543 -0.0439341 -0.0299727 -0.00360257 -0.0270405 -0.00743312 -0.0124249 -0.0228343 -0.0305369 -0.00904007 -0.00607327 -0.00805153 -0.00611529 -0.0121702 -0.0257481 -0.0193014 -0.0481526 -0.00373276 -0.0165325
internal_weight=0 512829 302871 9.01463e+06 890589 209958 125447 58614 21810 36804 312098 21607 14689 11178 5310 110500 192371 101120 83820 41030 290491 188805 166165 155875 82035 31440 28424 9565 50595 22399
internal_count=9527463 512829 302871 9014634 890589 209958 125447 58614 21810 36804 312098 21607 14689 11178 5310 110500 192371 101120 83820 41030 290491 188805 166165 155875 82035 31440 28424 9565 50595 22399
is_linear=0
shrinkage=0.1


Tree=8
num_leaves=31
num_cat=0
split_feature=0 0 4 4 0 0 4 4 2 2 4 3 4 3 3 3 3 2 2 3 3 4 4 2 3 3 4 2 4 4
split_gain=25525.6 3952.22 2881.47 2823.2 1115.44 872.79 1559.4 780.069 2352.67 612.336 561.954 699.981 574.438 554.555 826.392 520.345 2294.08 877.637 860.082 1293.71 1861.72 605.323 1156.85 1459.74 1069.88 1513.21 1434.36 1214.25 1708.53 1089.43
threshold=12.500000000000002 30.500000000000004 56599.500000000007 60588.500000000007 4.5000000000000009 106.50000000000001 50509.000000000007 50691.500000000007 6.5000000000000009 6.5000000000000009 33699.000000000007 51757.000000000007 46937.500000000007 94827.000000000015 96903.500000000015 80256.500000000015 80011.500000000015 7.5000000000000009 10.500000000000002 78082.500000000015 79733.500000000015 58899.500000000007 58979.000000000007 8.5000000000000018 93124.000000000015 92423.000000000015 66331.000000000015 9.5000000000000018 67534.000000000015 61020.000000000007
decision_type=2 2 2 2 2 2 2 2 2 2 2 2 2 2 2 2 2 2 2 2 2 2 2 2 2 2 2 2 2 2
left_child=3 2 -2 4 -1 6 -3 8 -8 -9 -6 -12 -13 -4 -15 16 17 -11 19 -19 -21 -17 23 -23 25 26 29 -26 -29 -24
right_child=1 5 13 -5 10 -7 7 9 -10 15 11 12 -14 14 -16 21 -18 18 -20 20 -22 22 24 -25 27 -27 -28 28 -30 -31
leaf_value=-0.031490887628686515 -0.0030872941413196938 0.0022867521627103773 -0.026260098698910762 -0.039745765418951959 -0.0015087235812935413 0.0018973837519467307 -0.091416160223678197 -0.00055642505019223062 0.0031034875601870966 0.0027218574606780658 -0.042623957602194465 -0.0059743511596599529 -0.021327914861338566 0.013970873905367581 -0.019251746703618317 3.1034305459878076e-05 -0.089394838702155033 0.0027404087968230595 0.0058268221890190016 -0.078128059365607183 0.0077146605286084278 -0.0070850998369485123 -0.027858659001023724 -0.092571562252678014 0.0043574357267992378 -0.076747502653267921 -0.075236568174402663 -0.0091400942565534656 -0.074885725992294094 0.0031654655497077781
leaf_weight=62940 292279 848658 79479 120105 23905 7164472 4028 362472 7606 27655 10772 37797 68588 9406 36702 148921 3870 6214 7439 8720 3557 4443 18816 3629 91401 4129 3535 33028 4490 28407
leaf_count=62940 292279 848658 79479 120105 23905 7164472 4028 362472 7606 27655 10772 37797 68588 9406 36702 148921 3870 6214 7439 8720 3557 4443 18816 3629 91401 4129 3535 33028 4490 28407
internal_value=0 0.000971337 -0.00853059 -0.0275821 -0.0204209 0.00142328 -0.000672135 -0.00392332 -0.0296217 -0.00353031 -0.0154816 -0.0183326 -0.015873 -0.0211988 -0.0124744 -0.00623699 -0.0150404 -0.00967039 -0.022887 -0.0344387 -0.053257 -0.00475283 -0.0084657 -0.045518 -0.00683852 -0.0185311 -0.0137954 -0.00186041 -0.0170083 -0.00919609
internal_weight=0 9.20336e+06 417866 324107 204002 8.78549e+06 1.62102e+06 772360 11634 760726 141062 117157 106385 125587 46108 398254 57455 53585 25930 18491 12277 340799 191878 8072 183806 54887 50758 128919 37518 47223
internal_count=9527463 9203356 417866 324107 204002 8785490 1621018 772360 11634 760726 141062 117157 106385 125587 46108 398254 57455 53585 25930 18491 12277 340799 191878 8072 183806 54887 50758 128919 37518 47223
is_linear=0
shrinkage=0.1


Tree=9
num_leaves=31
num_cat=0
split_feature=0 4 0 0 4 1 3 4 4 2 4 4 3 2 3 2 4 3 2 4 4 3 3 2 2 3 3 4 4 2
split_gain=20722.7 4543.94 1461.5 1346.23 1774.63 1086.2 781.445 735.332 666.788 998.233 715.002 612.202 582.992 470.955 931.548 434.862 428.783 536.108 420.209 399.481 1191.84 4498.6 578.32 2472.68 415.981 1371.6 11855.5 874.837 677.432 2550.24
threshold=20.500000000000004 52258.500000000007 8.5000000000000018 64.500000000000014 52609.500000000007 519.50000000000011 75634.500000000015 52805.000000000007 69732.500000000015 4.5000000000000009 78981.500000000015 17120.500000000004 80011.500000000015 7.5000000000000009 101296.50000000001 8.5000000000000018 45362.500000000007 50399.500000000007 8.5000000000000018 58899.500000000007 59341.000000000007 81857.500000000015 91692.500000000015 7.5000000000000009 7.5000000000000009 93283.000000000015 92423.000000000015 66331.000000000015 60588.500000000007 8.5000000000000018
decision_type=2 2 2 2 2 2 2 2 2 2 2 2 2 2 2 2 2 2 2 2 2 2 2 2 2 2 2 2 2 2
left_child=1 2 6 4 -2 -3 11 12 -9 -10 13 -1 15 -11 -15 -6 17 -13 -7 -5 21 -21 23 -23 -22 26 27 28 29 -26
right_child=3 5 -4 19 7 18 -8 8 9 10 -12 16 -14 14 -16 -17 -18 -19 -20 20 24 22 -24 -25 25 -27 -28 -29 -30 -31
leaf_value=0.012883275379892013 0.0011493619395348564 -0.034608515968897066 -0.0040096579378969726 0.0018836454600023363 0.0051948358808492365 -0.019351272624054276 0.0037083755785545696 -0.0059794994061591533 0.0062976978039037028 -0.067083706004376548 0.015784745035517033 -0.03020685036656608 -0.082280356184919773 0.017484482947009754 -0.056850535424196741 -0.074337047507178108 -0.037191559361355896 -0.0099442404729729698 -0.036214334102800907 -0.070226434686992703 0.0024907229768608343 0.0024113360813580601 0.00084928490675987396 -0.070701113364092877 -0.085073603665630826 0.0021672762580952363 -0.077864245485444045 -0.076075079681089272 0.0027802639638893185 0.0025503063574433328
leaf_weight=4364 577505 142595 157294 6482407 2461 104279 12150 370206 7547 6111 2127 27801 2285 2674 4562 954 22507 24622 17217 11096 758993 17499 79803 6288 4277 463528 21549 1490 176404 14868
leaf_count=4364 577505 142595 157294 6482407 2461 104279 12150 370206 7547 6111 2127 27801 2285 2674 4562 954 22507 24622 17217 11096 758993 17499 79803 6288 4277 463528 21549 1490 176404 14868
internal_value=0 -0.0195534 -0.0098542 0.00111236 -0.00239389 -0.0286887 -0.0199075 -0.00752327 -0.00700636 -0.0235196 -0.0380621 -0.0235261 -0.0431831 -0.0466432 -0.0293807 -0.0170229 -0.0256466 -0.0206899 -0.0217409 0.00153828 9.92831e-05 -0.00971199 -0.00323001 -0.0169157 0.000880082 -0.000912084 -0.00744204 0.000259624 0.000841261 -0.0170249
internal_weight=0 512829 248738 9.01463e+06 976432 264091 91444 398927 393227 23021 15474 79294 5700 13347 7236 3415 74930 52423 121496 8.0382e+06 1.5558e+06 114686 103590 23787 1.44111e+06 682116 218588 197039 195549 19145
internal_count=9527463 512829 248738 9014634 976432 264091 91444 398927 393227 23021 15474 79294 5700 13347 7236 3415 74930 52423 121496 8038202 1555795 114686 103590 23787 1441109 682116 218588 197039 195549 19145
is_linear=0
shrinkage=0.1


Tree=10
num_leaves=31
num_cat=0
split_feature=0 0 4 4 0 0 4 4 2 4 3 2 3 3 2 3 3 2 2 3 3 4 4 2 3 2 3 4 3 2
split_gain=16880.1 2673.7 1955.82 1912.48 832.735 637.199 1170.25 688.69 2023.16 551.342 516.424 478.66 462.093 602.046 441.212 440.373 1795.07 715.703 730.229 1061.84 1582.89 457.599 987.491 1207.04 832.658 1407.46 3544.31 1204.44 994.933 958.862
threshold=12.500000000000002 28.500000000000004 60974.000000000007 56599.500000000007 2.5000000000000004 108.50000000000001 50509.000000000007 50691.500000000007 6.5000000000000009 21791.500000000004 90193.500000000015 6.5000000000000009 94827.000000000015 96903.500000000015 6.5000000000000009 80256.500000000015 80011.500000000015 7.5000000000000009 10.500000000000002 78082.500000000015 79733.500000000015 58899.500000000007 58979.000000000007 8.5000000000000018 93124.000000000015 8.5000000000000018 88652.000000000015 65119.500000000007 90193.500000000015 9.5000000000000018
decision_type=2 2 2 2 2 2 2 2 2 2 2 2 2 2 2 2 2 2 2 2 2 2 2 2 2 2 2 2 2 2
left_child=2 3 4 -2 -1 6 -3 8 -8 -6 -11 -9 14 -14 -5 16 17 -13 19 -19 -21 -17 23 -23 25 26 -24 -28 -29 -26
right_child=1 5 -4 12 9 -7 7 11 -10 10 -12 15 13 -15 -16 21 -18 18 -20 20 -22 22 24 -25 29 -27 27 28 -30 -31
leaf_value=-0.030924814122488195 -0.0027820824638953539 0.0019025692911078581 -0.032691962295971877 -0.016822534916944402 0.01036348142907547 0.0015557428905866773 -0.082640686652945994 -0.00041988119815141996 0.0027157856529800503 -0.016676200856458375 0.004562574531973217 0.0023470620836697595 0.014023817606004541 -0.016028449785456828 -0.032847152837635236 7.8907324569019226e-05 -0.077460682411219714 0.0023484463416445591 0.0055564980547607853 -0.069588282965773657 0.007500580076592666 -0.0069908501125986802 0.0037837608408547948 -0.082926535426631809 0.0039909377471298337 0.0085645477406133177 -0.073617043860236472 0.0074540073744830881 -0.065137626304208066 -0.014517171247248467
leaf_weight=33705 259380 893868 118066 42938 8996 7123525 4249 382233 8015 150952 12388 29006 8354 32994 28644 156392 4057 6502 7832 9170 3754 4743 20479 3747 96471 16945 12915 4404 3305 39434
leaf_count=33705 259380 893868 118066 42938 8996 7123525 4249 382233 8015 150952 12388 29006 8354 32994 28644 156392 4057 6502 7832 9170 3754 4743 20479 3747 96471 16945 12915 4404 3305 39434
internal_value=0 0.000789895 -0.0224299 -0.00751122 -0.0165495 0.00113986 -0.000595122 -0.00333905 -0.0268569 -0.013738 -0.0150654 -0.00297915 -0.0183732 -0.00995665 -0.0232349 -0.00531297 -0.0132186 -0.00858631 -0.0202208 -0.0306135 -0.0471965 -0.00398402 -0.00712273 -0.0405045 -0.00566149 -0.0156871 -0.025685 -0.0549465 -0.0236675 -0.00137935
internal_weight=0 9.20336e+06 324107 372310 206041 8.83105e+06 1.70752e+06 813653 12264 172336 163340 801389 112930 41348 71582 419156 60321 56264 27258 19426 12924 358835 202443 8490 193953 58048 41103 20624 7709 135905
internal_count=9527463 9203356 324107 372310 206041 8831046 1707521 813653 12264 172336 163340 801389 112930 41348 71582 419156 60321 56264 27258 19426 12924 358835 202443 8490 193953 58048 41103 20624 7709 135905
is_linear=0
shrinkage=0.1


Tree=11
num_leaves=31
num_cat=0
split_feature=0 4 0 0 4 0 3 4 3 2 3 3 4 3 3 3 3 4 2 4 3 3 3 2 3 4 3 3 3 4
split_gain=13703.7 3176.68 997.935 893.954 1269.76 773.598 612.214 513.839 470.235 466.019 444.305 692.596 466.4 701.131 438.697 422.754 477.427 419.243 699.49 513.508 380.653 523.078 1337.79 497.284 383.965 793.381 437.285 1097.99 435.343 645.408
threshold=20.500000000000004 52258.500000000007 8.5000000000000018 58.500000000000007 54736.500000000007 4.5000000000000009 76052.500000000015 30840.000000000004 116543.50000000001 8.5000000000000018 107770.00000000001 105238.50000000001 60812.000000000007 83387.000000000015 64582.000000000007 94827.000000000015 65019.500000000007 69732.500000000015 4.5000000000000009 78981.500000000015 114286.50000000001 108388.50000000001 109083.50000000001 11.500000000000002 83387.000000000015 60812.000000000007 70472.500000000015 70764.500000000015 74389.500000000015 57810.500000000007
decision_type=2 2 2 2 2 2 2 2 2 2 2 2 2 2 2 2 2 2 2 2 2 2 2 2 2 2 2 2 2 2
left_child=1 2 6 4 -2 -3 7 -1 9 10 11 12 13 -7 -6 16 -14 20 -19 -20 21 24 -23 -24 26 -26 -16 -28 -29 -30
right_child=3 5 -4 -5 14 8 -8 -9 -10 -11 -12 -13 15 -15 17 -17 -18 18 19 -21 -22 22 23 -25 25 -27 27 28 29 -31
leaf_value=-0.0049283287737118438 0.00065946173324103264 -0.031312012421200186 -0.0029615308789777152 0.0012252671839246456 -0.061144788947099106 -0.020566400339125306 0.0054954799103535444 -0.023701713320369865 0.0092598176479009083 -0.035365173276690323 -0.04802460050854622 0.026832842961788884 0.035398087744003555 -0.00044034572813241523 0.0040437287103928981 -0.011073207021637789 -0.030720862866084372 0.0060826154312553296 -0.040634242230993281 0.015682276187286535 0.011629776786632157 -0.074461466356829084 0.011258395709042159 -0.048455576058923554 0.0030540559880306893 -0.011425682380614796 -0.086644333504008131 0.0020676181716512711 -0.025602667241807715 -0.0048562494082168015
leaf_weight=19180 549769 86231 157294 8167570 1514 49205 11481 60783 5410 19206 5045 3390 1116 26703 16147 16832 50953 6599 12412 1862 11548 4004 5801 1836 91904 64327 2028 16929 32661 27723
leaf_count=19180 549769 86231 157294 8167570 1514 49205 11481 60783 5410 19206 5045 3390 1116 26703 16147 16832 50953 6599 12412 1862 11548 4004 5801 1836 91904 64327 2028 16929 32661 27723
internal_value=0 -0.0159008 -0.00779103 0.00090457 -0.00218766 -0.023539 -0.0160983 -0.0191987 -0.0197705 -0.0206812 -0.0188409 -0.0178474 -0.0188934 -0.0134864 -0.00745266 -0.0248501 -0.0293037 -0.00717783 -0.0208409 -0.0332879 -0.00614043 -0.00691963 -0.0276435 -0.00309735 -0.00596124 -0.00290787 -0.0109569 -0.0140098 -0.0121045 -0.0160777
internal_weight=0 512829 248738 9.01463e+06 847064 264091 91444 79963 177860 172450 153244 148199 144809 75908 297295 68901 52069 295781 20873 14274 274908 263360 11641 7637 251719 156231 95488 79341 77313 60384
internal_count=9527463 512829 248738 9014634 847064 264091 91444 79963 177860 172450 153244 148199 144809 75908 297295 68901 52069 295781 20873 14274 274908 263360 11641 7637 251719 156231 95488 79341 77313 60384
is_linear=0
shrinkage=0.1


Tree=12
num_leaves=31
num_cat=0
split_feature=0 0 4 4 4 0 4 2 2 3 2 4 4 2 3 4 3 4 3 4 3 3 2 4 3 4 3 3 4 2
split_gain=11227.5 2183.75 1509.53 1119.02 535.023 810.459 885.525 762.016 737.719 493.159 1391.41 1162.88 738.697 1225.19 644.159 703.879 482.765 585.83 442.743 722.028 376.454 10054.4 363.157 765.547 432.48 641.737 708.281 420.097 406.121 376.194
threshold=10.500000000000002 26.500000000000004 53310.000000000007 44343.000000000007 56705.000000000007 84.500000000000014 56793.500000000007 12.500000000000002 5.5000000000000009 79733.500000000015 4.5000000000000009 57493.500000000007 66015.500000000015 10.500000000000002 93283.000000000015 66331.000000000015 51757.000000000007 25594.000000000004 64053.000000000007 60588.500000000007 92613.500000000015 92423.000000000015 6.5000000000000009 54617.500000000007 94983.000000000015 64657.500000000007 108388.50000000001 62386.000000000007 54921.500000000007 10.500000000000002
decision_type=2 2 2 2 2 2 2 2 2 2 2 2 2 2 2 2 2 2 2 2 2 2 2 2 2 2 2 2 2 2
left_child=3 2 -2 16 -3 6 7 8 -6 10 -8 -12 -11 14 15 -14 17 -1 -5 -20 21 -7 27 -24 28 26 -26 -4 -25 -28
right_child=1 4 22 18 5 20 9 -9 -10 12 11 -13 13 -15 -16 -17 -18 -19 19 -21 -22 -23 23 24 25 -27 29 -29 -30 -31
leaf_value=0.0010598489447001891 -0.0015621626850625759 0.00137217362595997 -0.060511353659776994 -0.03643569924096892 -0.076974055761157886 0.0004482513449722078 0.0032745834331664851 -0.084745525877472833 0.0090109152301244867 -0.00022671450555404322 -0.00047873033223965763 -0.048689488428881614 0.011205016545425276 -0.072517040331119387 -0.0046514952750552029 -0.057929668397385392 -0.00070251245979750137 -0.025093497441508718 -0.01409398426643373 -0.027149973759464954 0.0018443318490510786 -0.070349678245769862 -0.079967850516380126 0.017700064137061208 0.015301117716890165 -0.025238082235365653 -0.050200012532231525 -0.0090971482295314921 -0.027828456940661314 0.021603654889422823
leaf_weight=12485 220199 6543104 1620 24186 1414 1047094 23075 2459 3390 232393 7685 14337 2096 3289 41154 4952 34398 27277 69831 107665 929716 20451 2053 2076 12866 13730 3031 83640 34836 961
leaf_count=12485 220199 6543104 1620 24186 1414 1047094 23075 2459 3390 232393 7685 14337 2096 3289 41154 4952 34398 27277 69831 107665 929716 20451 2053 2076 12866 13730 3031 83640 34836 961
internal_value=0 0.000592755 -0.00688194 -0.0198807 0.00090854 -0.000391481 -0.00493352 -0.0394718 -0.0162977 -0.00417101 -0.0138852 -0.0318654 -0.00262785 -0.0134648 -0.00943549 -0.0373698 -0.00937713 -0.0168815 -0.023743 -0.0220134 0.000373184 -0.000908027 -0.0144486 -0.0198109 -0.0179813 -0.00918824 0.00388356 -0.0100741 -0.0252678 -0.0329146
internal_weight=0 9.25162e+06 375012 275842 8.87661e+06 2.3335e+06 336244 7263 4804 328981 45097 22022 283884 51491 48202 7048 74160 39762 201682 177496 1.99726e+06 1.06754e+06 154813 69553 67500 30588 16858 85260 36912 3992
internal_count=9527463 9251621 375012 275842 8876609 2333505 336244 7263 4804 328981 45097 22022 283884 51491 48202 7048 74160 39762 201682 177496 1997261 1067545 154813 69553 67500 30588 16858 85260 36912 3992
is_linear=0
shrinkage=0.1


Tree=13
num_leaves=31
num_cat=0
split_feature=0 0 4 4 3 4 4 0 4 2 2 3 2 4 4 2 3 4 2 3 1 3 3 4 4 2 4 4 2 2
split_gain=9094.31 1781.93 1353.39 906.409 412.282 434.765 407.759 584.989 622.468 711.162 589.586 463.975 1260.96 1107.41 560.982 1303.41 616.12 629.739 448.026 867.063 388.289 362.13 531.858 466.761 520.064 512.141 346.094 330.258 503.016 658.644
threshold=10.500000000000002 28.500000000000004 56599.500000000007 44343.000000000007 60551.000000000007 30840.000000000004 56705.000000000007 94.500000000000014 56793.500000000007 12.500000000000002 5.5000000000000009 79733.500000000015 4.5000000000000009 57493.500000000007 66015.500000000015 10.500000000000002 93283.000000000015 66331.000000000015 5.5000000000000009 77645.500000000015 220.50000000000003 94827.000000000015 96903.500000000015 58791.500000000007 64657.500000000007 4.5000000000000009 68823.000000000015 69732.500000000015 5.5000000000000009 6.5000000000000009
decision_type=2 2 2 2 2 2 2 2 2 2 2 2 2 2 2 2 2 2 2 2 2 2 2 2 2 2 2 2 2 2
left_child=3 2 -2 4 5 -1 -3 8 9 10 -8 12 -10 -14 -13 16 17 -16 19 -15 -5 26 -23 -24 -25 -26 -4 -18 -29 -30
right_child=1 6 21 20 -6 -7 7 -9 11 -11 -12 14 13 18 15 -17 27 -19 -20 -21 -22 22 23 24 25 -27 -28 28 29 -31
leaf_value=-0.0022497352233220155 -0.0020493497512362774 0.0012420221661659505 -0.016427437248683775 -0.026553019919239154 0.0053372925920033348 -0.019887670121829779 -0.070152909772983496 0.0003980937293130361 0.003074590131551275 -0.076270973246094664 0.0066585607192089754 4.5954721013671044e-05 -3.4191639661534365e-05 -0.065227819845671928 0.0088503994799262829 -0.066994724356714525 0.0070010831961403236 -0.053503714947240849 -0.057887061570165765 0.012097791568419645 -0.017655091639986194 0.013924212745134152 -0.056145196310600234 0.0036144826238926377 0.029967143363899801 -0.025955264359398753 -0.040216663362924364 0.0070432987266572655 -0.070963842513041331 -0.012841794934954196
leaf_weight=24107 291412 6510534 75441 84173 16801 33252 1311 1942935 25905 2459 4203 262619 8663 2645 2384 3862 20371 5052 9666 3210 117509 9401 2317 15882 1805 17662 6655 10185 2302 12740
leaf_count=24107 291412 6510534 75441 84173 16801 33252 1311 1942935 25905 2459 4203 262619 8663 2645 2384 3862 20371 5052 9666 3210 117509 9401 2317 15882 1805 17662 6655 10185 2302 12740
internal_value=0 0.000533479 -0.00582598 -0.0178927 -0.00843942 -0.0124747 0.000836346 -0.000301838 -0.00390354 -0.0315483 -0.011604 -0.0033072 -0.0122558 -0.0286771 -0.00190437 -0.0109066 -0.00682222 -0.0335128 -0.044664 -0.0228341 -0.0213687 -0.0143467 -0.00735362 -0.0126643 -0.00981431 -0.0207701 -0.0183559 -0.00246959 -0.0101172 -0.0217367
internal_weight=0 9.25162e+06 420575 275842 74160 57359 8.83105e+06 2.32051e+06 377577 7973 5514 369604 50089 24184 319515 56896 53034 7436 15521 5855 201682 129163 47067 37666 35349 19467 82096 45598 25227 15042
internal_count=9527463 9251621 420575 275842 74160 57359 8831046 2320512 377577 7973 5514 369604 50089 24184 319515 56896 53034 7436 15521 5855 201682 129163 47067 37666 35349 19467 82096 45598 25227 15042
is_linear=0
shrinkage=0.1


Tree=14
num_leaves=31
num_cat=0
split_feature=0 4 3 4 0 4 3 3 4 2 3 3 2 4 4 3 4 4 2 4 2 3 3 2 2 3 3 2 3 3
split_gain=7401.74 1661.57 647.077 651.296 625.913 918.771 507.205 494.966 953.314 622.213 464.433 551.854 427.809 650.397 409.128 538.856 381.018 540.225 472.323 359.531 508.566 461.454 360.043 344.218 705.204 348.181 599.389 329.299 726.183 459.091
threshold=18.500000000000004 51875.500000000007 77382.000000000015 44343.000000000007 74.500000000000014 50408.500000000007 61941.000000000007 51757.000000000007 34302.000000000007 4.5000000000000009 62386.000000000007 76437.000000000015 7.5000000000000009 43237.000000000007 65444.000000000007 117576.00000000001 48911.500000000007 51088.500000000007 2.5000000000000004 66015.500000000015 10.500000000000002 83387.000000000015 88088.500000000015 4.5000000000000009 6.5000000000000009 93283.000000000015 80087.500000000015 4.5000000000000009 82895.000000000015 80256.500000000015
decision_type=2 2 2 2 2 2 2 2 2 2 2 2 2 2 2 2 2 2 2 2 2 2 2 2 2 2 2 2 2 2
left_child=1 2 3 7 5 -2 -7 8 -1 -10 -5 16 -9 -14 15 -3 -12 18 -18 21 23 27 -23 25 -25 26 -21 29 -29 -8
right_child=4 14 -4 10 -6 6 19 12 9 -11 11 -13 13 -15 -16 -17 17 -19 -20 20 -22 22 -24 24 -26 -27 -28 28 -30 -31
leaf_value=-0.0024867988234941402 0.0011625791336107218 -0.015441250492396192 0.0069653878819624414 -0.031765356460846793 0.000962100195445087 -0.068213459846952249 0.0028221660318374191 0.0052667863176215262 -0.020206711844297995 -0.06535152834044225 0.0015716516901669382 -0.077590558805056872 -0.0068786250978940507 -0.078848841623676669 -0.023077904477186911 0.033192580784367008 0.019595792883957224 0.013945977121103008 -0.036679864280798176 0.016751895364216386 -0.054095385927814654 0.0058694045235829686 -0.0025663198285857634 -0.058554172157604362 -0.010607105897853956 0.012046091051579695 -0.052010374851970978 -0.0084108424464913577 -0.07851043357885501 -0.017951052105974686
leaf_weight=46570 641259 151512 33057 16268 7827311 1239 58736 54635 17777 3686 17071 1213 9496 1447 94214 2313 1718 3721 11308 2412 2698 64885 229736 3369 34282 11483 2672 166892 1491 12992
leaf_count=46570 641259 151512 33057 16268 7827311 1239 58736 54635 17777 3686 17071 1213 9496 1447 94214 2313 1718 3721 11308 2412 2698 64885 229736 3369 34282 11483 2672 166892 1491 12992
internal_value=0 -0.0122908 -0.005921 -0.00822474 0.000632084 -0.00146097 -0.00429857 -0.00454733 -0.010523 -0.0279598 -0.0178028 -0.0113187 0.00165204 -0.0163953 -0.0178884 -0.01471 -0.00894162 -0.0196583 -0.0292577 -0.00416472 -0.0117206 -0.00336048 -0.000708503 -0.00961199 -0.0148974 0.0023999 -0.0193875 -0.00661452 -0.00903156 -0.00094046
internal_weight=0 466006 217967 184910 9.06146e+06 1.23415e+06 592887 133611 68033 21463 51299 35031 65578 10943 248039 153825 33818 16747 13026 591648 56916 534732 294621 54218 37651 16567 5084 240111 168383 71728
internal_count=9527463 466006 217967 184910 9061457 1234146 592887 133611 68033 21463 51299 35031 65578 10943 248039 153825 33818 16747 13026 591648 56916 534732 294621 54218 37651 16567 5084 240111 168383 71728
is_linear=0
shrinkage=0.1


Tree=15
num_leaves=31
num_cat=0
split_feature=0 0 4 4 4 4 3 3 2 4 3 2 3 3 4 3 2 2 3 4 4 4 4 4 2 4 2 3 4 4
split_gain=6144.98 1181.23 1181.24 577.877 401.311 400.704 678.824 546.544 545.289 387.749 1107 757.269 665.863 573.604 518.683 412.662 529.134 462.945 496.563 527.411 512.11 454.496 679.007 445.624 424.126 550.451 408.283 527.609 400.176 770.398
threshold=10.500000000000002 36.500000000000007 56493.500000000007 44343.000000000007 57810.500000000007 57427.000000000007 86375.000000000015 98277.000000000015 8.5000000000000018 62120.500000000007 71698.000000000015 3.5000000000000004 70764.500000000015 89906.000000000015 58661.000000000007 93283.000000000015 4.5000000000000009 5.5000000000000009 90193.500000000015 62749.000000000007 66331.000000000015 64156.500000000007 63010.500000000007 66015.500000000015 7.5000000000000009 62269.000000000007 14.500000000000002 94341.500000000015 60243.000000000007 60812.000000000007
decision_type=2 2 2 2 2 2 2 2 2 2 2 2 2 2 2 2 2 2 2 2 2 2 2 2 2 2 2 2 2 2
left_child=3 2 -2 -1 5 7 -7 -4 -8 10 -6 -12 -11 14 -13 17 -17 -14 19 -19 21 22 -21 24 25 -18 27 -26 -16 -30
right_child=1 -3 4 -5 9 6 8 -9 -10 12 11 13 15 -15 28 16 23 18 -20 20 -22 -23 -24 -25 26 -27 -28 -29 29 -31
leaf_value=-0.0071598069988564874 -0.00094555956984184591 0.00073651435707697375 0.003126486556240122 -0.017483369277258794 -0.056032732098102569 -0.052775160922372867 0.020150640413179842 -0.051538166336182814 -0.053682598142278971 0.034253342015807424 0.027387815540293819 0.010867441367537631 -0.036457733087448992 0.0056112763286523693 -0.034505356052037806 0.019809227979075746 -0.069213225644105564 -0.052670515555597264 -0.036787376042538567 0.022951620940762064 -0.032356824470328026 0.032290320673241876 -0.047587134645878659 -0.022068776535435184 0.037080175629111686 0.017677732076953494 0.025705692291511262 -0.041969312589357509 0.02119826741157179 -0.033640330009108148
leaf_weight=74160 421148 8650021 8414 201682 3750 7916 3031 2337 1493 2861 8655 6262 14697 28566 11596 5769 785 1996 6677 3111 3318 5664 2431 22454 997 10233 1659 5514 4913 5353
leaf_count=74160 421148 8650021 8414 201682 3750 7916 3031 2337 1493 2861 8655 6262 14697 28566 11596 5769 785 1996 6677 3111 3318 5664 2431 22454 997 10233 1659 5514 4913 5353
internal_value=0 0.000438523 -0.0038461 -0.0147079 -0.0106155 -0.0228959 -0.0351157 -0.00875625 -0.00421563 -0.00880456 -0.00319547 -0.000163265 -0.0132004 -0.00436955 -0.0145072 -0.0147919 -0.00857381 -0.0225716 -0.0137737 -0.00447214 0.00215165 0.0123693 -0.00799023 -0.0125059 -0.00131542 0.011487 -0.0185807 -0.0298648 -0.0217754 -0.00739622
internal_weight=0 9.25162e+06 601600 275842 180452 23191 12440 10751 4524 157261 69095 65345 88166 56690 28124 85305 47411 37894 23197 16520 14524 11206 5542 41642 19188 11018 8170 6511 21862 10266
internal_count=9527463 9251621 601600 275842 180452 23191 12440 10751 4524 157261 69095 65345 88166 56690 28124 85305 47411 37894 23197 16520 14524 11206 5542 41642 19188 11018 8170 6511 21862 10266
is_linear=0
shrinkage=0.1


Tree=16
num_leaves=31
num_cat=0
split_feature=0 0 4 4 3 3 3 3 4 2 4 3 4 3 3 3 4 3 2 2 4 3 3 4 4 4 3 4 4 4
split_gain=4977.43 956.794 1000.22 495.403 479.022 431.835 368.427 545.131 642.625 364.537 996.748 402.082 591.611 618.679 634.801 476.636 432.746 380.29 450.856 378.828 584.43 582.489 834.581 342.24 980.492 322.744 554.66 324.894 319.96 301.137
threshold=10.500000000000002 36.500000000000007 53310.000000000007 60974.000000000007 90193.500000000015 62386.000000000007 70472.500000000015 71698.000000000015 55910.500000000007 6.5000000000000009 54617.500000000007 94983.000000000015 64657.500000000007 108388.50000000001 109083.50000000001 94341.500000000015 65934.000000000015 101296.50000000001 7.5000000000000009 7.5000000000000009 60812.000000000007 82690.000000000015 77816.500000000015 56428.500000000007 62617.500000000007 67534.000000000015 111558.00000000001 78981.500000000015 17120.500000000004 59803.500000000007
decision_type=2 2 2 2 2 2 2 2 2 2 2 2 2 2 2 2 2 2 2 2 2 2 2 2 2 2 2 2 2 2
left_child=3 2 -2 4 28 -4 23 8 -8 -9 -11 15 13 -13 -15 19 -14 18 -18 20 21 22 -12 -7 -25 26 -19 -27 -1 -6
right_child=1 -3 5 -5 29 6 7 9 -10 10 11 12 16 14 -16 -17 17 25 -20 -21 -22 -23 -24 24 -26 27 -28 -29 -30 -31
leaf_value=0.012691102372114002 -0.0001027463247211117 0.00066286293345405966 -0.052515165984630588 -0.018545391002661692 0.00017814021591621519 0.019393072481756701 0.01192865415341543 -0.0039522354804752595 -0.056714611209146851 -0.072357931445223858 0.027516378886284706 0.01322416586098561 -0.050613369072354988 -0.057343941160580669 0.0030623888262169292 -0.056965799616037517 -0.035281762064260494 -0.042498165223951515 0.041485664002496092 -0.0084667287685351381 -0.043778050424002894 0.014968990773716613 -0.060771734660432668 -0.050262992345299108 0.030828008189021358 -0.03536445650795051 0.03536868648008569 0.022630540079080178 -0.011997673485570237 0.038927163660443721
leaf_weight=5435 358410 8650021 2200 107375 6564 9065 1908 106190 4782 2681 1557 22391 3256 2831 4513 2729 1102 1479 2502 38494 9246 5059 3428 3114 2861 8311 2398 1093 153580 2888
leaf_count=5435 358410 8650021 2200 107375 6564 9065 1908 106190 4782 2681 1557 22391 3256 2831 4513 2729 1102 1479 2502 38494 9246 5059 3428 3114 2861 8311 2398 1093 153580 2888
internal_value=0 0.000394671 -0.00346149 -0.0132371 -0.00985377 -0.00841156 -0.00800893 -0.00901771 -0.0371374 -0.00815973 -0.0121112 -0.010648 -0.00400028 0.00496325 -0.0202233 -0.0161272 -0.0172335 -0.0107967 0.0180124 -0.0141985 -0.0256364 -0.00893612 -0.0331961 0.00714616 -0.0114343 -0.0186145 0.005664 -0.0286239 -0.0111538 0.0120177
internal_weight=0 9.25162e+06 601600 275842 168467 243190 240990 225950 6690 219260 113070 110389 49876 29735 7344 60513 20141 16885 3604 57784 19290 10044 4985 15040 5975 13281 3877 9404 159015 9452
internal_count=9527463 9251621 601600 275842 168467 243190 240990 225950 6690 219260 113070 110389 49876 29735 7344 60513 20141 16885 3604 57784 19290 10044 4985 15040 5975 13281 3877 9404 159015 9452
is_linear=0
shrinkage=0.1


Tree=17
num_leaves=31
num_cat=0
split_feature=0 0 4 3 4 3 3 4 2 3 4 4 3 3 2 2 3 3 4 4 2 3 4 4 3 4 3 2 3 4
split_gain=4031.72 777.724 734.792 462.828 435.693 318.926 305.571 469.66 339.943 329.46 297.579 1077.05 4218.97 359.238 2024.4 336.103 898.972 8131.39 713.579 728.503 2186.16 290.529 430.598 264.262 458.758 394.209 316.868 388.871 388.608 409.611
threshold=10.500000000000002 32.500000000000007 50054.500000000007 64053.000000000007 41095.500000000007 62039.500000000007 64053.000000000007 60588.500000000007 9.5000000000000018 65019.500000000007 58899.500000000007 59341.000000000007 81857.500000000015 91692.500000000015 7.5000000000000009 7.5000000000000009 93283.000000000015 92423.000000000015 66331.000000000015 60588.500000000007 8.5000000000000018 85305.000000000015 59473.000000000007 62120.500000000007 70764.500000000015 61681.500000000007 93283.000000000015 5.5000000000000009 90193.500000000015 62749.000000000007
decision_type=2 2 2 2 2 2 2 2 2 2 2 2 2 2 2 2 2 2 2 2 2 2 2 2 2 2 2 2 2 2
left_child=4 2 -2 -4 5 -1 -6 8 21 -9 -3 12 -12 14 -14 -13 17 18 19 20 -17 -8 -23 25 -25 -5 27 -26 29 -29
right_child=1 10 3 23 6 -7 7 9 -10 -11 11 15 13 -15 -16 16 -18 -19 -20 -21 -22 22 -24 24 26 -27 -28 28 -30 -31
leaf_value=-0.0070293079625978515 0.000380548712136649 0.00086309723275459441 -0.033201319457159727 -0.0050220396403265078 -0.022643334479795902 0.015226870033795704 -0.0083815824163178398 0.04181285702634132 -0.057926979835249651 -0.017123583445653869 -0.063148108817330142 0.0014852911409958115 0.0024904041207662211 -0.00021044030009362248 -0.062939636816884428 -0.073643820541049024 0.0009401260410002414 -0.062621854994461865 -0.04792997061038301 0.00221472183054865 0.001696392521262169 -0.002561932711069003 0.038707003027350466 0.031501553191338696 -0.032887058310309303 0.028369678938629819 -0.0068201399945008725 -0.044451252469617529 -0.032603876907674099 0.0042978409278373918
leaf_weight=50147 254138 7046501 6668 169067 34139 7387 61857 957 1257 106708 13137 827613 19069 87114 6288 5198 503757 23301 3113 190003 14868 10007 3383 2423 13677 3611 41464 1996 5985 12630
leaf_count=50147 254138 7046501 6668 169067 34139 7387 61857 957 1257 106708 13137 827613 19069 87114 6288 5198 503757 23301 3113 190003 14868 10007 3383 2423 13677 3611 41464 1996 5985 12630
internal_value=0 0.000355204 -0.00343418 -0.00719879 -0.0119134 -0.00417176 -0.0139537 -0.0123429 -0.00635215 -0.0165997 0.000577044 -0.000613227 -0.00952315 -0.00325957 -0.0137349 0.000100589 -0.00144755 -0.0065338 -0.000403321 0.000300973 -0.0178201 -0.0054906 0.00786471 -0.00650761 -0.0113314 -0.00432376 -0.0127015 -0.0198137 -0.0111386 -0.00235491
internal_weight=0 9.25162e+06 511659 257521 275842 57534 218308 184169 76504 107665 8.73996e+06 1.69346e+06 125608 112471 25357 1.56785e+06 740240 236483 213182 210069 20066 75247 13390 250853 78175 172678 75752 34288 20611 14626
internal_count=9527463 9251621 511659 257521 275842 57534 218308 184169 76504 107665 8739962 1693461 125608 112471 25357 1567853 740240 236483 213182 210069 20066 75247 13390 250853 78175 172678 75752 34288 20611 14626
is_linear=0
shrinkage=0.1


Tree=18
num_leaves=31
num_cat=0
split_feature=0 4 3 4 3 4 3 2 4 3 3 3 0 4 3 3 4 2 2 2 3 3 4 2 4 4 2 3 4 2
split_gain=3294.51 956.616 448.054 607.029 447.934 439.473 719.277 705.787 777.107 410.088 391.427 384.712 319.894 602.189 425.822 2234.74 1309.38 1480.96 521.208 562.141 745.685 1266.72 499.429 2272.55 898.57 366.569 1306.49 412.182 514.291 356.293
threshold=22.500000000000004 52258.500000000007 78504.500000000015 48440.500000000007 71698.000000000015 30840.000000000004 51757.000000000007 7.5000000000000009 42421.500000000007 58477.500000000007 76437.000000000015 64053.000000000007 116.50000000000001 50408.500000000007 80087.500000000015 80011.500000000015 50691.500000000007 7.5000000000000009 7.5000000000000009 10.500000000000002 78082.500000000015 79733.500000000015 57427.000000000007 5.5000000000000009 57742.000000000007 66015.500000000015 10.500000000000002 93283.000000000015 66331.000000000015 2.5000000000000004
decision_type=2 2 2 2 2 2 2 2 2 2 2 2 2 2 2 2 2 2 2 2 2 2 2 2 2 2 2 2 2 2
left_child=1 2 3 4 5 -1 -7 -8 9 -9 11 -5 13 -2 15 16 17 -15 22 20 -20 -22 29 24 -24 -16 27 28 -27 -18
right_child=12 -3 -4 10 -6 6 7 8 -10 -11 -12 -13 -14 14 25 -17 18 -19 19 -21 21 -23 23 -25 -26 26 -28 -29 -30 -31
leaf_value=0.002726077183393748 0.0010215085257949698 -0.011524201531091592 0.0063868741566836381 -0.030290117868005617 0.0098901877739664204 -0.0194329125587362 0.001292091604115299 -0.034571210984703858 -0.068206320737048368 0.0099306721289466049 -0.052444634866364054 -0.0069055656057564474 0.0007847565398748183 -0.075208011431609947 -0.00019707875357272684 -0.072296331996884913 -0.049799851329743738 0.0025534683008203813 0.0020750465909799899 0.0055402613387169689 -0.055448201012597301 0.0086494434582324604 -0.055473563996571024 -0.056529975928717204 0.0025851711944876498 0.0079584284285172998 -0.059445764014753912 -0.0013711979380250988 -0.0399794363427729 0.0010280379778256318
leaf_weight=56194 1040069 283697 41061 9946 24587 37554 67359 3704 3110 4696 2832 24039 6962318 5444 591600 4941 1389 4452 7393 9145 10575 4352 2846 8851 42086 3431 4553 64824 6436 193979
leaf_count=56194 1040069 283697 41061 9946 24587 37554 67359 3704 3110 4696 2832 24039 6962318 5444 591600 4941 1389 4452 7393 9145 10575 4352 2846 8851 42086 3431 4553 64824 6436 193979
internal_value=0 -0.00744991 -0.00324801 -0.00493854 -0.00273792 -0.00453663 -0.00804213 -0.00261833 -0.025503 -0.00969254 -0.0167257 -0.0137493 0.000464154 -0.000648373 -0.00244574 -0.00560893 -0.00447472 -0.0402248 -0.00321398 -0.0153414 -0.023897 -0.0367604 -0.00168243 -0.0102156 -0.00109228 -0.00105261 -0.00743962 -0.00426944 -0.0233103 0.000666669
internal_weight=0 558779 275082 234021 197204 172617 116423 78869 11510 8400 36817 33985 8.96868e+06 2.00637e+06 966297 295453 290512 9896 280616 31465 22320 14927 249151 53783 44932 670844 79244 74691 9867 195368
internal_count=9527463 558779 275082 234021 197204 172617 116423 78869 11510 8400 36817 33985 8968684 2006366 966297 295453 290512 9896 280616 31465 22320 14927 249151 53783 44932 670844 79244 74691 9867 195368
is_linear=0
shrinkage=0.1


Tree=19
num_leaves=31
num_cat=0
split_feature=0 0 4 3 4 4 1 4 3 2 3 4 4 2 2 2 3 3 3 2 4 3 2 3 2 3 3 1 4 4
split_gain=2763.48 604.395 475.512 374.976 324.376 259.932 424.155 612.652 2549.63 347.883 671.947 2579.01 285.912 856.176 750.948 406.961 408.751 1055.81 572.676 2440.72 1416.55 418.192 396.226 917.21 386.329 478.613 1909.66 682.2 356.37 926.258
threshold=8.5000000000000018 24.500000000000004 43707.000000000007 64053.000000000007 56599.500000000007 55910.500000000007 6608.5000000000009 55945.500000000007 83387.000000000015 5.5000000000000009 78187.500000000015 57493.500000000007 67534.000000000015 8.5000000000000018 6.5000000000000009 6.5000000000000009 93124.000000000015 92423.000000000015 88652.000000000015 8.5000000000000018 65119.500000000007 90193.500000000015 12.500000000000002 90404.500000000015 8.5000000000000018 109083.50000000001 106813.00000000001 5336.5000000000009 59900.500000000007 60087.500000000007
decision_type=2 2 2 2 2 2 2 2 2 2 2 2 2 2 2 2 2 2 2 2 2 2 2 2 2 2 2 2 2 2
left_child=-1 2 -2 -4 -5 -3 7 8 -7 -9 11 -11 15 14 -14 -12 17 18 -17 20 -20 -22 -21 -24 -18 26 28 -28 -26 -30
right_child=1 5 3 4 -6 6 -8 9 -10 10 12 -13 13 -15 -16 16 24 -19 19 22 21 -23 23 -25 25 -27 27 -29 29 -31
leaf_value=-0.01088752581513636 0.001486393077022409 0.00079464850061089932 -0.018927255182730991 -0.0011671696224997859 -0.0086057694359285824 -0.088640288345238738 0.00035373134123948662 0.0013036780784342421 0.0031470813688787092 0.0040106739024137888 0.0049969244949661182 -0.056143199849601769 -0.054574705172748317 -0.048707681159552568 0.00058617630596829421 -0.00055924473222481407 0.0052696389298402787 -0.050581889455827291 -0.064768831764442342 0.0058145798006770518 0.0070520998673755638 -0.037716931486425326 0.0046573518667382329 -0.069032615411319609 0.0059485304587921159 0.0042950359635479055 -0.057006923848138394 0.0011642859277458944 -0.081024819344230559 -0.0047137168488503509
leaf_weight=227562 121871 6149531 20938 114961 119623 4196 2063350 214188 10856 19634 71954 11189 2726 5204 26078 93808 78217 5365 11385 32986 5147 3509 5173 2508 30265 41893 9714 2544 1733 19355
leaf_count=227562 121871 6149531 20938 114961 119623 4196 2063350 214188 10856 19634 71954 11189 2726 5204 26078 93808 78217 5365 11385 32986 5147 3509 5173 2508 30265 41893 9714 2544 1733 19355
internal_value=0 0.00026641 -0.00365343 -0.00610486 -0.00496038 0.000432206 -0.000371568 -0.00248049 -0.0224402 -0.00204795 -0.00354232 -0.0178257 -0.00256303 -0.0113785 -0.00463423 -0.00184159 -0.00327365 -0.00697093 -0.0054567 -0.0130244 -0.041587 -0.0110965 0.00105143 -0.0194039 -5.61381e-05 -0.00400448 -0.00947039 -0.0449342 -0.00100516 -0.0109849
internal_weight=0 9.2999e+06 377393 255522 234584 8.92251e+06 2.77298e+06 709627 15052 694575 480387 30823 449564 34008 28804 415556 343602 159881 154516 60708 20041 8656 40667 7681 183721 105504 63611 12258 51353 21088
internal_count=9527463 9299901 377393 255522 234584 8922508 2772977 709627 15052 694575 480387 30823 449564 34008 28804 415556 343602 159881 154516 60708 20041 8656 40667 7681 183721 105504 63611 12258 51353 21088
is_linear=0
shrinkage=0.1


Tree=20
num_leaves=31
num_cat=0
split_feature=0 0 4 4 2 2 3 3 3 3 2 2 3 0 4 3 3 2 3 4 2 3 4 4 3 3 2 0 3 4
split_gain=2241.13 398.794 621.073 444.487 2655.74 401.543 510.544 1516.59 555.277 841.479 340.872 1110.41 604.623 333.007 301.091 328.613 845.658 589.023 1159.32 1202.65 567.622 879.268 798.99 503.792 485.081 1840.08 441.03 390.345 372.51 1308.06
threshold=10.500000000000002 110.50000000000001 50408.500000000007 50691.500000000007 6.5000000000000009 6.5000000000000009 80256.500000000015 80011.500000000015 77816.500000000015 78187.500000000015 8.5000000000000018 10.500000000000002 78640.000000000015 2.5000000000000004 56073.000000000007 93124.000000000015 92423.000000000015 8.5000000000000018 88652.000000000015 65119.500000000007 8.5000000000000018 108388.50000000001 67534.000000000015 66331.000000000015 109083.50000000001 105046.50000000001 11.500000000000002 56.500000000000007 82690.000000000015 61681.500000000007
decision_type=2 2 2 2 2 2 2 2 2 2 2 2 2 2 2 2 2 2 2 2 2 2 2 2 2 2 2 2 2 2
left_child=13 2 -2 4 -4 -5 7 8 -7 -10 12 -12 -11 -1 -8 16 17 18 28 -20 21 -17 24 -21 25 -22 -27 -23 29 -16
right_child=1 -3 3 5 -6 6 14 -9 9 10 11 -13 -14 -15 15 20 -18 -19 19 23 22 27 -24 -25 -26 26 -28 -29 -30 -31
leaf_value=-0.014365213782674829 0.00071514490718617733 0.0006281169520982175 -0.067101669366674818 -0.00031583433650910739 0.0038706436824852255 0.0024816899880995176 0.0015678260610195935 -0.06520678680431205 -0.068257997698207215 -0.057082588824792585 -0.044123091800784366 0.0055076337499124399 0.0029750079388037899 -0.0066804594473640275 -0.057560911471313092 0.0061585144443086735 -0.043468017387739033 0.00034597759921634465 -0.054154575504343251 0.013385356166370339 -0.00095277658850071952 -0.04156291544090461 -0.035194707944309032 -0.032227740602687592 0.0049826169134148746 -0.052234167687856339 0.00057807412312619157 0.0049743006727927903 0.0017489986135098357 0.014039118088179585
leaf_weight=79033 1120431 7082984 7241 500478 19393 28906 109003 4987 2828 1849 9933 8254 17946 196809 4893 92997 6526 62356 11558 5531 47620 5927 9267 4307 34698 10487 1862 2590 31437 5332
leaf_count=79033 1120431 7082984 7241 500478 19393 28906 109003 4987 2828 1849 9933 8254 17946 196809 4893 92997 6526 62356 11558 5531 47620 5927 9267 4307 34698 10487 1862 2590 31437 5332
internal_value=0 0.000264829 -0.000921704 -0.00267134 -0.0154246 -0.00233884 -0.00428181 -0.0119333 -0.00812251 -0.0156335 -0.0117153 -0.0215987 -0.00263482 -0.00888226 -0.00300134 -0.00447754 -0.00837194 -0.00654569 -0.0133606 -0.0322812 -0.00197653 0.00334204 -0.00717125 -0.0065837 -0.00442802 -0.00987301 -0.0442711 -0.0274111 -0.00364374 -0.0202239
internal_weight=0 9.25162e+06 2.16864e+06 1.04821e+06 26634 1.02157e+06 521094 74703 69716 40810 37982 18187 19795 275842 446391 337388 131940 125414 63058 21396 205448 101514 103934 9838 94667 59969 12349 8517 41662 10225
internal_count=9527463 9251621 2168637 1048206 26634 1021572 521094 74703 69716 40810 37982 18187 19795 275842 446391 337388 131940 125414 63058 21396 205448 101514 103934 9838 94667 59969 12349 8517 41662 10225
is_linear=0
shrinkage=0.1


Tree=21
num_leaves=31
num_cat=0
split_feature=0 0 4 3 4 4 3 2 3 4 3 3 4 3 3 3 2 4 3 4 3 2 4 4 2 3 2 4 3 3
split_gain=1831.65 400.701 337.597 303.507 239.125 235.482 229.6 220.205 557.855 377.395 373.779 585.265 654.332 324.621 242.896 223.113 212.835 277.676 392.631 265.538 258.649 201.19 347.778 302.677 725.603 469.442 295.127 346.88 328.418 305.638
threshold=8.5000000000000018 24.500000000000004 43707.000000000007 64053.000000000007 17120.500000000004 56599.500000000007 116543.50000000001 3.5000000000000004 80209.500000000015 66672.500000000015 80087.500000000015 71698.000000000015 62617.500000000007 95316.000000000015 80256.500000000015 107770.00000000001 8.5000000000000018 47918.500000000007 59521.000000000007 45338.000000000007 57331.000000000007 9.5000000000000018 56870.500000000007 60812.000000000007 4.5000000000000009 81857.500000000015 7.5000000000000009 62269.000000000007 94827.000000000015 104835.50000000001
decision_type=2 2 2 2 2 2 2 2 2 2 2 2 2 2 2 2 2 2 2 2 2 2 2 2 2 2 2 2 2 2
left_child=4 2 -2 16 -1 -5 7 10 9 -9 11 12 -7 -12 -10 21 17 18 19 -4 -21 22 -16 24 -24 -26 27 -25 -29 -30
right_child=1 -3 3 5 -6 6 -8 8 14 -11 13 -13 -14 -15 15 -17 -18 -19 -20 20 -22 -23 23 26 25 -27 -28 28 29 -31
leaf_value=0.01431894021588493 0.001356002967296486 0.00035188893082745517 -0.037652968108278458 -0.0007787598019080009 -0.0093171066665900647 -0.03810222568549685 0.012945165386760422 -0.033044223326080695 0.053023105465639576 0.03045933961691067 -0.022814325362203035 0.044744823339462753 0.038057763566772353 0.027039372040715999 -0.048261095632124114 -0.023462344481549473 -0.068002023058552893 -0.028917766988490787 0.013401086855932803 0.023021601236198657 -0.067156443784913741 -0.020308571151689856 -0.053127232475883114 -0.047560765824513691 -0.036557101012325621 0.018540473300341944 0.0054355781192314875 -0.017525689203617256 0.0098018890806675918 -0.04803504525668098
leaf_weight=4364 121871 8922508 4047 114961 223198 2781 5445 12906 673 1009 6557 4041 1898 1631 1714 7739 775 8102 5918 1705 391 8301 1797 2582 1704 16718 13053 18207 9860 1007
leaf_count=4364 121871 8922508 4047 114961 223198 2781 5445 12906 673 1009 6557 4041 1898 1631 1714 7739 775 8102 5918 1705 391 8301 1797 2582 1704 16718 13053 18207 9860 1007
internal_value=0 0.000216892 -0.00297478 -0.00504034 -0.00886383 -0.00401069 -0.00711667 -0.00807339 -0.00990435 -0.0284395 0.00245995 0.0168676 -0.00720852 -0.0128838 -0.00681016 -0.00729718 -0.0165763 -0.0145996 -0.00498137 -0.0226905 0.00619927 -0.00562788 -0.00379924 -0.00262552 0.00752741 0.0134441 -0.00721703 -0.0124342 -0.00931468 0.00444238
internal_weight=0 9.2999e+06 377393 255522 227562 234584 119623 114178 97270 13915 16908 8720 4679 8188 83355 82682 20938 20163 12061 6143 2096 74943 66642 64928 20219 18422 44709 31656 29074 10867
internal_count=9527463 9299901 377393 255522 227562 234584 119623 114178 97270 13915 16908 8720 4679 8188 83355 82682 20938 20163 12061 6143 2096 74943 66642 64928 20219 18422 44709 31656 29074 10867
is_linear=0
shrinkage=0.1


Tree=22
num_leaves=31
num_cat=0
split_feature=0 0 4 4 2 2 3 3 3 3 4 2 3 4 2 4 4 4 3 3 3 3 3 3 2 2 4 4 3 2
split_gain=1483.63 334.965 515.643 392.837 2337.71 335.057 442.969 1407.74 421.99 716.913 276.412 626.619 268.118 527.238 1035.03 744.834 1479.91 1480.81 1297.69 541.147 482.859 454.281 719.182 263.581 1030.89 300.12 261.941 611.949 275.333 403.146
threshold=8.5000000000000018 116.50000000000001 50408.500000000007 50691.500000000007 6.5000000000000009 6.5000000000000009 80256.500000000015 80011.500000000015 77816.500000000015 78187.500000000015 73912.500000000015 4.5000000000000009 79627.000000000015 54736.500000000007 4.5000000000000009 57493.500000000007 55945.500000000007 55910.500000000007 72231.000000000015 79490.000000000015 64582.000000000007 77645.500000000015 78004.500000000015 78640.000000000015 10.500000000000002 8.5000000000000018 53406.000000000007 53872.500000000007 93124.000000000015 8.5000000000000018
decision_type=2 2 2 2 2 2 2 2 2 2 2 2 2 2 2 2 2 2 2 2 2 2 2 2 2 2 2 2 2 2
left_child=-1 2 -2 4 -4 10 7 8 -7 -10 12 -12 13 19 20 16 17 18 -16 -5 -15 -17 -23 24 -11 -25 -8 -28 29 -29
right_child=1 -3 3 5 -6 6 26 -9 9 23 11 -13 -14 14 15 21 -18 -19 -20 -21 -22 22 -24 25 -26 -27 27 28 -30 -31
leaf_value=-0.0079774500187858501 0.0005986200599161543 0.00054295271890115581 -0.060307267945802934 0.0034789262265691825 0.00365127213224576 0.0017526345205937867 0.0034826090787150816 -0.060565197824957874 -0.060497148111388559 -0.045657285611615632 0.0083141326836564319 -0.040071806103243672 0.002036057092424048 -0.038241493297975264 0.0070631188493364893 -0.046638443709301244 0.0077140798592928985 -0.07524074462684037 -0.060561169479187341 -0.087773705221461967 0.003480098253462436 0.012231174763607643 -0.039696207559892574 0.0024052130206311455 0.0051526846900162232 -0.023842097636428559 -0.064293676179730488 -0.010780852175711696 -0.0010927191158347943 -0.0011889519471595944
leaf_weight=227562 1205596 6962318 7881 102838 20790 31122 60987 5282 3019 7913 5280 5428 294059 2892 9881 10008 24904 5131 3981 654 67957 4722 6129 19199 8061 5635 1651 93742 240564 82277
leaf_count=227562 1205596 6962318 7881 102838 20790 31122 60987 5282 3019 7913 5280 5428 294059 2892 9881 10008 24904 5131 3981 654 67957 4722 6129 19199 8061 5635 1651 93742 240564 82277
internal_value=0 0.000195203 -0.000840546 -0.00237329 -0.0139295 -0.00207299 -0.00379119 -0.0106682 -0.00715177 -0.0134749 -0.000305551 -0.0162132 1.39419e-05 -0.002473 -0.00657534 -0.0157136 -0.00832066 -0.0293457 -0.0123578 0.00290227 0.00177706 -0.0312719 -0.0170991 -0.00999615 -0.0200169 -0.00355048 -0.00263984 -0.00353262 -0.00329181 -0.00629729
internal_weight=0 9.2999e+06 2.33758e+06 1.13199e+06 28671 1.10332e+06 559452 80231 74949 43827 543864 10708 533156 239097 135605 64756 43897 18993 13862 103492 70849 20859 10851 40808 15974 24834 479221 418234 416583 176019
internal_count=9527463 9299901 2337583 1131987 28671 1103316 559452 80231 74949 43827 543864 10708 533156 239097 135605 64756 43897 18993 13862 103492 70849 20859 10851 40808 15974 24834 479221 418234 416583 176019
is_linear=0
shrinkage=0.1


Tree=23
num_leaves=31
num_cat=0
split_feature=0 0 4 3 3 4 4 3 4 2 2 4 4 4 4 3 3 2 2 4 4 3 3 2 2 3 3 4 4 4
split_gain=1236.34 409.094 321.962 303.215 253.386 290.377 211.491 394.701 397.297 643.077 372.245 226.942 211.581 202.399 538.539 273.174 286.994 287.192 203.532 184.369 732.034 2978.7 248.82 1473 215.98 833.414 6169.17 391.225 1345.99 334.03
threshold=4.5000000000000009 24.500000000000004 56599.500000000007 116543.50000000001 120019.50000000001 68823.000000000015 21791.500000000004 51757.000000000007 34302.000000000007 4.5000000000000009 1.5000000000000002 37023.500000000007 44749.000000000007 55501.500000000007 54921.500000000007 68094.500000000015 73138.500000000015 6.5000000000000009 9.5000000000000018 58899.500000000007 59341.000000000007 81857.500000000015 91692.500000000015 7.5000000000000009 6.5000000000000009 93124.000000000015 92423.000000000015 60588.500000000007 59473.000000000007 66331.000000000015
decision_type=2 2 2 2 2 2 2 2 2 2 2 2 2 2 2 2 2 2 2 2 2 2 2 2 2 2 2 2 2 2
left_child=-1 2 6 -4 -5 -6 -2 8 -8 10 -10 -9 -12 14 -13 -15 -17 -18 -16 -3 21 -21 23 -23 -22 26 27 28 -26 -29
right_child=1 19 3 4 5 -7 7 11 9 -11 12 13 -14 15 18 16 17 -19 -20 20 24 22 -24 -25 25 -27 -28 29 -30 -31
leaf_value=-0.0097041511178105489 0.0094716493988713651 0.00050910802372810984 -0.007292977677936999 0.035060338032355351 0.030212255044674459 -0.027172074858168468 -0.0022367580858418958 0.0096065761779674051 -0.066070018809845019 -0.050186278870684164 -0.0017470687020550398 -0.00076160488585703316 -0.038266400022427025 0.034958334034432749 -0.036181962682713495 -0.024165414467453961 0.026668841164771473 -0.0045082904823462245 0.02317674592880074 -0.051595477634323074 0.0014050068074849464 0.0023656937283392286 -8.7519157102840408e-05 -0.053324942673738988 0.0012606085278093816 0.00081091488242668623 -0.054361617008101104 0.00070380910798344175 -0.056873096114243661 -0.027896980108478322
leaf_weight=129503 18607 7190679 153302 3151 1494 2152 32701 23242 1105 5243 13656 194381 1795 3381 5763 3000 5684 6153 642 13914 619085 19410 88784 6288 14868 714153 23770 221957 5440 4160
leaf_count=129503 18607 7190679 153302 3151 1494 2152 32701 23242 1105 5243 13656 194381 1795 3381 5763 3000 5684 6153 642 13914 619085 19410 88784 6288 14868 714153 23770 221957 5440 4160
internal_value=0 0.000133722 -0.00272443 -0.00637662 0.0142913 -0.00365804 -0.000870276 -0.00151875 -0.00920779 -0.0196651 -0.00999961 0.000211114 -0.00598965 -0.000785989 -0.00170171 0.0093064 0.00346094 0.0104626 -0.0302322 0.000286024 -0.000640237 -0.00790569 -0.00259569 -0.0112612 -5.84513e-05 -0.000978862 -0.00570943 -0.00101647 -0.0143119 0.000177625
internal_weight=0 9.39796e+06 475452 160099 6797 3646 315353 296746 54500 21799 16556 242246 15451 219004 200786 18218 14837 11837 6405 8.92251e+06 1.73183e+06 128396 114482 25698 1.60343e+06 984348 270195 246425 20308 226117
internal_count=9527463 9397960 475452 160099 6797 3646 315353 296746 54500 21799 16556 242246 15451 219004 200786 18218 14837 11837 6405 8922508 1731829 128396 114482 25698 1603433 984348 270195 246425 20308 226117
is_linear=0
shrinkage=0.1


Tree=24
num_leaves=31
num_cat=0
split_feature=1 0 4 3 3 2 4 4 2 2 3 3 3 3 4 4 3 4 4 3 3 3 4 2 3 4 2 2 2 3
split_gain=1002.9 305.533 277.208 401.684 288.356 402.537 412.591 325.205 421.493 238.054 227.54 254.964 258.535 212.175 335.126 648.444 239.335 195.818 181.971 469.305 385.487 345.493 249.224 363.23 220.502 414.25 612.228 363.413 250.419 351.149
threshold=291.50000000000006 24.500000000000004 62120.500000000007 70764.500000000015 93283.000000000015 4.5000000000000009 67534.000000000015 65594.000000000015 8.5000000000000018 5.5000000000000009 109083.50000000001 108388.50000000001 105238.50000000001 90193.500000000015 66331.000000000015 64156.500000000007 82187.500000000015 62269.000000000007 44384.500000000007 62386.000000000007 55520.000000000007 52138.500000000007 44749.000000000007 6.5000000000000009 51757.000000000007 34302.000000000007 4.5000000000000009 1.5000000000000002 7.5000000000000009 54334.500000000007
decision_type=2 2 2 2 2 2 2 2 2 2 2 2 2 2 2 2 2 2 2 2 2 2 2 2 2 2 2 2 2 2
left_child=-1 2 10 -4 9 6 -6 8 17 -5 11 12 18 14 15 -11 -17 -7 24 20 21 -20 23 -21 25 -2 27 -27 -26 -30
right_child=1 -3 3 4 5 7 -8 -9 -10 13 -12 -13 -14 -15 -16 16 -18 -19 19 22 -22 -23 -24 -25 28 26 -28 -29 29 -31
leaf_value=-0.0082242974600359193 0.0016569654050017835 0.00025742152366917402 0.032023614628486755 -0.021041787438099101 -0.032950326091392451 -0.046260585493620415 0.033953792679883292 -0.012871541952490831 -0.034285019951836956 -0.012604142703626031 0.017860838708938866 -0.036386621395078547 0.02539616590645475 -0.022120433074047929 -0.018890165800825601 -0.019316456511020662 0.047228953716633201 0.018757296502024672 -0.037147691643628918 -0.085036886315625004 -0.033360489506915482 0.020805005971265722 -0.001847057485181744 0.00053187772313470949 0.0068152105464612802 -0.065982405586137299 -0.045227314351357142 -0.00036744536262965405 -0.085137664182094605 -0.0038060482920391279
leaf_weight=146000 45611 8922508 2526 23262 1135 487 4906 25311 2042 5492 6184 2081 3596 6373 6210 625 3996 9486 1525 888 9095 3161 183934 1124 72742 905 5186 12544 547 17981
leaf_count=146000 45611 8922508 2526 23262 1135 487 4906 25311 2042 5492 6184 2081 3596 6373 6210 625 3996 9486 1525 888 9095 3161 183934 1124 72742 905 5186 12544 547 17981
internal_value=0 0.000127991 -0.00238825 -0.00730152 -0.00841358 -0.00256463 0.0213837 -0.00644052 0.00710718 -0.0139328 -0.00115893 -0.00148481 -0.00128241 -0.00664651 -0.000605022 0.0106232 0.0382285 0.0155824 -0.00155246 -0.0035496 -0.0213554 0.00194503 -0.00222996 -0.0372341 0.00101243 -0.00347565 -0.0160382 -0.00478276 0.00417164 -0.00620719
internal_weight=0 9.38146e+06 458955 91851 89325 43367 6041 37326 12015 45958 367104 360920 358839 22696 16323 10113 4621 9973 355243 199727 13781 4686 185946 2012 155516 64246 18635 13449 91270 18528
internal_count=9527463 9381463 458955 91851 89325 43367 6041 37326 12015 45958 367104 360920 358839 22696 16323 10113 4621 9973 355243 199727 13781 4686 185946 2012 155516 64246 18635 13449 91270 18528
is_linear=0
shrinkage=0.1


Tree=25
num_leaves=31
num_cat=0
split_feature=0 0 4 3 3 4 2 2 4 4 2 4 4 2 3 2 2 4 4 2 3 3 2 4 0 4 4 0 1 4
split_gain=821.628 275.884 431.633 331.668 1557.15 1121.09 1005.32 380.407 389.943 1416 576.499 489.069 365.176 606.057 352.55 447.683 514.187 387.319 379.388 350.938 505.251 698.345 312.299 282.544 274.333 272.169 2310.66 285.059 228.388 222.286
threshold=4.5000000000000009 120.50000000000001 50408.500000000007 80087.500000000015 80011.500000000015 50691.500000000007 7.5000000000000009 7.5000000000000009 57427.000000000007 57742.000000000007 4.5000000000000009 58362.500000000007 66015.500000000015 10.500000000000002 93283.000000000015 4.5000000000000009 7.5000000000000009 66331.000000000015 78981.500000000015 10.500000000000002 78082.500000000015 79733.500000000015 2.5000000000000004 72809.000000000015 30.500000000000004 55945.500000000007 55910.500000000007 42.500000000000007 3822.5000000000005 56428.500000000007
decision_type=2 2 2 2 2 2 2 2 2 2 2 2 2 2 2 2 2 2 2 2 2 2 2 2 2 2 2 2 2 2
left_child=-1 2 -2 4 5 6 -4 8 22 -10 -11 -12 -5 14 17 24 18 -14 28 20 -9 29 -7 -18 -16 26 -24 -27 -17 -22
right_child=1 -3 3 12 -6 7 -8 19 9 10 11 -13 13 -15 15 16 23 -19 -20 -21 21 -23 25 -25 -26 27 -28 -29 -30 -31
leaf_value=-0.0079108969859255519 0.00048840319198098438 0.00043664871342096969 -0.052596174591115132 -0.00015498906599674509 -0.050643025279219045 -0.031666400493566352 0.0030056567923222931 0.0024048578964809297 -0.041925417543639626 0.0026052110622181873 0.0055485991580948172 -0.030347321671456103 0.013265387979502597 -0.035806080569181935 0.028261275463584864 -0.03001926789778497 0.003559208538608024 -0.020536046381422538 0.0030838066091043795 0.0040306332508108561 -0.052487368316305599 0.0069822966518724846 0.00094438676692964064 -0.022125269241672796 0.0038832232063413345 0.017897439422775441 -0.065547481714903641 0.0022346923114158739 0.0031073316721773221 -0.027251871086486038
leaf_weight=129503 1291596 6881556 8619 717050 7196 2991 5222 8326 10438 53847 5676 11457 4055 6487 6191 14792 38632 20671 6446 9737 6107 4537 182994 4817 18147 16815 5380 37609 2422 8147
leaf_count=129503 1291596 6881556 8619 717050 7196 2991 5222 8326 10438 53847 5676 11457 4055 6487 6191 14792 38632 20671 6446 9737 6107 4537 182994 4817 18147 16815 5380 37609 2422 8147
internal_value=0 0.000109011 -0.000786971 -0.00213189 -0.00456184 -0.00368436 -0.0316184 -0.00262235 -0.00153751 -0.00753556 -0.00247834 -0.0184553 -0.0010175 -0.00605958 -0.00439856 -0.00153405 -0.00574765 -0.0149927 -0.0176095 -0.0122541 -0.0181016 -0.0271876 0.000449359 0.000711683 0.0100844 0.000844989 -0.000954635 0.0070739 -0.0253584 -0.0380638
internal_weight=0 9.39796e+06 2.5164e+06 1.22481e+06 385098 377902 13841 364061 327207 81418 70980 17133 839710 122660 116173 91447 67109 24726 23660 36854 27117 18791 245789 43449 24338 242798 188374 54424 17214 14254
internal_count=9527463 9397960 2516404 1224808 385098 377902 13841 364061 327207 81418 70980 17133 839710 122660 116173 91447 67109 24726 23660 36854 27117 18791 245789 43449 24338 242798 188374 54424 17214 14254
is_linear=0
shrinkage=0.1


Tree=26
num_leaves=31
num_cat=0
split_feature=0 4 0 4 3 4 3 2 2 4 3 4 3 3 2 4 4 3 3 4 3 3 3 3 3 3 3 4 3 3
split_gain=665.518 237.38 394.905 318.195 328.731 448.724 517.377 339.187 270.004 259.179 1060.51 459.119 464.688 314.249 476.469 454.491 437.03 394.636 278.087 297.273 267.352 245.625 245.072 362.914 242.699 204.818 5404.09 216.038 201.271 2288.79
threshold=4.5000000000000009 56705.000000000007 44.500000000000007 57810.500000000007 98277.000000000015 57427.000000000007 86375.000000000015 8.5000000000000018 12.500000000000002 60812.000000000007 71698.000000000015 60087.500000000007 78004.500000000015 89906.000000000015 7.5000000000000009 59900.500000000007 58661.000000000007 82690.000000000015 105046.50000000001 58791.500000000007 81857.500000000015 89732.000000000015 80256.500000000015 80209.500000000015 79733.500000000015 92613.500000000015 92423.000000000015 57427.000000000007 78187.500000000015 78004.500000000015
decision_type=2 2 2 2 2 2 2 2 2 2 2 2 2 2 2 2 2 2 2 2 2 2 2 2 2 2 2 2 2 2
left_child=-1 -2 3 4 5 8 -7 -8 24 10 -5 12 -12 16 -15 18 21 20 19 -16 22 -14 23 -18 -3 26 28 -27 29 -4
right_child=1 2 25 9 -6 6 7 -9 -10 -11 11 -13 13 14 15 -17 17 -19 -20 -21 -22 -23 -24 -25 -26 27 -28 -29 -30 -31
leaf_value=-0.0071198071753755116 0.00040123797449265241 -0.0099037162542316027 -0.00043562701378783243 -0.040098858906128104 -0.040845982648332092 -0.032904932379025871 0.017086330529720029 -0.042988782971348595 -0.050873976220759745 -0.0052533030630741821 0.027955270449292413 0.017117156203318922 0.010006687510074082 0.018016549786531246 -0.056437694395289707 -0.069279922890008824 -0.0189737548312622 -0.041970438978389001 -0.031817508677872398 0.012959826668092402 0.030291269788625133 -0.083725353054521834 -0.039930982675390379 0.03492387878156341 0.019764474723064529 -0.068759853567853066 -0.049573706393529218 0.00077553734685192367 0.00036042233523866555 -0.045384002762358877
leaf_weight=129503 6891105 4464 190728 5676 3868 11207 4415 1194 822 169899 5310 21425 8571 12970 680 1166 4751 5665 2539 6690 1468 289 2870 1695 7212 447 22636 1031318 964836 12044
leaf_count=129503 6891105 4464 190728 5676 3868 11207 4415 1194 822 169899 5310 21425 8571 12970 680 1166 4751 5665 2539 6690 1468 289 2870 1695 7212 447 22636 1031318 964836 12044
internal_value=0 9.81103e-05 -0.000735159 -0.00424065 -0.0134452 -0.00982961 -0.0204958 0.00429801 0.00452175 -0.00302704 0.00159891 0.00470944 -0.000153644 -0.00317788 0.00500866 -0.010225 -0.0109556 -0.0205997 -0.00327592 0.0065568 -0.00937339 0.00694929 -0.0156237 -0.00480117 0.00842165 -0.000285779 -0.00117967 0.000745412 -0.00024147 -0.00310541
internal_weight=0 9.39796e+06 2.50686e+06 284846 33182 29314 16816 5609 12498 251664 81765 76089 54664 49354 24045 11075 25309 16449 9909 7370 10784 8860 9316 6446 11676 2.22201e+06 1.19024e+06 1.03176e+06 1.16761e+06 202772
internal_count=9527463 9397960 2506855 284846 33182 29314 16816 5609 12498 251664 81765 76089 54664 49354 24045 11075 25309 16449 9909 7370 10784 8860 9316 6446 11676 2222009 1190244 1031765 1167608 202772
is_linear=0
shrinkage=0.1


Tree=27
num_leaves=31
num_cat=0
split_feature=1 0 4 4 3 3 3 3 2 4 4 2 3 4 4 3 2 3 3 2 4 4 2 3 4 0 4 4 0 4
split_gain=542.213 196.161 323.889 456.374 2093.83 226.277 337.335 896.025 503.963 272.864 190.695 681.905 638.686 374.685 363.974 492.582 321.747 258.192 741.59 677.651 402.888 1001.97 342.384 704.884 567.848 308.421 257.363 1787.78 245.505 241.879
threshold=291.50000000000006 120.50000000000001 43707.000000000007 43891.500000000007 72119.500000000015 114599.50000000001 108388.50000000001 109083.50000000001 10.500000000000002 70019.000000000015 63135.000000000007 8.5000000000000018 94341.500000000015 64244.000000000007 63938.500000000007 96880.000000000015 11.500000000000002 80087.500000000015 80011.500000000015 7.5000000000000009 57427.000000000007 57742.000000000007 3.5000000000000004 70194.000000000015 58979.000000000007 28.500000000000004 55945.500000000007 55910.500000000007 24.500000000000004 73912.500000000015
decision_type=2 2 2 2 2 2 2 2 2 2 2 2 2 2 2 2 2 2 2 2 2 2 2 2 2 2 2 2 2 2
left_child=-1 2 -2 4 -4 6 10 8 -8 -9 17 14 -13 -14 15 28 -15 18 20 -20 26 -22 23 -23 -24 -25 27 -5 -12 -16
right_child=1 -3 3 5 -6 -7 7 9 -10 -11 11 12 13 16 29 -17 -18 -19 19 -21 21 22 24 25 -26 -27 -28 -29 -30 -31
leaf_value=-0.006047212307354154 0.00097064996084555207 0.00036971712633890536 -0.085895359000917215 -0.0010795398917262163 0.0032032961747010462 0.0047951450827265893 -0.045853810594011564 0.0015541589748042065 0.00074168470322867348 -0.025005672390108643 -0.024166847469911639 0.0015609703530498327 -0.071874483923117322 -0.032032934244677146 0.0012844159168150533 0.0041490866798982763 0.00084735345780868844 0.00057134015333924748 -0.048006106052823433 0.0011354083698689138 -0.032429037804731983 -0.037604191803879548 0.0024826805348809218 0.027983414774164911 -0.025888827352054101 0.0034843938377510514 0.0050466677398506915 -0.058879466804198893 -0.067999403148125387 -0.012631723555080344
leaf_weight=146000 815942 6881556 3540 570196 10346 58639 8783 30542 3155 4429 7064 10443 1860 13169 127445 6634 3845 652226 6674 4842 14381 3623 14728 6704 13540 22007 64341 5402 1560 13847
leaf_count=146000 815942 6881556 3540 570196 10346 58639 8783 30542 3155 4429 7064 10443 1860 13169 127445 6634 3845 652226 6674 4842 14381 3623 14728 6704 13540 22007 64341 5402 1560 13847
internal_value=0 9.41104e-05 -0.000664559 -0.00145688 -0.0195109 -0.00130677 -0.00152881 -0.00988461 -0.0335395 -0.00180959 -0.00127828 -0.00428509 -0.0182818 -0.0292609 -0.00166393 -0.0163369 -0.0246023 -0.000872911 -0.00216962 -0.0273441 -0.00176411 -0.00869917 -0.00306802 0.00395998 -0.0111069 0.0092049 -0.00095151 -0.00162199 -0.0320957 -7.94036e-05
internal_weight=0 9.38146e+06 2.49991e+06 1.68396e+06 13886 1.67008e+06 1.61144e+06 46909 11938 34971 1.56453e+06 185867 29317 18874 156550 15258 17014 1.37866e+06 726438 11516 714922 74983 60602 32334 28268 28711 639939 575598 8624 141292
internal_count=9527463 9381463 2499907 1683965 13886 1670079 1611440 46909 11938 34971 1564531 185867 29317 18874 156550 15258 17014 1378664 726438 11516 714922 74983 60602 32334 28268 28711 639939 575598 8624 141292
is_linear=0
shrinkage=0.1


Tree=28
num_leaves=31
num_cat=0
split_feature=1 4 0 4 3 4 3 2 3 3 3 3 4 2 4 4 4 3 4 3 3 2 4 4 2 2 3 3 2 1
split_gain=449.16 183.565 270.819 213.155 248.301 324.177 337.294 275.76 231.99 559.357 334.123 451.478 241.092 293.42 244.063 220.518 214.999 714.789 512.814 279.393 330.656 309.091 347.759 287.875 276.177 335.5 255.515 255.088 414.91 244.159
threshold=220.50000000000003 56705.000000000007 42.500000000000007 57810.500000000007 98277.000000000015 57427.000000000007 86375.000000000015 8.5000000000000018 94827.000000000015 94341.500000000015 96903.500000000015 99455.500000000015 64156.500000000007 4.5000000000000009 65444.000000000007 66331.000000000015 60812.000000000007 71698.000000000015 60974.000000000007 78004.500000000015 79733.500000000015 4.5000000000000009 59341.000000000007 58661.000000000007 7.5000000000000009 6.5000000000000009 80209.500000000015 90193.500000000015 10.500000000000002 817.50000000000011
decision_type=2 2 2 2 2 2 2 2 2 2 2 2 2 2 2 2 2 2 2 2 2 2 2 2 2 2 2 2 2 2
left_child=-1 -2 3 4 5 -3 -7 -8 9 16 -10 -12 -13 -14 -15 -11 17 -5 -18 -19 -21 -22 23 -23 25 -20 -24 -26 -29 -28
right_child=1 2 -4 8 -6 6 7 -9 10 15 11 12 13 14 -16 -17 18 19 24 20 21 22 26 -25 27 -27 29 28 -30 -31
leaf_value=-0.006338492873061566 0.00034121807634224384 0.0045348474015373518 -0.00028546172171097368 -0.032152378224389211 -0.035032562625083481 -0.027079221470827777 0.01582749595803715 -0.038747039210157382 0.013324370548502211 -0.059457902936115137 -0.031478298980818074 0.0064537399182819054 0.017048360143249855 -0.045562161237944758 -0.0066855475820624668 -0.015492864944991989 -0.043899653394512385 0.022536161334067585 -0.0052555812177214247 -0.025103951864021198 -0.025782315809138697 0.010943341693770149 -0.029223021963752007 -0.014130525295116362 0.015249254748108947 -0.023745100628243879 0.044194193115183723 -0.019901455312780685 0.027636685014865159 0.013957498134823644
leaf_weight=110500 6897453 11958 2233956 5863 3855 11054 4123 1194 18670 2488 4744 34075 5109 1706 30216 2107 3583 7500 60932 4179 3118 8409 1138 10053 11022 11698 3295 6867 2506 14092
leaf_count=110500 6897453 11958 2233956 5863 3855 11054 4123 1194 18670 2488 4744 34075 5109 1706 30216 2107 3583 7500 60932 4179 3118 8409 1138 10053 11022 11698 3295 6867 2506 14092
internal_value=0 7.43768e-05 -0.000656132 -0.00355598 -0.0112218 -0.00798169 -0.0171242 0.00357209 -0.00258223 -0.00491636 0.00134051 -0.00160925 0.000383536 -0.00520211 -0.00876322 -0.0392981 -0.00389219 0.000940806 -0.00677609 0.00468763 0.00166477 0.00445411 0.00700304 -0.00270998 -0.00534622 -0.00823356 0.016683 0.00493609 -0.00719148 0.0196876
internal_weight=0 9.41696e+06 2.51951e+06 285554 32184 28329 16371 5317 253370 158850 94520 75850 71106 37031 31922 4595 154255 57647 96608 51784 44284 40105 36987 18462 93025 72630 18525 20395 9373 17387
internal_count=9527463 9416963 2519510 285554 32184 28329 16371 5317 253370 158850 94520 75850 71106 37031 31922 4595 154255 57647 96608 51784 44284 40105 36987 18462 93025 72630 18525 20395 9373 17387
is_linear=0
shrinkage=0.1


Tree=29
num_leaves=31
num_cat=0
split_feature=1 4 3 4 2 4 2 3 4 3 4 2 4 3 4 3 4 3 3 4 3 3 3 2 4 4 3 4 2 3
split_gain=366.75 269.866 221.532 409.906 352.312 245.377 360.606 210.724 463.968 194.084 184.887 173.386 198.129 161.079 355.815 191.275 156.23 143.762 225.056 184.267 158.321 318.562 164.789 162.362 188 174.342 154.061 151.576 151.348 137.852
threshold=817.50000000000011 21791.500000000004 51757.000000000007 44343.000000000007 3.5000000000000004 34302.000000000007 3.5000000000000004 41749.500000000007 41095.500000000007 114599.50000000001 66331.000000000015 9.5000000000000018 44749.000000000007 60206.500000000007 37023.500000000007 52917.500000000007 36399.500000000007 62386.000000000007 54334.500000000007 50283.000000000007 77645.500000000015 76437.000000000015 62831.500000000007 2.5000000000000004 48911.500000000007 47886.000000000007 90957.500000000015 48698.500000000007 3.5000000000000004 68598.500000000015
decision_type=2 2 2 2 2 2 2 2 2 2 2 2 2 2 2 2 2 2 2 2 2 2 2 2 2 2 2 2 2 2
left_child=1 -1 5 4 -4 -3 7 -7 -9 11 -11 12 -5 14 -6 -16 -8 18 28 20 21 22 -19 -24 25 -25 -22 -28 -14 -26
right_child=-2 2 3 9 13 6 16 8 -10 10 -12 -13 17 -15 15 -17 -18 19 -20 -21 26 -23 23 24 29 -27 27 -29 -30 -31
leaf_value=0.0083642930076842509 0.00013140056453614778 -0.0035735110128181898 0.019909380607208007 -0.035121465580393252 0.0086171049021654435 -0.026513577447722154 -0.01388151260108164 0.01938467097956216 -0.018111399136519064 0.026660291577193337 -0.0022828952536548936 -0.021344535197685824 -0.00041622702573910385 0.0057575095785221617 -0.065001861338109965 -0.013845762378312637 -0.049065900005744394 0.04845538122553221 -0.018839938709499376 -0.004524520830585502 0.017385054562603672 -0.064656784943261075 0.030400223446845395 -0.0049540431081429121 -0.042311125365509232 0.020286243056336372 0.012008882627675408 -0.076582365829632473 0.052451791040382556 -0.0074815368397718358
leaf_weight=20117 9118463 33734 12273 2073 9702 5526 1825 5427 8420 3881 5117 6139 3171 30334 783 10987 4091 710 13635 200272 9528 764 1551 8509 1760 4034 418 359 653 3207
leaf_count=20117 9118463 33734 12273 2073 9702 5526 1825 5427 8420 3881 5117 6139 3171 30334 783 10987 4091 710 13635 200272 9528 764 1551 8509 1760 4034 418 359 653 3207
internal_value=0 -0.00292951 -0.00351374 -0.00250413 0.00467516 -0.00915614 -0.016603 -0.0100042 -0.00341571 -0.00423504 0.0102008 -0.00474089 -0.00433422 0.00106612 -0.00556151 -0.0172489 -0.038212 -0.00407746 -0.0128273 -0.00341647 0.00377911 -0.00129651 0.00115189 -0.000610113 -0.00335695 0.00316358 0.0138934 -0.0289232 0.00861171 -0.019823
internal_weight=0 409000 388883 329860 64079 59023 25289 19373 13847 265781 8998 256783 250644 51806 21472 11770 5916 248571 17459 231112 30840 20535 19771 19061 17510 12543 10305 777 3824 4967
internal_count=9527463 409000 388883 329860 64079 59023 25289 19373 13847 265781 8998 256783 250644 51806 21472 11770 5916 248571 17459 231112 30840 20535 19771 19061 17510 12543 10305 777 3824 4967
is_linear=0
shrinkage=0.1


Tree=30
num_leaves=31
num_cat=0
split_feature=1 0 4 4 3 3 3 3 3 1 2 3 3 4 4 2 1 3 2 4 4 3 2 4 4 4 2 4 3 3
split_gain=303.122 149.773 253.633 803.79 451.461 571.248 147.919 280.237 901.422 373.863 215.147 179.271 326.202 511.02 228.574 221.774 311.449 267.025 1141.98 628.771 1134.02 249.853 378.524 673.89 319.611 867.966 294.288 1000.42 417.926 395.934
threshold=220.50000000000003 150.50000000000003 52609.500000000007 52805.000000000007 80011.500000000015 78640.000000000015 115379.50000000001 108388.50000000001 109083.50000000001 5412.5000000000009 7.5000000000000009 93124.000000000015 92423.000000000015 62473.000000000007 67087.000000000015 6.5000000000000009 963.50000000000011 88652.000000000015 8.5000000000000018 65119.500000000007 59246.000000000007 79733.500000000015 4.5000000000000009 63351.000000000007 60626.500000000007 57427.000000000007 4.5000000000000009 57493.500000000007 77382.000000000015 79490.000000000015
decision_type=2 2 2 2 2 2 2 2 2 2 2 2 2 2 2 2 2 2 2 2 2 2 2 2 2 2 2 2 2 2
left_child=-1 2 -2 4 5 -4 7 11 9 -9 -10 12 14 -14 15 21 -17 -18 19 20 -19 26 23 24 25 -23 -5 29 -29 -28
right_child=1 -3 3 6 -6 -7 -8 8 10 -11 -12 -13 13 -15 -16 16 17 18 -20 -21 -22 22 -24 -25 -26 -27 27 28 -30 -31
leaf_value=-0.0052070849356169882 0.00025644026275616619 0.00034246682918913292 -0.049670189325824454 0.0011731663423394073 -0.0471771869097658 0.0028078150205886982 0.0038372963838123326 -0.044784049962028609 -0.022045080374937763 0.0026026053811772894 0.0011697353572515052 0.00072892422772758369 1.0232661450436752e-05 -0.029579149796047595 -0.012654834533525972 -0.016523970522704018 -0.00058365955860960382 0.0021961933268390792 0.0014627080856719991 -0.0032931006645980053 -0.048592385367511509 0.0050023927475113493 0.004161034101057658 -0.033225162484804192 0.0064781792677839935 -0.040363162755504854 -0.00099189951819924032 -0.036505769957656302 -0.011631878535740563 -0.079008031611413398
leaf_weight=110500 1826077 6287361 2866 134252 5477 7509 53827 8233 4562 2087 31958 338037 12677 10817 18496 17730 174535 6373 53766 11090 14174 12149 193369 7483 25585 6460 121921 12024 15414 654
leaf_count=110500 1826077 6287361 2866 134252 5477 7509 53827 8233 4562 2087 31958 338037 12677 10817 18496 17730 174535 6373 53766 11090 14174 12149 193369 7483 25585 6460 121921 12024 15414 654
internal_value=0 6.11007e-05 -0.000504163 -0.00156967 -0.0239503 -0.0116888 -0.00129416 -0.00151802 -0.00910467 -0.0352011 -0.00173021 -0.00121864 -0.00199411 -0.0136132 -0.00166342 -0.0014115 -0.00370035 -0.00282566 -0.00740757 -0.0224823 -0.0328394 -0.000210803 0.00212925 -0.00547345 -0.000774489 -0.010746 -0.00222801 -0.00527184 -0.0225322 -0.00140816
internal_weight=0 9.41696e+06 3.1296e+06 1.30352e+06 15852 10375 1.28767e+06 1.23385e+06 46840 10320 36520 1.18701e+06 848969 23494 825475 806979 277668 259938 85403 31637 20547 529311 245046 51677 44194 18609 284265 150013 27438 122575
internal_count=9527463 9416963 3129602 1303525 15852 10375 1287673 1233846 46840 10320 36520 1187006 848969 23494 825475 806979 277668 259938 85403 31637 20547 529311 245046 51677 44194 18609 284265 150013 27438 122575
is_linear=0
shrinkage=0.1


Tree=31
num_leaves=31
num_cat=0
split_feature=0 4 4 0 0 3 2 4 3 2 4 3 3 4 4 2 3 2 4 4 3 3 0 3 3 0 4 4 4 3
split_gain=251.846 133.061 4424.07 241.737 169.527 254.783 165.726 342.176 307.707 290.27 275.888 246.875 322.429 240.029 305.641 271.437 231.783 212.427 355.621 352.306 272.239 270.288 190.321 181.327 252.502 206.794 291.575 153.916 123.964 123.259
threshold=2.5000000000000004 62473.000000000007 62617.500000000007 110.50000000000001 48.500000000000007 70764.500000000015 8.5000000000000018 65594.000000000015 90404.500000000015 14.500000000000002 66015.500000000015 94827.000000000015 95595.000000000015 65594.000000000015 62857.500000000007 4.5000000000000009 111558.00000000001 5.5000000000000009 65444.000000000007 64156.500000000007 93283.000000000015 88982.000000000015 26.500000000000004 79145.500000000015 79023.000000000015 12.500000000000002 63010.500000000007 67534.000000000015 62857.500000000007 100212.00000000001
decision_type=2 2 2 2 2 2 2 2 2 2 2 2 2 2 2 2 2 2 2 2 2 2 2 2 2 2 2 2 2 2
left_child=-1 -2 3 -3 5 -4 11 8 28 22 -9 17 -13 14 -14 -15 -12 20 19 21 23 -19 -10 24 -7 -25 -27 -18 -8 -17
right_child=1 2 4 -5 -6 6 7 10 9 -11 16 12 13 15 -16 29 27 18 -20 -21 -22 -23 -24 25 -26 26 -28 -29 -30 -31
leaf_value=-0.0056215263340150031 0.00017292444337773334 -0.025680494666475248 0.017522621763745101 -0.047613404325153277 0.00067921240700498549 -0.011298617311677505 0.021435358946583702 0.023754911485552435 -0.026512630472505901 0.010056776299057808 -0.016424051103107375 0.01943131609991005 -0.029134755053609504 0.011695488146700947 0.016539464981023527 -0.02318932953701118 0.029206164598752912 0.015175422617258691 -0.0094144092491213766 0.025942283199088374 0.01738812761808926 -0.022708637979530519 -0.060518207043253891 -0.0097664864453882519 0.030309726160888339 0.018929120598914335 -0.032053445932292583 -0.011017251218072933 -0.01906348296813536 -0.0064945450727281794
leaf_weight=79033 8492530 6822 5885 19079 770013 4790 1612 3380 3325 1204 9729 9826 1682 6936 11362 6008 2277 3664 18469 7880 3149 3875 3259 17726 2097 1252 10785 1634 1423 16757
leaf_count=79033 8492530 6822 5885 19079 770013 4790 1612 3380 3325 1204 9729 9826 1682 6936 11362 6008 2277 3664 18469 7880 3149 3875 3259 17726 2097 1252 10785 1634 1423 16757
internal_value=0 4.70222e-05 -0.00107153 -0.0418365 6.37943e-05 -0.00289821 -0.00367807 -0.0106614 -0.0245633 -0.0350892 -0.00182125 -0.00213807 0.00309711 -0.000657713 0.0106499 -0.00562374 -0.00815904 -0.00587303 -5.43778e-05 0.0111571 -0.0108275 -0.00429675 -0.043345 -0.0132518 0.00137057 -0.0166353 -0.0267506 0.012401 0.00244694 -0.0109005
internal_weight=0 9.44843e+06 955900 25901 929999 159986 154101 27843 10823 7788 17020 126258 52571 42745 13044 29701 13640 73687 33888 15419 39799 7539 6584 36650 6887 29763 12037 3911 3035 22765
internal_count=9527463 9448430 955900 25901 929999 159986 154101 27843 10823 7788 17020 126258 52571 42745 13044 29701 13640 73687 33888 15419 39799 7539 6584 36650 6887 29763 12037 3911 3035 22765
is_linear=0
shrinkage=0.1


Tree=32
num_leaves=31
num_cat=0
split_feature=1 0 4 4 3 3 3 3 3 2 0 3 3 4 2 0 3 3 4 1 2 4 4 2 0 1 3 3 4 4
